-0.5952218,0.1655778,0.06613954,0.4845749,0.3141197,0.1028846,0.2644808,0.5528092,0.02363012,-0.5692635,0.3339283,0.0972981,-0.5614424,-0.6300969,-0.04053553,-0.07316669,-0.03134599,0.07005984,0.1150763,0.3118509,-0.2620265,-0.1474203,-0.2187672,-0.1010621,0.02651127
-0.06596565,0.1899301,0.1724043,-0.562475,-0.04091674,-0.634895,0.3799833,-0.1274669,0.02895257,-0.09117114,0.2786857,0.02003157,0.2683829,0.2125524,-0.03170606,0.1733885,0.3805971,0.007669413,0.4793149,-0.2387624,-0.2496617,0.0915143,0.3438771,0.1883003,0.3623289
-0.2230931,-0.3625383,-0.2623246,0.3194489,0.4542322,-0.4223129,-0.1889012,0.08959094,0.2283625,0.1329199,-0.1710003,-0.278387,0.3390891,0.04632565,0.2080116,-0.4112673,0.2727866,-0.09564589,0.5313923,0.001889028,-0.2496293,0.1101325,0.336324,-0.003577644,-0.291088
0.240068,-0.1382456,0.6080552,0.3525187,-0.06751405,-0.2384006,0.04306979,0.1168554,0.458638,0.5168896,-0.3007959,-0.6087848,-0.1909067,-0.09850004,0.2410009,-0.01790278,-0.5144002,-0.418476,-0.5063065,-0.2209651,0.1354903,0.01315237,-0.194995,-0.1545306,-0.3631372
0.07859429,0.1942524,0.2494286,-0.5185618,-0.2047929,-0.1875515,0.2158285,0.08192842,-0.04957573,-0.19658,0.2549697,0.08108141,-0.1280376,-0.08043709,-0.3424029,-0.1990273,0.2909229,-0.4259963,-0.367191,-0.02098351,-0.01364325,-0.1988745,0.07220944,0.1588611,-0.3589371
0.02295776,0.1336919,0.5601346,-0.2849402,-0.1757603,-0.1961884,0.006186625,-0.02661626,-0.05194583,-0.390287,-0.2058632,0.2456462,-0.3669897,0.05096881,-0.3529093,0.001657234,0.1285428,0.2842282,-0.487516,0.1870627,-0.3251666,0.04989953,-0.3618193,-0.3843949,0.1180886
