0.1414445,-0.1349351,0.02357377,-0.1887055,-0.101296,-0.08943278,-0.1832373,-0.007273919,-0.0802207,-0.2649668,0.02437496,-0.1409998,-0.3122053,0.00376821,-0.1459579,-0.01854392,0.02362499,0.03881251,-0.3491299,0.01609272,-0.2687005,-0.2651975,-0.2144533,-0.05757412,-0.2523427,0.0498681,-0.2718925,-0.3094993,-0.03034148,-0.2390844,-0.1107585,-0.03126628,-0.04890969,-0.2962762,-0.1217767,-0.1323481,0.03699974,0.04088347,-0.05991024,-0.1020232,-0.02879067,-0.2404414,-0.3039842,-0.007765385,-0.3549008,-0.2534297,-0.03330626,-0.05790177,-0.1146564,-0.2430283,0.09967199,-0.2053253,-0.002422314,0.03430893,-0.2042925,0.04007391,-0.030572,0.05143459,0.08270451,-0.04522456,-0.1308299,-0.04864051,-0.2461673,-0.07050424,0.03882311,-0.2174452,-0.2524554,-0.08864643,-0.1327059,-0.09142961,-0.166362,-0.181446,-0.04544461,-0.1899174,0.06285439,0.03738013,0.01183918,-0.20592,0.08661081,0.02537823,0.08836984,-0.1700809,-0.1097946,-0.01421556,-0.110343,-0.1701153,-0.05028528,-0.1233855,-0.02028312,-0.06888743,0.05276284,-0.01777696,-0.1741369,-0.01234348,-0.06988355,0.1464672,-0.2464237,-0.1924511,-0.2338157,-0.270143,0.1534634,0.02430808,0.07887129,0.05721219,-0.1755936,0.1222898,-0.09900375,0.02751083,0.07130581,-0.2204454,0.08150558,-0.02492704,-0.08757527,0.01854712,0.005880994,0.05839194,-0.152261,-0.00988942,-0.2521108,-0.2256379,-0.02119368,0.003013035,-0.1926166,-0.007134628,-0.03819072,-0.01694378,0.03339651,0.04253092,0.01619661,0.1589344,0.05126351,0.04531102,-0.02635142,-0.2419945,-0.1273846,0.03038887,-0.1045194,0.01890762,0.1098566,-0.02189817,-0.1883954,0.1041765,-0.2194011,0.14523,-0.08380485,-0.06717366,-0.0007139121,-0.1300963,-0.112876,0.02006913
0.1797168,-0.009479119,0.06439321,-0.07810359,0.2602772,0.03409719,-0.1903966,-0.0294263,0.006183775,0.04955481,-0.1408039,-0.1605025,-0.2653373,-0.1551686,0.01984197,0.1023449,-0.1927016,-0.1627519,0.09085765,-0.1794569,0.1369273,-0.136858,0.1012193,-0.1984099,-0.0161574,0.2927446,-0.08456854,0.09836397,-0.05137411,0.1298218,0.2437781,-0.03516942,-0.1795567,0.01911993,-0.01950119,0.07290248,-0.163432,-0.110922,-0.3173989,-0.2595868,-0.05547785,0.1203961,0.1166315,-0.03516654,-0.1243122,-0.1184507,0.06798162,0.03030325,0.4245588,0.3675797,-0.088475,-0.1594927,0.1126535,-0.07291251,-0.07889533,-0.144442,-0.3066985,-0.1017211,-0.110458,0.02546017,-0.1134539,-0.2515411,-0.2948553,-0.1403104,0.154501,-0.1476549,-0.2222046,-0.1420799,-0.1522446,-0.1558221,-0.03410731,0.1922266,0.02651972,-0.2160115,-0.1555662,0.1307572,0.1769211,-0.09266759,0.06716928,-0.2116199,-0.03596085,0.02410333,0.04753772,-0.1443959,-0.07633574,-0.1380206,0.2196989,0.3129216,0.2884805,0.3718835,0.2169706,0.06951691,0.04797187,0.1456821,0.01674667,0.1520318,0.1374949,-0.01174691,0.1865391,-0.08700413,0.008205839,0.2393621,0.04516708,-0.01651945,0.04727703,-0.1275916,-0.1250845,0.1622323,-0.006250866,-0.03741939,-0.1435235,-0.1943403,-0.04890659,-0.06068514,0.07236851,-0.06052855,-0.139445,-0.04247363,-0.1926655,-0.07359751,0.01737032,-0.1308798,-0.07693388,0.05639024,-0.1645903,-0.1472639,0.1405892,0.1934021,0.1315553,0.1015246,-0.107218,-0.1403764,0.2032892,0.2011838,-0.06231547,0.1917227,0.03551802,0.1803497,0.1173067,0.1004969,0.0335041,0.1540567,-0.145165,-0.0396154,-0.1122255,0.2668485,0.1857714,-0.1642948,-0.1641317,0.02889482
0.02020696,0.004032942,0.09448329,-0.0411669,-0.06343666,-0.05852727,0.1290098,0.04338353,0.1213469,-0.06293315,0.2285791,-0.0171774,0.2157438,-0.1352621,-0.03548974,0.1379199,-0.05349144,0.09567394,-0.03368839,-0.1815572,-0.1657657,0.07845315,0.07783458,0.2191022,-0.1259891,0.05422764,0.117066,-0.03988184,-0.06683874,-0.2112216,-0.03024083,0.01404358,0.3371767,0.3249901,0.1077915,0.04139642,0.2162346,0.2436613,0.4063352,0.3601746,-0.1357405,-0.06640173,-0.1977605,-0.04539149,0.1388542,-0.08712208,0.003412191,-0.02064765,0.06709932,-0.1233548,-0.133833,-0.07582071,0.05902936,-0.07365554,0.2790512,-0.05319845,-0.2984896,-0.03202827,-0.213399,-0.1740209,0.0312469,-0.06625595,-0.207088,-0.378654,-0.2326145,0.09878834,-0.1370043,0.00556585,0.01286845,-0.07161215,0.02760567,0.04949756,0.06508342,0.03765731,0.05791212,-0.1140444,-0.2226786,-0.2729189,-0.1067214,0.05452575,-0.1573374,0.1066941,0.04022181,-0.03567703,0.08527648,0.009663778,0.256633,0.2590389,0.3000006,-0.04370805,0.03672349,0.1528184,-0.09470538,0.1423295,-0.0243599,-0.05003814,-0.1595624,-0.2939496,0.01454652,-0.2915128,-0.04155408,0.1070933,-0.08081908,-0.01165539,0.01313661,-0.05078912,-0.07525314,-0.1316347,-0.05247913,0.03123048,-0.08903378,0.05300815,-0.2496462,-0.2476581,-0.05558337,-0.1986775,-0.01897873,-0.04592399,-0.03195137,0.02042092,0.1090326,-0.2480025,-0.08248307,0.08405418,-0.001339172,0.1731968,0.009036767,0.1092621,-0.1317305,0.05856519,-0.01808682,-0.09641419,0.09517656,-0.1813494,-0.2265406,-0.1029106,-0.07184717,-0.03340515,-0.1511036,0.04895116,-0.1263035,-0.0326192,0.008148391,0.08104715,-0.1278565,0.04500725,0.1558591,0.009567354,0.08591909,0.06723806
0.1493038,-0.1870882,-0.2643736,-0.02749908,0.06767115,0.1227373,0.08487253,-0.1658269,-0.2617186,-0.2434387,-0.0818257,-0.09920727,0.09276296,-0.08177327,0.02945239,-0.0007675603,0.03642982,-0.2717164,0.03710305,0.01735536,-0.04739748,0.06714524,-0.1960188,-0.1600627,0.05375976,-0.02943618,-0.1266928,-0.08386117,-0.1821397,0.03036333,-0.1261623,-0.06406379,-0.1245492,0.04996002,0.02218548,-0.1619306,-0.1733534,-0.264968,-0.07511117,0.001175919,-0.08279054,0.06983675,-0.09538291,-0.04351717,-0.2554227,-0.1611892,0.006913882,-0.07887077,-0.2237823,-0.1042802,-0.04528945,-0.1895363,-0.1121492,-0.06913109,0.05043539,0.009094443,-0.2111517,0.06510597,-0.1759799,-0.0384978,0.1374325,0.02447278,-0.2590729,-0.2595563,-0.1450579,0.1318889,-0.1488784,0.003918847,-0.08303958,-0.0005441153,0.03664872,0.0252455,-0.105582,-0.0352855,-0.1717529,-0.1972239,-0.05000355,-0.1388033,0.06053907,-0.109277,0.03783289,-0.07448308,-0.04786057,-0.23009,0.1456771,-0.06366552,0.07777785,0.0421884,-0.1778532,-0.02260272,-0.1646406,-0.1682847,-0.1188204,0.09839294,0.05774365,-0.2331078,-0.03605869,0.007679313,-0.02626695,0.06422322,-0.1460818,-0.1924812,-0.01707506,-0.1198803,-0.1733029,-0.02317244,0.05882504,-0.03421411,0.08086911,0.04680491,-0.0470987,-0.05954846,0.05881533,0.03611179,0.06465619,0.1533484,0.1177639,0.003276836,0.0680462,0.03083524,0.04769516,0.1323438,0.09751032,-0.1277171,-0.1092365,-0.09867795,-0.1336056,0.135787,0.153464,-0.2026372,-0.1892089,0.0628521,0.0986881,-0.1082516,-0.1975543,0.14573,0.06017726,-0.02371231,-0.05073216,0.0435201,0.01145662,-0.124406,0.006209415,0.09392571,-0.08351687,0.00221286,-0.1530782,-0.04931542,-0.08716425,-0.2042321
0.05892808,-0.04043616,0.02773485,0.02941319,0.01103195,-0.1321939,0.0528965,-0.01077151,0.04520541,-0.03524825,-0.01891099,-0.05042183,-0.03258895,-0.1980773,0.002858484,0.05502478,-0.1997197,-0.03578004,-0.01434142,-0.1320987,0.1435014,-0.03424139,-0.07228492,-0.07483034,-0.02934727,0.1273065,-0.04346188,-0.2024565,-0.1678216,-0.09253357,-0.1981619,-0.07298372,-0.1187381,0.01311014,-0.1121596,-0.1584011,-0.01542594,-0.1236824,0.1049488,0.1008994,0.06786484,-0.1500744,0.02801923,0.109406,0.09876175,0.09750922,-0.1132762,-0.0926055,-0.07860439,-0.198183,0.0354929,0.157353,0.1594017,-0.1397317,-0.1144615,0.04224667,-0.0574194,0.07030209,0.1815821,-0.1558989,0.05477279,0.1121357,-0.1467984,-0.03414469,0.04350114,-0.08132899,0.1395604,-0.03308653,0.1025557,0.1039444,-0.02343102,-0.1026381,-0.001515318,-0.1373438,0.1333655,0.1288901,-0.1785872,-0.1752365,-0.08357543,0.001407605,0.0930569,-0.07129568,-0.001352829,-0.005044807,0.06608748,0.08837567,0.1836953,-0.1021411,-0.1243962,-0.1452653,-0.09884124,0.0860303,-0.1192511,-0.04673196,-0.02132237,-0.04969103,-0.08528554,0.03155081,-0.1940638,-0.07082254,-0.009724245,-0.1833331,-0.1279383,0.1281736,-0.1534765,0.1980484,-0.03504089,-0.1242859,0.1742252,0.1196505,-0.05381932,-0.1393838,0.03795211,0.1835628,-0.01983982,-0.1264369,-0.1096589,-0.1195369,-0.034379,0.04132069,-0.1924979,0.1065655,0.005944341,0.1091904,-0.09078269,-0.08610529,-0.02946909,0.09039019,-0.12251,-0.08670552,0.01119573,0.02972812,-0.2041614,-0.02617632,-0.07056554,0.06907096,0.1015328,0.005466905,-0.170037,-0.1001115,-0.1707815,-0.01970374,0.103004,-0.205309,-0.01910101,0.1081495,0.009550976,-0.07049155,0.1394326,0.02600829
-0.1648459,-0.1143546,-0.04024893,0.05941475,-0.1466107,-0.1945747,-0.02014663,-0.2260787,-0.01390113,-0.2030758,-0.1409997,0.02819191,-0.2747903,-0.07808618,-0.01317825,-0.003844917,-0.05525144,-0.1467247,0.05607686,-0.04366256,0.02942609,-0.1431172,0.06347621,-0.2361944,-0.1184437,-0.081186,-0.09394193,0.03294288,-0.1892402,-0.2938096,-0.03210424,-0.05253155,-0.08779439,-0.1552582,-0.2739225,-0.1120634,-0.1652594,0.02643602,-0.2379725,0.0254997,0.04468275,-0.08356243,-0.008139206,0.0983834,-0.02351636,-0.1999249,-0.07681737,-0.1881842,-0.1192772,-0.1345545,0.08579026,-0.07302266,-0.2381812,-0.1651213,0.1089121,-0.1752691,0.009990864,0.07917676,-0.2062069,0.004135981,-0.174351,0.01163133,-0.1877134,0.01784891,0.1138225,-0.07088919,-0.2624307,-0.02125124,-0.1164299,0.0559585,0.03548758,-0.1765311,0.04110883,0.02837555,0.1083352,-0.136199,-0.09845441,0.1499374,-0.01081686,-0.07901575,0.1295229,-0.06096812,0.1416626,0.05015578,-0.004035356,0.1004291,-0.005477179,0.1254193,-0.04740189,-0.07013272,-0.06282059,-0.1764034,-0.02622565,0.112028,-0.00929544,-0.1116469,-0.2301039,-0.2214577,0.09309822,-0.1713607,0.06804162,0.149467,-0.08360036,-0.2524091,0.1226985,0.06795099,-0.1897766,-0.2359447,-0.1101409,-0.01044222,0.1353121,-0.03914043,-0.04868403,-0.1257691,-0.1831625,-0.1841901,-0.09941176,-0.2131009,-0.1155227,0.09367377,-0.2004981,-0.06099061,-0.01296496,0.142182,-0.1795336,0.08770158,-0.1651238,-0.1608893,0.005777205,-0.1408383,-0.1181286,-0.06832544,0.07380178,0.1509565,-0.03193558,0.1250145,0.1575205,0.1270361,-0.1713199,0.0303812,-0.1851822,-0.07656974,-0.09064206,-0.003737375,0.06467491,-0.1522329,-0.0514586,0.04517319,-0.1196868,0.1546469
-0.03477899,-0.07864056,-0.01386721,0.1082649,0.1354799,0.07311685,-0.1217222,-0.04066294,-0.02712866,-0.2547436,-0.1660451,0.02218796,-0.1739864,-0.2766043,0.006225038,-0.09011605,0.05953433,-0.2175657,-0.2315899,-0.1801721,0.1305246,-0.09546057,-0.04853439,-0.05419756,-0.1094372,0.1211341,-0.1355019,-0.1786194,0.1766521,0.2914561,0.03742419,0.08563972,-0.03770733,-0.02328569,0.1919147,-0.09204307,-0.1701093,-0.1773281,-0.3781368,-0.1162973,-0.04628462,-0.06131315,-0.04835635,-0.320623,0.1722122,0.006488587,0.06108735,-0.1068693,0.197438,0.2231957,-0.05471966,-0.002631193,-0.0991531,-0.03729624,-0.007185691,-0.0375707,0.1248648,-0.1537321,0.08896732,-0.256906,0.2111035,-0.1838787,0.08089869,0.1104146,0.01247844,-0.1003796,-0.1833579,0.0657967,0.06975519,0.2774315,0.01957202,0.05827199,0.00618396,0.1468337,0.2205461,0.2139395,0.1140611,0.1998751,0.1018994,-0.08067035,0.05779316,-0.1370329,-0.009389419,0.2204066,-0.07572834,0.09965128,-0.1429935,-0.2284798,-0.02186876,0.03574317,0.2165249,-0.09942161,-0.04910385,-0.09071083,-0.05530391,-0.16048,-0.1247552,0.05817403,-0.1738061,-0.05150561,-0.1980932,0.131156,-0.1484826,0.1207948,-0.03721237,-0.01217084,-0.09684698,0.05508085,0.1062947,0.09288506,0.1839067,0.04301274,-0.1456304,0.04710117,-0.171043,0.06417739,0.01461122,-0.08370207,0.1441759,-0.1247515,-0.159058,0.01768614,-0.1439952,-0.1713255,-0.1463991,0.10487,0.006016691,-0.1752824,0.1014729,0.0001679113,-0.092747,-0.04494758,0.0697408,-0.002179199,-0.1579224,0.1059946,-0.1031729,0.00222296,-0.02783393,-0.1273707,-0.06319691,0.08349375,-0.1756641,0.2045288,0.001476562,0.06851645,0.04263905,0.1410151,-0.09281738,0.03108948
0.05163143,-0.2134647,-0.02140311,-0.06096274,-0.2365189,-0.1453875,-0.1254247,-0.07436057,-0.02818278,0.05324548,-0.1938112,-0.05160207,-0.1819134,-0.0877085,-0.1856335,-0.02071316,-0.2107154,-0.1865073,-0.09100033,-0.09731852,-0.07725228,-0.1685248,-0.06926008,-0.1277041,-0.2218137,-0.1226245,-0.04139833,-0.2371375,-0.2554073,-0.03218926,-0.02819064,-0.3194979,-0.1143204,-0.290862,-0.183424,-0.2913063,-0.140672,-0.09591027,-0.03614627,-0.2759913,-0.08366567,-0.3207238,-0.2667102,-0.2237613,0.03115645,0.01531137,-0.115121,-0.1035827,0.04140625,0.08149585,0.01353277,0.03409543,-0.005612128,-0.1937176,0.0332153,0.01586819,-0.1279899,0.07435216,0.1176968,0.08854223,-0.0593245,-0.09495048,0.0708675,0.0717121,-0.2106769,-0.01236154,-0.2342171,0.05352724,-0.1070056,0.08261727,0.02098747,-0.1585263,-0.004183609,-0.1824624,-0.2194537,-0.02807703,-0.2792535,0.08721399,0.009501365,0.01211198,-0.1491556,0.08179148,0.002375146,-0.07201922,0.06131706,-0.02769494,-0.1675247,0.05817518,-0.2296967,-0.01361006,-0.2049091,0.01219641,-0.02077797,0.01401997,0.1144007,0.02720201,-0.1020734,0.003122436,0.05544344,-0.1164008,0.02582441,0.04165291,-0.002770285,0.002961151,0.07407679,-0.2005921,0.09319451,-0.2123281,-0.05282701,-0.1073454,0.07557411,-0.2308691,-0.05207708,-0.223872,-0.1232035,-0.1989225,-0.1796472,0.05817423,-0.2009254,-0.2161414,0.1400393,-0.2422404,-0.004553412,-0.1794712,0.1390548,0.01593831,0.160767,-0.04399974,0.01149674,-0.1162823,0.1312793,-0.121323,-0.1533614,-0.134103,-0.1036891,0.08863701,0.0344121,-0.01817412,-0.01168872,-0.1185072,-0.09689704,0.1528065,0.05732036,0.05857658,-0.01201596,0.1451607,-0.149365,-0.1578222,0.02421423,0.1280572
0.1630666,-0.03185961,-0.04427132,0.186025,0.1145891,-0.1426391,0.02521758,0.09254444,-0.007468392,-0.1055755,-0.09953642,-0.1530626,-0.02535575,-0.06592036,0.1844159,-0.2679794,-0.3231249,-0.1777136,0.1531141,-0.1409974,-0.09187209,-0.1969722,-0.0901455,0.08196959,0.1622126,-0.1346057,0.1466366,0.1534794,-0.1065591,-0.1896625,0.08032943,0.1158038,-0.0001909352,-0.002978522,-0.3521477,-0.06626236,0.1698669,0.06312363,0.09835141,0.08664499,-0.00385654,0.01543284,0.10751,0.04994346,0.1751482,-0.07145584,-0.2013137,-0.2485059,-0.01552356,-0.2493096,0.1318616,0.1247905,0.3022994,0.2896979,-0.09530354,0.1068914,0.09741102,0.1438618,-0.1374606,-0.002598329,0.07849364,0.06340863,0.06630053,-0.3180346,0.1824119,0.1657233,0.009436541,-0.08447374,0.01495171,-0.06362988,-0.03936799,-0.06761961,0.06408475,0.04007012,-0.09337345,-0.07120892,-0.07894976,-0.2692442,-0.2790507,-0.1310551,-0.1659235,-0.2624405,-0.1819593,-0.1627503,-0.04577451,-0.09571419,-0.2317754,0.2109468,-0.09115014,0.07149578,-0.07040235,0.03951223,0.2600308,0.3265525,-0.1258906,0.02653224,0.02980682,-0.08829195,-0.1069983,-0.05021336,-0.1111698,-0.1007475,0.2267908,0.2645789,-0.1510044,0.1457147,0.2897604,0.1703892,-0.1284991,-0.1796257,-0.1246987,0.01329353,-0.05975049,0.04536091,-0.06758906,-0.08482158,-0.1053689,-0.137818,0.129768,-0.01649136,-0.03801062,-0.1237389,0.02713538,-0.1946884,-0.08973604,-0.06504181,0.2422307,0.1767521,-0.007383377,0.06828976,-0.04290297,0.1127411,-0.1342595,0.0434971,0.09505165,0.1469671,0.1079867,-0.2321328,-0.2330057,0.1972306,-0.0228452,-0.2041828,-0.2263681,0.1345532,0.05220059,-0.01667469,0.01271798,0.01587866,0.1634849,-0.04385054
0.1485356,-0.1450177,-0.0828027,-0.0256913,0.1788801,-0.2001789,-0.1023594,-0.1399715,-0.08250245,0.01739309,0.06632398,-0.1714379,0.1577717,-0.0516018,-0.1249221,-0.09532621,-0.264689,-0.1528995,-0.0310384,0.003573944,0.1034641,-0.1974054,-0.1017271,0.1049086,-0.03317088,0.001444488,0.1142478,-0.04953677,0.1662513,0.1273068,0.2362778,0.1358999,-0.1043697,0.05239415,-0.1948952,0.1877546,-0.01795016,-0.2393504,-0.15516,-0.06683581,0.1552981,-0.2032701,-0.2140521,-0.2224235,0.04553081,0.118959,-0.06840466,-0.1703447,0.1352518,0.05358909,0.2024679,0.1047549,0.01217728,-0.0957661,-0.09732106,0.4012721,0.1514967,0.02930607,-0.0435558,0.08852477,0.2328124,0.01475679,-0.1745146,0.126515,0.09356237,0.2299395,-0.1313718,0.0387455,-0.04799379,0.1069456,-0.03221899,-0.1881172,0.1037516,-0.01155389,-0.2165529,-0.1848881,0.01258396,-0.05923585,-0.04870144,0.006222236,-0.2955407,-0.08571454,-0.06178683,-0.06304199,-0.1753464,-0.1385954,-0.180484,-0.1148605,0.06029407,-0.05029595,-0.2929845,0.01533557,0.06102769,0.2462658,0.1673666,-0.004872931,-0.1815152,-0.09442067,-0.2253055,-0.009473854,-0.03973131,-0.03841159,-0.04639158,-0.1454445,-0.0792681,0.002333813,-0.07793135,0.1679301,-0.1242809,0.1583115,-0.1019663,0.1276798,0.08048447,-0.1615762,0.09483684,0.1164583,0.1100123,-0.149228,-0.1593685,-0.05927092,0.1135693,-0.1614393,0.04676258,-0.1493914,-0.05102541,-0.0582939,-0.1128384,0.1250972,0.06624364,0.1778508,0.04213651,-0.03105225,0.07182398,0.001855626,-0.0330077,-0.05837709,0.03931081,-0.02065251,-0.06905473,0.1519428,0.1130465,-0.0186674,0.1617212,0.06433123,0.112841,0.1450058,0.1116715,-0.006531395,-0.153573,0.004103429
0.03801039,0.08597481,0.06782869,-0.02308617,-0.02768616,0.01337893,-0.2531231,-0.02665086,-0.001938978,0.05484562,0.03361838,-0.1263506,0.005640154,0.1293331,-0.06448746,-0.007037376,0.08203516,0.02386435,-0.1001577,-0.1156671,-0.1949985,0.07562666,0.01051871,-0.07088283,-0.04957695,-0.06004116,-0.255356,-0.1292807,0.1041745,-0.08058393,-0.2501358,-0.226297,-0.05586862,-0.1915292,-0.06234245,-0.09122691,0.00366358,0.04485943,-0.05280517,-0.03382268,-0.1796396,-0.2772963,0.1237566,-0.1039477,-0.1524507,-0.2045326,0.135328,0.0003773092,0.2125829,0.1293245,0.0665269,-0.02523435,0.06709277,-0.1214998,0.1808521,0.1321161,-0.1358735,-0.1014449,-0.2188189,-0.1632645,0.0772515,0.07910891,0.1291462,0.07761699,0.03042381,0.05378702,-0.1924258,0.06936949,-0.07107683,-0.1479747,-0.09289356,-0.09755346,-0.05651716,-0.1237462,0.05281522,0.08794332,0.1608583,-0.1367952,-0.08635466,-0.2155383,0.05041691,-0.07899761,-0.2033177,-0.121454,0.08107144,-0.002373236,0.03296269,-0.09384584,-0.201934,0.09432808,-0.203561,0.09287656,0.1193405,0.1689245,0.1007352,-0.00458703,0.09368476,-0.07702764,-0.1201999,0.204797,-0.08367068,0.06937288,0.08187237,0.131283,0.0197183,-0.1249391,-0.08146437,0.1265541,-0.06902897,-0.0979146,-0.1934059,0.06158816,-0.02891267,0.09561804,0.01817418,0.003146737,-0.122343,0.06350183,0.0576502,0.1146236,0.0441151,0.1534887,0.02706708,-0.2516528,-0.126097,0.1377597,0.06975906,0.05906054,0.02048296,-0.05543839,0.187502,0.1494615,0.09882286,0.03480928,0.1625129,0.04552718,0.1650054,0.1842601,0.1410846,0.08787155,-0.1451029,-0.07938449,-0.05548685,0.1281814,0.1088087,-0.03780675,-0.1712327,-0.2369505,-0.1619849,0.1521942
-0.08371732,0.08063079,0.0905209,-0.1837365,0.02243473,0.107499,-0.06796498,-0.2066655,0.04222412,0.04163387,-0.1270154,-0.1902606,0.115004,0.04952373,0.07046937,0.01960841,-0.1344771,-0.004798006,-0.1271418,0.03342549,-0.1556046,0.05104385,0.1038567,-0.2116522,-0.02332423,0.06546189,0.07063313,0.05935064,0.0774084,-0.2234703,0.07060525,-0.1392418,-0.1395162,-0.09642702,-0.02338178,-0.02343779,0.05009422,0.02381576,0.06854215,-0.1121258,-0.06385833,-0.1948106,-0.08919346,-0.2206018,-0.2103131,-0.1531616,0.0338511,-0.1623642,-0.009508743,-0.02970385,-0.1191616,-0.09068636,0.08414482,-0.1061094,0.1527845,0.005494335,-0.1706222,-0.1377721,-0.187002,-0.06590869,-0.1074308,0.1695658,-0.1134942,0.0681456,-0.01862669,0.05037613,-0.2222263,0.09157523,0.09897773,-0.01511267,-0.1337433,0.0171285,0.01869718,-0.04783873,0.08165418,-0.1177063,0.08064824,0.05761124,-0.06509805,0.1114366,0.1409244,0.03437747,0.02244852,0.1082126,-0.1068762,-0.1577536,-0.2211435,-0.04078518,-0.1689729,0.01317648,-0.1230464,-0.09875112,-0.2192723,-0.02691085,-0.005874091,-0.1538199,0.1552063,-0.03456731,-0.1201105,0.1354979,0.01808317,0.1424043,-0.09393212,-0.2035888,-0.07976032,0.155946,0.1815282,0.02257858,-0.03858706,0.1518494,0.070343,-0.1860677,-0.1092047,0.1630524,-0.04331186,-0.08630882,-0.1836584,-0.1038759,-0.0634653,-0.1249566,-0.1568021,-0.2038693,-0.08978964,0.110619,-0.1159435,-0.1175718,0.1005235,-0.1089243,-0.1183852,0.08008343,-0.04486554,0.1068524,-0.15714,0.1406928,-0.1267668,0.07540924,0.008711185,0.1441156,-0.2028411,-0.163395,-0.1181058,0.1676005,-0.1416981,-0.02591477,-0.1781591,-0.1158325,0.06596948,-0.1724776,-0.1891002,-0.1809797
0.09686138,0.1117424,0.1564263,-0.01325476,0.05956553,-0.01957325,0.02912476,0.1571883,-0.01040932,0.05219223,-0.1778012,-0.01922542,0.01913551,0.3799969,0.221502,-0.2292287,0.1451363,0.07978319,0.1448333,0.3338753,0.02753019,0.03067294,-0.2523024,-0.2153601,-0.01817734,-0.2241315,-0.0746295,-0.06408433,-0.1593408,0.1241528,-0.04243323,-0.00125878,-0.03475606,0.1249266,0.2019792,-0.03185744,0.1534957,0.1879787,0.1503885,-0.07667494,0.0094484,-0.01971318,0.03538292,-0.1911242,-0.274159,0.01273823,0.09823747,-0.08745503,0.0004174771,0.02881407,0.1075661,-0.07432394,0.04260642,-0.03734535,0.08235589,0.07841807,-0.1119022,-0.04651102,-0.1126514,0.1207762,-0.08397029,0.02646742,0.08225546,0.1528517,0.1407481,0.03388811,0.1140624,-0.109243,-0.01740351,-0.07933962,-0.03867601,0.03887382,-0.03020394,-0.2862733,-0.1866803,-0.08271471,-0.06446356,0.1925638,-0.1013504,0.01676329,0.1460902,0.08584705,-0.04681247,-0.1418452,-0.1624546,-0.1246449,0.1168305,0.08606717,-0.05238442,-0.1957088,-0.08707431,-0.1341615,0.1726928,0.2698027,0.106842,-0.1488988,-0.01706363,0.2677275,0.1485912,0.2319876,0.06975143,-0.1433824,0.1124009,-0.03985074,-0.2599792,0.1561722,-0.1892186,-0.3198955,-0.01084206,0.1339277,-0.2123455,-0.0863595,0.0295619,-0.07856964,0.05504476,-0.2595035,0.1200198,0.1357101,0.06560493,0.1482545,0.02272228,0.08765453,-0.01842158,-0.2058241,-0.2162793,-0.1659904,0.1275355,-0.0867552,0.03314095,-0.2121946,-0.2101082,-0.04594393,0.1568724,-0.1790124,-0.09587114,-0.008778572,-0.09582248,-0.05864389,0.1691396,0.01286882,0.1249428,-0.08314896,-0.1580659,0.2533677,0.2183562,0.06239211,-0.06445785,-0.0715493,0.09224529,-0.06785724
-0.05853841,-0.09727731,0.00101867,-0.06680647,0.07992166,0.04887975,0.007439101,-0.1458033,0.08591276,-0.08894476,-0.0944405,0.0976932,0.1058296,0.2277344,-0.006543846,0.05616409,-0.07663401,-0.02962323,0.127139,0.3448541,-0.1956522,0.02345939,0.09207638,0.276085,0.04733885,-0.05985603,0.0687938,-0.1606621,-0.1804805,-0.1612364,-0.04099115,-0.005546163,-0.1575496,0.07286357,0.2066468,0.1402917,-0.02329145,0.08685835,0.212179,0.1008815,-0.1560018,-0.08818044,-0.2012441,-0.2195506,-0.3403488,-0.3577335,-0.3544824,-0.3529151,-0.4698136,-0.1924161,0.05403331,0.1701024,-0.1079294,0.1398254,0.0413962,-0.2172129,0.1636357,-0.09577791,-0.1486292,-0.02436012,-0.2300134,0.08510312,0.07512274,-0.1076592,0.1557962,-0.0563717,-0.1315315,0.04945879,-0.03122028,-0.2275526,-0.09228381,-0.04406749,-0.1168535,-0.1315809,-0.05543845,-0.2270233,-0.2143092,0.134469,0.1551747,-0.09022078,-0.09912077,0.03575967,0.03727986,0.06324705,0.1177779,0.1696472,-0.050186,0.07299637,-0.02719831,-0.03588542,0.2674084,0.2932676,0.2053534,0.08207547,0.01452951,0.08616378,0.3805089,0.23911,-0.06557695,-0.1347129,0.06185378,0.1139053,-0.1239907,-0.02749125,0.09995809,0.1930324,0.1313436,0.00666834,0.139015,-0.0487214,-0.09056628,0.003429599,0.09403849,-0.1686471,-0.1333827,0.1127556,-0.1154671,0.05008588,0.09702156,0.06175657,0.09093139,-0.02196508,0.1512862,-0.01287401,0.01240318,-0.1158165,-0.04997925,0.09839288,0.16613,-0.2120018,-0.0755059,0.09533294,0.0855732,-0.03155804,0.06254973,0.1314195,0.08449376,-0.0850899,-0.03999542,0.01155423,-0.1108714,0.1769922,-0.03632097,-0.1866621,0.2146565,-0.08462486,0.04442862,0.001496684,0.1294423,0.1604201
-0.04082804,0.1593841,-0.2229422,-0.2388933,0.01783299,0.09575182,-0.1987845,0.1164581,0.01353322,0.02249265,0.1241736,0.09840865,-0.08858881,-0.175514,-0.1192722,0.0312146,-0.0637607,-0.1188847,0.009959306,-0.1214488,-0.04424816,0.04201522,-0.270351,-0.1273921,-0.2306241,-0.08204785,-0.1870091,-0.2082118,0.06005604,-0.1963665,-0.1660147,-0.004121661,-0.1936006,-0.1597741,0.003519344,-0.08237386,0.00305073,0.01115679,-0.2550591,-0.1213887,-0.127597,-0.2485019,-0.2268747,-0.2215038,0.07651714,-0.2090075,-0.01348935,-0.08268894,0.01052104,0.001650877,0.1558474,-0.1638,-0.1764376,-0.2803391,0.08915158,-0.2205381,-0.09499616,0.05366754,-0.2641301,-0.09976174,-0.20258,-0.1132288,0.01589542,-0.1213356,-0.116714,-0.1191493,-0.1437266,-0.07855179,-0.03143812,-0.02389004,-0.1325139,-0.1676635,-0.2613916,-0.09113724,-0.2160074,-0.1643407,-0.01255113,-0.1151303,0.1020885,-0.1267808,-0.06947237,0.1492522,-0.246917,-0.008967466,-0.0389561,0.1044996,0.03182542,0.112682,-0.1235254,0.07521685,-0.1630033,-0.1814495,-0.2016893,-0.0812993,-0.1609482,-0.07952019,-0.1726342,0.07019328,0.01771215,0.05653533,0.1273832,-0.1193353,0.1202805,-0.05649354,-0.1462583,0.1073327,-0.03293831,0.05368725,0.103864,-0.2043638,-0.01150616,-0.09717332,-0.1658254,-0.009148856,-0.02952588,0.1390913,-0.04912313,-0.003278742,-0.02705172,0.1074588,-0.2131331,0.005051105,-0.1362364,0.0664402,-0.01095239,-0.1431284,-0.05899337,0.1357665,0.01561188,-0.0179233,0.05482255,0.01500764,-0.2138432,0.1416847,0.1786462,0.1028711,-0.1574605,0.1574934,-0.1371461,0.009050408,0.1591179,-0.1764101,-0.06025424,0.02955303,-0.179314,-0.04600202,0.01793688,0.1506388,-0.1855896,-0.212458
0.1222157,-0.1471145,-0.1446468,-0.1078947,-0.06834051,-0.2221015,-0.001345127,0.05765338,-0.1568259,-0.1041902,0.04813115,-0.2277696,-0.1863131,-0.2592615,0.04571996,-0.1965064,0.03687133,-0.1107236,0.05384249,-0.01175828,-0.1092056,-0.04900809,-0.1996839,0.006621892,-0.1070041,-0.1537843,-0.08846771,0.1268583,-0.0223628,-0.03315768,-0.160432,-0.1799969,-0.001116487,0.19098,-0.08436006,0.04080986,-0.08943748,-0.003501717,0.2007406,-0.07878305,0.1022009,-0.1523431,0.1648827,0.1469464,0.02000437,-0.2166316,-0.1661448,0.1383702,0.05117042,-0.1979511,-0.07188369,-0.1395141,0.1850292,0.09396917,-0.2035574,0.1056238,-0.04228419,-0.03115677,0.1791198,-0.2082315,-0.01214667,-0.08450721,0.1952601,-0.09026095,-0.1161014,-0.0561157,-0.2064706,0.09772088,0.09372232,-0.1791184,-0.2036855,-0.07936852,0.04751578,0.03045863,0.07294729,0.1085451,-0.05960591,-0.1106314,-0.09869843,0.1082862,0.131606,-0.2166059,0.07916509,-0.08401657,0.005592322,0.09511546,-0.1941132,0.006432087,0.0006147387,0.06688775,-0.0418671,0.1424071,-0.1918817,0.04303533,-0.03066243,0.1062981,0.02543977,-0.1555363,0.02879613,0.1003269,0.1063715,0.03784453,-0.1028135,-0.1611783,-0.06499395,0.1595463,0.1185906,0.1099742,0.1880728,-0.06031035,0.02538817,-0.1187537,0.07346946,0.03906997,-0.1933893,-0.0008111076,0.01965732,0.08003586,-0.06514274,0.08444763,0.129697,0.1540701,-0.1770546,0.1634966,0.172827,0.06763082,-0.1916024,-0.1554712,-0.06896771,-0.106761,0.1215807,0.0408448,-0.2059242,0.2020241,0.1810142,0.1093658,-0.1442792,-0.1896689,-0.03763893,-0.1637416,0.179238,-0.06417391,-0.1326676,0.07443083,-0.07356203,-0.05925028,-0.1551048,-0.05135044,0.1335712,0.07646763
