-0.01186622
-0.00929473
0.009645578
-0.02131243
-0.01059623
-0.007901791
-0.008757315
0.0006597611
-0.01315653
0.01351595
0.0001708262
-0.01934515
-0.006814731
-0.001628842
-0.017185
-0.0211519
0.004538286
-0.00245019
-0.0005483062
-0.00724559
0.003342601
-0.01577658
-0.00185159
0.01577865
0.02330856
-0.01530435
-0.006735
-0.004277921
-2.45714e-05
-0.01458562
-0.02032
0.003525612
0.003122203
-0.00968268
0.005665436
0.01835276
-0.0002126586
0.01047199
-0.006788587
0.00254587
-0.007477344
0.005104405
-0.01637796
0.009888032
0.0176585
0.01357218
-0.009735727
-0.005715777
0.0001589945
6.207633e-06
-0.004104327
0.003666351
0.002060624
0.00191303
-0.009645349
0.03235131
0.008670845
0.0335688
-0.003418354
-0.02064366
-0.01169787
-0.004849228
0.01513023
0.00519122
0.008047783
0.01675207
0.005955801
-0.004427
-0.005527236
-0.0160224
-0.001174908
0.0001799144
-0.008466659
0.03047463
-0.01973108
-0.01741222
5.796001e-06
0.01362316
-0.008920738
-0.005384441
-0.01492964
-0.01136664
-0.01067366
0.01631303
-0.0042681
-0.0001013895
0.004007289
-0.007766075
-0.005511817
-0.02028963
-0.008019375
0.008726994
-0.0106851
-0.02142802
-0.01221553
-0.01810217
0.007118975
-0.0007413336
0.002066174
0.003848857
-0.008729816
-0.001843913
-0.01117209
-0.01775853
-0.01113878
0.01793771
-0.00102082
-0.0001390579
-0.02301789
-0.02576817
9.011447e-05
0.0064504
0.009833337
-0.0101898
-0.02388638
-0.009589266
0.01262612
0.01730352
-0.01219673
0.01068833
