0.002711862,-0.06272316,-0.08602587,-0.101707,0.08868549,-0.03631687,-0.1144336,0.01580684,-0.03489905,0.1100494,-0.007477559,0.104378,0.1018185,-0.05871951,-0.06337427,-0.1032689,0.1145414,0.08609573,-0.04353172,0.09935392,-0.02854067,0.07270568,-0.1119793,-0.06748802,0.1091861,0.1115395,0.001052143,0.02509327,-0.09315427,-0.07104003,0.06785128,-0.07749967,0.0265294,-0.1106153,0.02767665,0.0793172,0.04035768,-0.02512176,-0.1139955,-0.1421534,0.1191477,0.1043286,0.01442611,0.01945401,0.02243243,-0.1236367,-0.07035408,0.06596157,0.1099336,0.06121084,0.038506,0.02220468,0.1167177,-0.009275624,-0.02035909,0.01109775,-0.02951283,0.04052386,0.00120102,-0.09854534,-0.005527192,-0.05412932,0.0803713,-0.1247112,0.02111616,0.0175976,0.1015507,0.07136346,-0.04637843,0.007784137,0.07001802,-0.001514738,0.02299404,0.07726935,0.1205637,-0.06100868,-0.079646,-0.09607683,-0.01960705,-0.1007277,-0.02731354,-0.0722093,-0.03970164,-0.1091537,-0.09375985,0.009689532,-0.00797575,-0.01205241,0.04272499,0.01391234,-0.02926627,0.03892854,0.07520227,0.1139271,-0.1099543,0.1136753,-0.02377768,0.08362976,-0.03144647,0.08104575,0.08676792,-0.1146675,-0.1188555,0.02432488,-0.09890799,0.04423833,-0.08095913,-0.0021317,0.05707789,0.09386412,0.1108222,-0.07602008,0.06607464,-0.05698666,-0.1140253,-0.101344,0.06823929,0.05380476,0.1006767,-0.03041213,0.07928336,0.05746427,0.002389006,-0.1082497,-0.1111714,-0.08531481,0.05620685,-0.08778267,0.03006922,0.03567741,0.01655623,0.08641046,0.07926242,0.03781822,-0.07544737,0.002283743,-0.07323235,0.09213365,0.0351173,-0.09731196,-0.09928968,0.1050386,0.06226185,-0.07179555,0.02945367,-0.1163264,0.07953474,-0.1167461,0.07839349,0.005044678,0.05783667,0.09842338,0.04396011,-0.07901163,-0.0790666,0.07905818,0.04354751,0.04672012,0.1074359,0.01200643,-0.1027801,0.01797324,-0.007207563,0.07185383,-0.1402974,0.007170662,0.08723827,0.03833148,0.004083284,0.1143324,0.04717964,0.07919413,0.1199794,0.02948219,-0.1041858,-0.07485569,0.008925021,-0.03942034,-0.03143862,0.02691141,0.08828555,-0.07328068,-0.08166482,-0.05483381,-0.1023054,0.1061413,0.1202893,-0.08155011,0.004998858,0.04485197,0.01138877,-0.03945481,0.06886054,0.1193692,0.04769282,-0.1033348,0.0661436,0.03238156,-0.09267491,-0.05619771,-0.1129214,0.09991695,-0.04402804,0.03062955,0.007142695,0.01828591,0.06953923,0.09198248,-0.02760648,0.001018656,-0.0602672,0.0234105,0.1011066,0.1479051,-0.006280299,-0.06244177,0.06715268,0.05241985,0.09347557,0.04260024,0.01850853,-0.02852947,0.1412247,0.02719372,-0.1169495,0.02969193,-0.1108112,-0.06439015,0.07054082,-0.07555447,0.05211785,0.01324435,-0.07144896,0.08205692,0.08828647,-0.007836765,0.07164013,-0.04324731,0.1026741,0.1155744,-0.1180678,0.06819924,0.006761326,-0.03582614,-0.0761202,-0.05013048,0.08619771,0.1635727,-0.0555738,-0.003228103,0.06212868,-0.03762756,0.04929142,0.05844305,0.09001329,0.1084113,-0.004001674,0.02234121,0.04953779,-0.052998,-0.03424456,0.0191213,0.1260771,0.02079485,0.095572,-0.04510767,-0.1253653,0.0891093,-0.06474691,0.1138857,0.06617665,-0.07842574,-0.01779616,0.09893596,-0.002238722,-0.07088239,-0.09864355,0.03004235,-0.06003042,-0.1091068,-0.09882142,0.1069616,-0.08829284,-0.03555975,0.006016319,-0.0713746,-0.07961363,0.008068636,-0.07110846,0.09281524,0.04450394,-0.08630881,-0.06832984,0.05830723,-0.00182869,-0.1051562,0.05433266,-0.03024934,-0.05879235,0.08618803,0.1120843,-0.1623101,-0.1608539,-0.09774077,-0.001782,-0.015376,0.01173883,-0.08495854,0.08957129,-0.001369698,0.03568178,0.1418337,0.06003569,0.1514964,0.1166154,0.03446086,0.08851546,0.1031249,-0.07736267,-0.1247557,-0.1002458,-0.1677875,0.01070593,0.07806581,-0.04259304,-0.05536095,0.1347943,0.1112665,-0.08933675,0.01571656,0.08622984,-0.02009563,0.0179027,0.01207481,-0.1422815,0.0185558,0.1821788,0.08024526,0.003946079,0.0180416,0.01966345,-0.08070081,-0.1873641,-0.1384445,0.08721057,0.1204293,-0.1676478,-0.09901594,-0.02764354,-0.005593712,-0.1190113,0.01767152,0.03046961,0.07179271,0.04187653,-0.1223075,0.07504825,-0.03533089,-0.01739539,-0.02289172,0.03698214,0.1112239,0.01887463,-0.06245989,0.03542338,-0.00814746,0.1028737,0.06039453,-0.1065357,-0.03062614,-8.027316e-06,0.03158418,-0.09720279,0.03697206,0.02091493,0.01281432,-0.0985741,-0.08993311,0.1271532,-0.09307876,0.07061379,-0.04770218,-0.1049183,-0.1007193,0.1282448,-0.1474724,-0.0288552,0.05072579,-0.0518141,0.09894976,0.07219363,-0.1238462,-0.01626635,-0.07112981,-0.03733027,0.02321428,0.005162676,0.02629607,0.07157856,0.1009771
0.06336726,0.03472893,0.0240431,-0.136676,0.06185781,0.09107885,-0.007645562,0.06453233,0.02040466,-0.005184629,-0.04872486,-0.1102243,0.05497196,-0.08475771,-0.09519074,-0.04893921,-0.05810808,0.07299516,-0.1155584,0.04429859,0.06303925,-0.03996699,-0.02086996,-0.04930235,0.04252001,-0.03491269,0.02330398,0.02398332,0.1162905,-0.09994268,-0.1147307,0.06950192,-0.1059284,0.08251867,0.07118453,-0.03027956,-0.0870239,-0.1204587,0.09379239,0.0717989,-0.0319845,0.06172942,0.09589546,0.04769158,-0.1086695,0.04199167,-0.1147354,-0.1188649,0.08309709,-0.06174385,-0.1095914,-0.0007245875,-0.09669758,-0.01066565,0.02122501,-0.130918,0.03092672,0.05735541,-0.006998129,-0.01995904,-0.1270714,-0.1450725,0.07415652,0.07761288,0.05945529,-0.07814761,-0.131687,0.04464771,0.02984504,-0.003536604,-0.108736,0.01312854,0.01772946,0.05112566,0.08055198,-0.1166857,0.04848817,0.03999419,0.06872708,-0.02030026,-0.129237,0.02093659,-0.1718054,0.04568272,-0.1240139,-0.1464978,-0.1135141,-0.04573097,0.06308972,0.06188656,-0.06789161,0.09830446,-0.1438473,-0.08552814,-0.1117468,-0.01760675,-0.007189242,-0.0795917,0.07612917,0.07928114,0.108119,0.02953273,0.004727824,0.04494738,-0.1194735,-0.07416692,-0.07711481,0.01935973,-0.05109698,-0.06003727,0.09096607,0.09623352,-0.01332275,0.01770221,-0.07335404,-0.1171381,-0.09441072,-0.06211554,0.02734141,-0.0669167,0.09218452,0.01538829,0.05851388,0.07096537,-0.101112,0.02277331,0.06410861,0.008960475,0.01966714,0.02997709,-0.1038423,0.05907767,-0.01648397,-0.09405632,0.02813759,-0.1162697,-0.09158836,-0.1061512,0.1093733,-0.1334467,0.09866001,0.07556588,-0.04972237,0.03949337,-0.0411422,0.02838925,0.0331814,0.05220408,0.01768758,-0.09217031,-0.0155144,0.01761953,-0.007355493,0.09471304,-0.08629187,0.09111393,-0.0409089,-0.0357424,0.08905753,0.0527375,0.006500616,-0.02328859,0.06137406,0.01957752,0.1147042,-0.01460503,-0.02308071,-0.06671999,-0.08336417,0.04471894,0.03669733,-0.05628422,-0.07644873,0.001416466,0.1102979,0.08514446,-0.04994323,0.1126575,0.08113056,0.04757743,0.03406192,0.04003547,-0.02014364,-0.09805799,-0.04467556,-0.1149488,0.07779487,0.03793171,0.002880652,0.08387709,-0.04060092,0.03875967,-0.03260604,-0.03006177,0.003438559,0.09209604,0.04933422,0.008977037,-0.06134826,0.01721002,0.02142793,-0.01769514,0.05712715,0.03738008,-0.01855286,0.02834335,-0.1204226,0.004009813,-0.06373756,-0.0975164,0.1012047,0.09680969,0.03159891,-0.1327671,0.02328526,-0.02274207,-0.02754886,0.0980371,-0.05265499,0.05788464,0.001774763,-0.03535693,-0.02716268,0.05092229,-0.05796609,0.09480165,-0.101909,-0.07579922,-0.06193577,-0.07922324,-0.06791349,0.06258109,0.06316942,0.1175657,-0.08750407,-0.04192818,-0.08813776,-0.0720414,-0.01919573,0.1024228,-0.09616274,0.1201976,-0.03239448,-0.06922206,-0.05281244,0.09028777,0.07475492,0.1120541,-0.04980894,0.02526508,-0.01040335,0.05433829,0.01197713,-0.1331861,0.09999588,-0.1126619,-0.1179875,-0.002102281,-0.09564301,0.02882344,-0.1145328,0.08520298,-0.08360295,-0.05308982,-0.1338897,-0.01787748,0.04247756,-0.03584957,0.08115802,-0.09689365,0.07501375,0.01292538,-0.04646201,0.0582387,-0.0137532,0.05247724,-0.04423373,0.06644344,-0.08198696,0.008850805,-0.01502358,-0.09177304,-0.1152035,0.01362346,0.03150412,-0.06793172,0.08819749,-0.06877821,-0.01897238,-0.1039909,0.03040652,0.07516761,0.06561435,0.04551145,0.04349973,-0.0914576,-0.08789413,0.1012527,-0.0007952686,0.0527511,-0.01805292,0.06522484,0.05209364,-0.08709032,0.02859098,-0.1039762,-0.06875046,0.0001360678,-0.02641986,-0.1291529,0.03116735,0.03175041,0.003335837,-0.1037308,0.02624142,-0.0009276001,-0.1243961,-0.05558239,-0.09421023,-0.01074829,-0.06126937,-0.01155592,0.009395216,0.07317524,0.03693692,-0.02354016,-0.06957223,-0.07717317,-0.1121789,0.08515537,-0.06101139,0.04563183,-0.03908787,0.1124586,0.03656102,-0.1402556,-0.1530596,-0.1122883,-0.1207781,-0.06808272,0.001141977,-0.05262638,0.08942378,-0.01787059,-0.02122469,0.02184013,-0.0159732,0.0432224,0.05741315,-0.04766662,-0.03190166,0.04324529,-0.03440592,-0.1133464,-0.08953887,0.02397822,-0.08844076,-0.09172972,0.006857984,0.1010177,-0.08708298,0.04245236,0.09268832,-0.1163101,-0.01059431,0.1046691,0.006061698,-0.03211489,-0.03856734,0.05484249,-0.01176304,0.06189006,-0.02898916,-0.05991405,0.1169249,0.01993873,-0.09743654,0.02730097,-0.004475249,-0.0454885,-0.09419946,0.05417374,0.08406483,-0.08928507,0.02992019,0.09117318,-0.09075281,-0.01531264,0.01398408,-0.1024355,-0.02428173,-0.1393086,0.08520921,-0.0526328,-0.07742412,0.03761086,-0.05590552,-0.10331,-0.07012211,-0.02475956
0.008499017,0.07274088,-0.0993558,-0.01890654,-0.06838591,-0.08365137,0.05655164,-0.03514816,-0.1158531,-0.1178868,-0.08964238,0.001589752,0.004512418,0.008109841,0.009753739,-0.1191383,-0.02459055,0.1116781,0.04365815,0.04158858,0.08686958,0.0463165,-0.0782376,-0.03469213,0.02576679,-0.04235782,-0.05006533,0.05894365,0.003969624,-0.008100521,0.08542479,0.02150075,-0.03332632,-0.01255166,0.03848293,-0.04875365,-0.1303249,0.07155906,0.08847194,-0.01939961,-0.0344937,-0.05434265,-0.03779656,0.009348577,0.1135669,0.04908496,0.01669347,0.0977895,-0.100847,0.05765783,0.06998736,0.01905699,-0.0575022,0.1658028,-0.1129202,-0.08467682,0.01500102,0.03403411,0.1271039,0.01444516,0.04867123,0.07007585,-0.04476522,-0.1012186,0.1031917,-0.0418085,-0.1372237,-0.1826387,-0.1328379,0.04641239,-0.07222296,0.008037421,-0.05791004,-0.09202735,-0.01834389,0.1025427,0.07025197,0.09093636,-0.05654839,0.0808802,-0.05205332,0.1269419,0.1217921,0.1054875,0.05519584,0.0202048,-0.07237267,0.02292168,-0.1135795,-0.08659745,-0.01079093,-0.05988061,-0.07552184,0.01653724,-0.06695727,0.1192463,0.09245329,-0.06742872,-0.07471132,-0.09170368,-0.05038585,0.01435583,0.08262693,-0.07552826,0.07592463,0.07980167,0.1035331,0.04405246,-0.1117597,0.07256811,-0.08702879,0.05520273,0.05108014,-0.1209866,0.01062952,0.01307161,-0.1176409,-0.0442289,-0.1133121,-0.02141961,-0.07543956,0.0193096,0.07348459,-0.0465191,0.05758898,-0.1037959,0.0514527,0.00172947,-0.1086531,-0.01643036,0.03747804,0.06347004,-0.008796578,-0.04574478,0.09894068,-0.05656344,-0.04263788,0.04347462,0.02527183,0.02250966,-0.009970647,-0.08505192,-0.05443553,-0.1152659,-0.09226093,0.07091454,-0.09626599,-0.111968,-0.01634133,0.1201973,-0.05628186,0.02309867,-0.08331625,0.1085867,0.02877093,0.03853108,0.07928323,0.05348735,0.1067451,0.09721472,0.1267183,0.1643489,-0.01263953,-0.04095199,-0.08705913,-0.06543271,0.009741054,0.1292594,0.005360827,-0.03782959,0.03637569,0.01202873,0.1079307,0.03459227,-0.06799299,0.0254129,-0.02182517,0.08464429,-0.1105258,0.05304318,-0.06576548,-0.1157398,0.1176065,0.09265521,0.109697,0.03392945,-0.0339221,-0.04795529,-0.03524218,-0.01219786,0.09812821,-0.05924571,-0.07527242,-0.06815662,0.01065997,0.02016377,0.04721866,-0.06259219,-0.08166132,0.06501608,-0.03910794,0.00221352,-0.01305692,-0.01242469,-0.06785222,-0.08943013,0.1276367,-0.0403472,-0.07928699,-0.01978954,-0.06366753,0.1057276,0.007319944,-0.06123314,0.09758477,0.0184965,-0.08297366,0.04601764,-0.08493128,-0.04902434,0.1260189,0.1611788,0.1024459,-0.08717445,-0.0819867,0.0819918,-0.07950541,-0.007551839,0.008326256,-0.05445037,0.1064434,-0.1214864,-0.05751999,0.0931943,-0.09687167,0.008056543,-0.06137897,0.03385468,0.04079575,0.1044372,0.02813698,0.02663719,0.009657547,0.03942261,0.06914331,0.007556397,0.09606305,0.003750664,0.07883818,-0.001091012,-0.1056476,0.06135223,-0.08999264,0.0838671,0.001990371,0.1052029,-0.03868679,-0.04134913,-0.02788603,-0.1063867,0.08817206,0.02735931,-0.01651581,0.09473433,0.05321012,-0.002025415,0.02074304,-0.01690772,0.007945127,-0.1064295,0.100286,0.1119698,-0.06572418,0.1207184,0.05989151,-0.09758885,-0.002267725,0.03493306,0.08549962,-0.05702214,-0.07852829,-0.1046232,-0.03959777,0.0002760154,-0.03176584,0.09019893,-0.005585541,-0.1155906,-0.0288209,0.01700611,-0.1014721,0.1065963,-0.1202971,-0.1059211,0.08172824,-0.07576132,-0.03241178,0.1036355,-0.07397593,-0.07688328,-0.00999647,-0.001112289,2.577389e-05,-0.07506548,-0.07878444,-0.0299931,0.01995046,-0.08542542,-0.07105259,0.05841772,0.03677865,-0.06002814,-0.006010212,-0.06362446,0.08811421,0.02114658,0.01539587,0.05143502,-0.1070169,-0.06872607,-0.01273477,-0.003870714,-0.02883578,-0.1202026,0.07926266,-0.02198376,-0.07108949,-0.1118518,0.07096341,-0.08387446,-0.1699158,0.06077586,0.01062717,0.08257622,0.06761632,0.04004489,0.04189723,0.1040629,0.03053993,0.05078907,-0.08733515,-0.09428451,-0.0194582,-0.04811151,0.1119593,0.02775326,-0.1365297,-0.008194203,0.06969942,0.03189302,-0.02179114,-0.07532695,0.004841171,0.01114234,-0.009365195,0.02003152,0.01813271,-0.07719005,0.07064217,0.03154896,-0.07549029,-0.1099845,0.01275352,0.02975777,0.09246786,0.06317058,-0.07314369,-0.04159538,-0.08614761,0.0471759,0.09821056,-0.06520765,0.1215561,-0.08804448,-0.08476409,0.04814771,0.0237847,-0.05988161,0.08860118,0.00503807,0.09837268,0.1199625,-0.06390107,0.09723446,0.0005543362,0.07565777,-0.02515096,-0.04279402,0.1183331,-0.08498536,-0.01755685,0.01119027,-0.1058688,-0.08672919,-0.01797454,-0.09002396,0.06400217,0.1126116,-0.04530727,-0.05142802
-0.02168153,0.131056,0.1006293,0.1098776,-0.002220578,-0.09588248,0.02616137,-0.05457581,0.06764549,-0.02037399,0.08930666,0.01832802,0.02708678,0.05199138,-0.05988383,-0.03578969,0.0935694,-0.07495362,-0.001916656,-0.06031094,0.05767389,0.06985582,0.09698708,0.1163018,0.03287789,-0.01348566,-0.02628595,0.02979883,0.08954347,-0.1206357,0.03484889,-0.04661937,0.1080535,-0.1147929,0.05400709,-0.1213123,0.07591483,-0.1197445,-0.008664256,0.09312165,0.08592693,-0.0922973,0.05300819,-0.04082909,-0.01310279,-0.06939346,0.04291168,-0.03898753,0.0932807,0.02083104,0.01443946,-0.1085223,0.03317185,-0.08116555,-0.06873475,-0.08401156,-0.09350021,-0.01321624,0.07963375,-0.06612772,0.1100719,-0.0401629,-0.0800677,-0.0175093,0.08164418,0.08485422,0.008648266,0.08182527,0.04857975,-0.001029809,-0.1252406,-0.1109369,0.03619602,0.03260423,-0.02108575,0.1288385,0.005482045,-0.1187838,-0.0932592,0.08047789,-0.05456359,-0.01521773,-0.04526821,-0.0105858,-0.02583047,-0.1505403,-0.1184911,0.1142002,0.08619809,-0.002425657,0.03208241,0.115453,-0.08971081,0.01863139,0.04522434,0.1033356,0.0874779,0.01184476,-0.004021334,0.01875285,-0.003608245,0.08927663,0.04884121,-0.06120007,-0.01140277,0.04730877,-0.08192082,-0.1023735,-0.07132383,0.0739916,-0.01837257,-0.09148627,0.0774277,-0.0002493109,-0.1197621,0.01661609,-0.03605789,0.1013118,-0.03992908,-0.08181513,0.09958739,-0.05761909,-0.01369803,-0.1155205,-0.04083869,0.04336351,0.05944877,-0.05773233,0.0655328,-0.07781613,0.1036755,0.01111026,0.05145147,0.04017662,0.02255614,-0.04470523,0.0540398,-0.06982905,0.04442125,0.1076426,-0.02230415,-0.07129877,0.02569664,0.07045272,-0.02780161,0.1042241,0.01415656,0.06477897,-0.0417756,-0.04122379,-0.08199054,0.0822965,0.07767684,-0.1264659,0.1165806,0.01592137,-0.01903651,-0.01400415,0.03563826,0.1042084,0.04090642,-0.005211313,-0.1132946,-0.005297849,-0.09348088,0.00635611,-0.03086075,0.08435826,-0.1033658,0.08819845,0.03738317,-0.1310839,0.05235979,0.1224405,0.07127844,0.03832705,-0.05357532,0.1257723,-0.03242238,-0.09656518,0.08866786,0.02045247,0.1185089,-0.06242302,0.033856,-0.08921684,0.004792862,0.1473023,0.04547368,0.02902094,-0.07497792,0.0539366,0.12999,-0.07414246,0.01038323,-0.007094658,0.08509579,0.06458087,0.006800694,0.07657163,0.1100108,0.05304291,0.09385493,0.06104079,0.03078729,0.09214804,-0.09910438,0.1037046,0.1079718,-0.09866858,-0.02373612,0.0463546,-0.086582,0.05049635,0.1116766,-0.06074098,0.06830379,-0.05169726,-0.1062047,-0.1344677,0.05468659,0.0005432657,-0.08030137,-0.1279108,-0.02385811,-0.0589866,-0.05591248,0.02185562,0.05892128,-0.05164934,0.1091847,0.04580834,-0.03934809,-0.1027293,0.001016297,-0.08354475,0.1170024,-0.06772755,-0.1002502,0.05438481,-0.1050972,-0.002938331,-0.02448387,-0.07525616,-0.02067368,0.09719764,0.03471003,-0.05020136,-0.08855494,-0.05234291,-0.04016646,0.03305126,-0.01884143,0.09092029,-0.05914536,0.05230867,-0.1084504,-0.1182,0.08016395,0.0150636,-0.03295271,-0.1021036,0.1019107,-0.008793288,0.04287287,-0.0028114,-0.08502064,0.01952831,0.04588505,-0.00973155,0.07214395,0.02106085,-0.05970419,0.0830726,0.1009683,0.0917477,-0.04539486,-0.07918953,0.07937925,0.1164871,0.1155138,-0.09513877,-0.09479284,-0.06770555,0.04394764,-0.09220874,-0.01625698,-0.08319543,0.08768994,-0.01828341,0.02077784,-0.1088736,-0.09578949,0.08416743,0.03530023,-0.06054671,0.05267851,-0.005055576,0.02488076,-0.04009515,0.08314963,0.02288965,-0.1202345,-0.05148437,-0.1054037,0.08416222,0.07674021,-0.1076403,-0.05329396,0.08836293,-0.1028319,-0.1072378,-0.004707186,-0.07175042,-0.0361568,-0.09109694,-0.06631141,-0.09511669,0.05132444,-0.02779674,0.01867381,-0.07274935,0.01469995,0.09501416,-0.05870881,-0.1335227,0.05782894,0.09181008,0.04028053,-0.104021,0.008605856,-0.04027693,-0.1218155,0.09846136,0.008619438,-0.1099838,-0.02728123,-0.02978209,-0.04063234,-0.06888844,-0.0004430441,-0.0200859,-0.06176053,0.01203395,-0.1202615,-0.07949796,0.08772346,-0.06801502,0.04571208,0.06095694,-0.02432879,0.07531892,-0.1017584,0.1097503,0.01236573,-0.0188148,0.1063467,-0.0005968341,0.1144434,0.06771026,0.1095033,-0.1080155,-0.07710494,0.06125634,-0.1012227,0.04727982,-0.08746399,-0.01259136,0.03043707,0.09835511,-0.05358776,-0.01382989,0.07626775,-0.08406889,0.03740348,0.04133856,0.01321395,-0.04899669,0.08987206,0.02956784,-0.1125912,-0.007011757,0.01739949,-0.05066438,0.09934526,0.04282542,0.06273428,-0.08474225,-0.07042108,0.08126976,0.01105281,0.03335847,0.09039041,0.0887489,-0.1161018,-0.12681,-0.1241012,-0.1213253,-0.1193887,0.07448307
0.1288929,0.05683994,0.01711985,-0.004009423,-0.05756913,0.04549207,-0.02581014,-0.07751823,-0.01345784,-0.009702677,-0.09206523,-0.01135821,0.1250283,-0.08326785,0.09033123,-0.08582754,-0.07492496,0.07970098,-0.06445085,-0.01152925,0.08182757,0.1221025,0.1389919,0.09474969,-0.02522372,0.08199255,0.09430291,-0.09889381,-0.02955917,0.03429614,0.0351564,-0.07237118,0.04953726,-0.01491802,0.002683986,0.07449672,0.1861095,-0.01643284,-0.06318465,0.03016458,-0.01101596,0.1627972,-0.008293428,-0.1583951,-0.01366734,-0.04180931,-0.008473166,0.07605978,0.08751849,-0.04638854,-0.07154078,0.05954367,-0.009070499,0.01158634,-0.1138809,0.1376671,0.0229946,0.06240403,-0.02193611,-0.05578651,-0.1147627,-0.02572206,0.01129889,-0.0008012482,0.0979603,0.004206018,0.112741,-0.08508433,0.002040718,-0.1433779,-0.09414463,0.0100256,0.1444757,0.006842117,0.1094502,-0.06169838,-0.02714347,0.05071822,0.1038445,0.0901896,0.06076674,0.05099156,0.1135436,0.01874794,0.04361577,0.04898562,0.06782966,0.009367565,-0.04215342,-0.05722899,0.1183845,0.0321875,-0.05066271,-0.06697924,0.115043,-0.1182847,0.05240171,0.09178841,0.04679862,0.01715316,0.08957431,0.002704007,-0.06148941,0.07556027,-0.009464834,0.07040853,0.001097212,-0.02842125,-0.1037008,-0.007663879,0.04594621,0.1168481,-0.079367,0.02243274,-0.05921891,-0.1056866,-0.1135211,-0.1067877,0.1103279,0.0672469,0.07582667,0.07478355,-0.09287579,-0.1118531,0.1090479,0.08989309,0.006938251,0.05313324,0.04983095,0.1042253,-0.07482119,0.03914068,-0.01829988,-0.09229307,-0.08717356,0.08925454,-0.09329617,0.04451855,0.1331772,0.1362971,0.09988688,0.01797732,0.07724606,0.002583696,-0.05229555,0.009945704,0.08631768,0.0446233,0.04291511,-0.05546275,-0.07661403,0.07774729,-0.03226769,0.002816704,-0.1093017,0.02454448,-0.0328345,0.07952695,0.06861918,-0.02916284,-0.1440597,3.603893e-05,0.1548699,0.004301226,0.03556731,-0.1218921,-0.05336897,0.02028261,-0.02650646,-0.01993244,-0.04197023,-0.08434114,-0.05307046,0.0368855,-0.09821715,-0.09387704,-0.007300877,-0.01048401,-0.04127989,-0.06652921,-0.03197426,-0.07439182,-0.03401855,0.0312538,-0.08466362,0.06306262,0.09649957,-0.005866956,0.01354058,-0.09422085,0.04809713,-0.09608587,0.05393784,0.1493319,-0.08060181,0.06241967,0.09577002,0.0707671,0.09140218,0.02845841,0.01508493,-0.01660168,0.09832942,-0.004514622,-0.0005242383,0.1302569,-0.07684169,-0.07727478,0.1179484,-0.01389825,0.06544358,0.03055847,-0.02134298,-0.03779133,0.0212523,0.08698752,0.1245587,-0.03628162,0.06974332,0.06587552,0.005441708,0.02429117,-0.1516014,-0.1083434,0.1179318,-0.06552505,-0.03783223,-0.04390587,0.03504271,0.05710645,-0.1394952,0.01542945,0.1477434,-0.05015737,0.01023827,0.1053805,0.07008807,0.01897927,-0.01836244,-0.002587409,-0.09994093,0.04037736,-0.007426168,-0.07845195,-0.01707117,0.03846857,-0.08127156,-0.01286045,0.09352209,0.1148991,-0.08268136,0.05642783,0.1106433,-0.08531172,0.09556546,-0.08524705,0.01501214,-0.09625299,0.09551722,0.112611,-0.00580979,0.09276646,0.09173638,0.09550519,0.02064423,-0.02732791,-0.06890264,-0.03547126,0.09563795,0.05764422,-0.03550204,-0.03821933,0.04204583,0.09417304,0.01925665,0.06086038,0.1208989,0.101858,-0.0516216,0.01370724,0.07055813,-0.0264777,-0.04616819,0.02203791,0.04313948,-0.05795861,0.02411558,0.04245015,-0.04805287,0.05957887,-0.01396414,0.02419954,-0.09128639,-0.006045381,-0.07781156,0.1195749,-0.04713127,-0.03111695,0.08881562,0.07615251,-0.1540861,-0.04513697,0.07719235,0.03366297,0.05171745,0.06083301,0.02695623,-0.07223701,0.07510117,-0.1323887,-0.05350181,-0.07399686,-0.1334569,-0.08680155,-0.1190603,-0.03747172,-0.1189568,-0.1354217,0.07193126,0.07064847,-0.1023813,0.1032268,0.0407136,0.08071304,0.005266227,0.06083281,-0.05096234,-0.03084968,0.02867007,-0.07941882,-0.03915183,0.02204164,-0.01683017,0.158741,0.003490686,-0.1357536,-0.0360739,0.1192016,-0.07613858,-0.1119947,0.07804377,0.126932,0.004976096,-0.07410705,0.02125795,-0.05704493,-0.01065811,0.1564568,-0.01480448,-0.01246834,-0.1067983,0.105052,-0.08779669,0.05482264,0.0358774,-0.08232091,0.1146533,0.06577986,0.01180191,-0.04625813,-0.05211952,0.01935663,0.01402027,0.001739964,0.04073416,0.08357129,0.08319322,0.02546574,-0.04751003,-0.02685139,-0.1081647,-0.116648,0.09278595,0.005362192,0.02494257,0.05529482,0.1016348,0.02614365,-0.0560043,0.02810785,0.1237243,0.0388769,0.05880013,-0.0004957742,-0.0036873,-0.08731238,0.1514184,-0.03712989,0.1131436,0.1037731,0.0604643,0.02614046,0.008250062,0.04103729,-0.04932516,-0.08667566,0.03742457,0.07997067,-0.04553693,-0.08930964
-0.08406189,-0.06908994,0.0009485924,-0.05301359,0.09757535,0.01056515,0.07609382,-0.01550972,-0.1002398,-0.1216177,-0.04865574,-0.005792352,-0.02503753,-0.06505679,0.04426627,0.1082214,-0.1193009,0.02293029,-0.07870755,-0.06449026,-0.05630105,-0.09705999,-0.09329633,-0.1099053,-0.03788528,0.0589614,0.03722921,0.0340701,0.05462163,-0.1274466,0.08522809,0.1088398,-0.07188871,-0.06588729,-0.1191331,-0.01347717,0.05894798,-0.06878071,0.01741986,-0.009946452,0.05604036,-0.01829727,0.03531866,-0.1291594,-0.00954162,0.0332737,0.10654,0.102622,0.09705361,0.06551285,0.04434541,-0.04545251,0.0769674,-0.1487144,0.1093474,0.0706913,0.03172554,0.0700928,-0.07365525,0.008999089,-0.08630958,0.02662719,-0.006625736,0.0173154,-0.08360074,-0.108057,0.0106536,-0.09535362,0.07068025,-0.02782992,-0.0912804,0.02497031,-0.1018035,-0.1019628,0.006314564,-0.1177142,-0.1021063,0.0678978,-0.08593907,-0.06373007,0.1146528,0.04308123,-0.009011455,-0.04484772,0.09462301,0.07360467,0.03510292,-0.09414791,0.01365621,0.09625901,0.0208353,-0.04437614,0.0731335,0.01667596,0.0672143,0.08721796,0.002973961,-0.1012587,-0.05180488,0.06659844,0.1092682,-0.08577379,0.1022499,0.1114228,-0.08566526,-0.1024546,0.01176675,-0.1167577,0.003095465,0.02048806,0.06732215,0.1178259,0.06915724,0.07438842,-0.06956907,0.06149347,-0.06989455,-0.0772019,0.1115231,0.01124364,0.04094189,0.05830677,-0.09475098,0.01037415,-0.06930207,0.05682036,0.1074916,-0.1220784,0.01193706,-0.07448585,-0.03451901,0.1190887,0.108773,-0.1106743,-0.06890848,-0.007219614,0.03724448,-0.01995332,0.1100538,-0.03268308,-0.08297452,-0.02703717,0.0368198,-0.03142241,0.02954745,-0.08730397,0.07952042,-0.09114131,-0.04800229,0.1017824,-0.1177987,0.1282746,-0.04054618,-0.01950073,-0.02872781,-0.03541877,-0.01772373,0.09670782,-0.05333468,-0.06098146,0.06181229,-0.009969591,0.1178495,-0.04117781,-0.09636804,0.001534193,-0.03760487,0.07254162,-0.01934577,0.05723961,-0.06834783,-0.01379368,-0.03101842,-0.07587261,0.0492991,0.04413574,0.09277692,-0.09188973,-0.06655898,0.05678744,-0.05187072,0.02676802,0.07825913,0.1155434,-0.07292067,-0.1067617,0.08647418,-0.06209169,-0.1088127,0.0438301,0.101775,0.07360146,0.04596572,-0.02493626,-0.0191072,-0.008557762,-0.02969427,0.09265156,0.005354518,0.05151962,0.02386084,0.07811387,-0.08238453,-0.02902102,-0.08903617,0.05208786,0.1028821,0.07833704,0.03850617,-0.101269,-0.01920531,-0.1163117,-0.03506736,-0.07003381,-0.06931653,-0.108133,-0.03647666,-0.006690934,-0.03655881,-0.05075257,-0.08248906,-0.00249159,-0.0009952706,0.05277902,-0.1135859,-0.05611694,-0.03933155,0.02299315,-0.09267673,0.007531859,-0.03019127,0.03735509,0.1088701,0.008123647,0.06156975,-0.01656804,0.1142165,0.1473518,-0.02472899,-0.03076949,-0.07721782,-0.003672929,0.1100965,-0.06931077,0.125464,0.05955731,0.1088478,-0.01324036,0.1128124,-0.09597579,-0.07752486,-0.05790428,-0.04831954,-0.09478402,-0.1225162,-0.1172027,-0.06008445,0.09675919,0.09659202,0.1032536,-0.02564432,-0.09681997,-0.04469087,0.05509907,-0.08077788,-0.06558353,-0.02068468,0.09164397,-0.06352764,-0.009576988,-0.1121846,-0.03455872,0.08922503,0.1094397,0.04751643,-0.09119591,0.06463342,-0.008367365,-0.08861142,0.02312124,0.05615456,0.1027284,-0.1110358,0.06185423,-0.02652602,-0.1009521,0.03538315,0.003524894,0.08034742,0.05356226,0.07776175,-0.06806715,-0.09840057,-0.1025926,0.1142538,0.02420776,-0.07068375,0.09293281,-0.04259492,0.09610369,0.04155145,-0.1265225,-0.01904449,0.02382199,-0.06494591,-0.05200131,0.05396758,0.09260884,-0.01281824,0.08254424,0.04399775,-0.04950431,-0.09713932,-0.07209221,-0.1090912,-0.0871924,0.0621626,0.1046072,0.0493538,0.1057111,-0.04412572,0.07876427,0.09851614,-0.0587512,0.01868969,0.1299462,0.0753676,0.086927,-0.1373303,0.08185173,0.03966968,-0.03918964,-0.01702705,-0.002825638,-0.03977075,-0.01969301,0.04915311,-0.01161697,0.01146775,-0.0176328,-0.07472257,0.1149844,-0.0511783,0.07317536,-0.0589912,-0.149716,0.02016198,-0.04760051,-0.04710293,0.02918528,0.03482727,-0.06791121,0.02184505,0.01594039,-0.04891178,0.0705656,-0.02701542,-0.02440175,-0.0431533,0.0751619,0.0853282,0.03618301,0.05521416,0.04986952,-0.06620498,-0.03743907,0.07220102,0.08577483,-0.1089807,-0.009021016,0.03459757,-0.01974627,0.08114144,0.1217929,-0.06236798,0.03503021,0.05806965,0.09834802,0.024534,0.04395169,-0.09914678,0.03423566,-0.06331249,0.07848424,0.01613113,-0.0677624,0.03248047,-0.1066295,-0.05716861,-0.02802088,0.06183368,-0.05477098,-0.06599661,0.1331258,-0.05165282,-0.0633658,0.03011592,-0.06835757,0.01465117,-0.1182886
0.05917245,-0.07968458,0.03879092,-0.0143505,-0.0844211,0.06513717,-0.110289,-0.02712549,-0.1033498,0.09465908,-0.1466271,0.03842984,0.02861328,0.0002983812,-0.002073012,-0.04247811,-0.005536232,-0.04113381,-0.05664343,-0.0851965,-0.128809,-0.03616268,-0.1290225,0.02057796,-0.04070052,-0.1090982,-0.008631813,0.1097075,-0.1169583,-0.1112263,0.03473754,-6.755961e-05,0.08503052,0.07298839,-0.09006748,0.1001227,0.01453221,0.07399533,-0.08336487,-0.0490612,-0.1127334,0.05023556,0.03087107,-0.1063935,0.04000128,0.03422706,-0.08727089,0.1073122,-0.05188748,0.05208784,0.07374044,-0.1211407,0.005397952,-0.07759107,0.0895554,-0.07661556,-0.006212489,0.1087649,-0.1169395,-0.000287131,-0.09889755,-0.05151279,-0.131043,-0.1386672,-0.1202665,0.09537593,-0.09060923,0.06355043,-0.02943544,-0.1388911,-0.07953667,0.03577046,0.03076777,0.0746716,-0.04406807,-0.006237838,-0.1382366,0.06166333,-0.03432013,0.09185388,-0.09914959,-0.09055711,-0.1571825,-0.05178285,-0.1258759,0.0336829,0.07458238,0.05830531,0.03151737,0.04488753,-0.006871112,-0.08667159,0.02587127,-0.03522199,-0.1423941,-0.007261849,-0.04425897,0.00251478,-0.1292499,0.09510114,0.02901175,0.01147178,-0.07674744,0.1197479,0.02013638,-0.0770982,-0.06022551,-0.05934377,0.1178205,0.02548623,0.0581579,-0.05401698,0.1139179,0.1087435,0.1180119,0.0407359,0.03093433,0.02362171,0.1096512,0.07495441,-0.05108171,0.05031838,-0.06188989,0.106314,0.05964437,0.02098919,0.004449023,-0.06301609,-0.01403114,-0.05021154,-0.09810892,0.08725788,0.06560993,-0.07290928,0.02084561,0.08505611,0.09814292,0.02202408,-0.04803643,-0.07143881,0.07148758,-0.03260047,-0.08839925,-0.1425753,0.03128631,-0.0201082,0.07922547,0.07557564,0.04895248,-0.1058035,-0.0199672,0.004649787,0.0859653,-0.07574335,-0.01300302,-0.06935993,0.0704612,0.0142452,0.007373227,-0.03950069,0.01334633,0.05435441,0.01043117,-0.003524696,-0.02416697,0.04430376,0.0694822,-0.04521687,-0.1181854,-0.08695646,0.01657902,0.007393949,-0.09359721,-0.08404516,0.05902872,-0.1202007,0.01760035,-0.001561232,0.04657448,0.09545502,-0.03042679,-0.02325422,0.01528033,0.02929863,0.08080443,-0.005565273,-0.07762443,-0.03743695,-0.02961061,-0.05718466,0.003605385,-0.1661963,-0.1143488,-0.005096332,-0.05485562,0.03767153,-0.07683691,0.06447096,-0.01310737,0.06417041,-0.001383226,0.03506332,-0.1007336,0.1059381,0.0231567,-0.07066697,0.02112381,0.1042486,-0.02063323,-0.01483143,0.1150797,-0.05202155,0.09997507,0.02741823,-0.1260245,-0.07540957,0.005692592,0.09338129,-0.1213457,-0.04771367,0.09157316,-0.08363619,-0.07350204,0.04177959,-0.0508327,0.09074689,-0.05290198,0.06559621,-0.1206528,-0.08588234,0.01268534,0.0348584,0.05709776,0.0744369,0.004958769,-0.0525701,-0.05285442,0.05537161,-0.06135279,0.01154637,-0.06312285,-0.01134849,0.07061563,0.04836173,0.07406573,-0.1203859,0.04686924,-0.04459272,-0.01045846,-0.1176583,0.0902946,0.06112782,0.07439979,-0.02116444,0.04086457,-0.07671382,0.01199356,0.0009451039,-0.007077583,-0.1347795,0.0214441,-0.01448201,-0.00154374,-0.007971873,-0.1372897,-0.02400687,0.0185515,-0.01437981,0.02598018,-0.01118144,0.08972642,-0.09309539,-0.007221624,0.08995175,-0.03425465,-0.1186246,-0.07936391,0.02339693,-0.1214232,-0.06679375,-0.07082351,0.05531077,-0.07784117,0.07320103,0.01532818,0.05815741,-0.07547587,-0.0193947,-0.119754,-0.09815822,-0.106816,0.08669247,0.04245851,-0.08263443,0.07798006,-0.08886123,-0.1332424,0.08040529,-0.1090048,0.04210851,-0.03575651,-0.1274482,-0.02202833,-0.03897455,-0.006282922,0.04869732,-0.1281278,0.01242406,0.03893391,0.0377909,0.01594232,0.05879967,0.05013094,0.08257022,0.06487019,-0.1368214,-0.1063849,-0.1013018,-0.06290347,-0.1231605,-0.1008685,-0.09387129,0.04390361,0.02463585,-0.02902514,-0.002452585,0.03979847,-0.02796461,-0.06962146,-0.06555773,0.01324308,-0.1084675,0.1053011,-0.04994385,0.01251652,-0.06997139,-0.103142,0.04882241,-0.126799,0.09922741,0.03000622,-0.1001139,-0.07555056,-0.01580406,-0.09212153,-0.02055811,0.1043201,-0.04452238,0.02020057,0.01242286,-0.1159347,-0.1247657,0.08717434,0.1009106,-0.08490018,0.1130336,-0.06217198,0.1087354,0.0783173,0.07128393,0.07283691,-0.01737526,0.08932342,0.07136498,-0.1047437,0.1030275,0.08716327,-0.08532935,-0.08040362,0.05879944,0.0207688,-0.03815848,-0.1232151,-0.03367898,-0.1192479,-0.01434566,0.07939938,-0.07150725,-0.09694568,-0.0310175,0.01690825,-0.0456076,-0.06611446,0.08889028,-0.04630533,0.02853919,-0.1279268,0.02165307,0.03260737,-0.07725259,0.04681143,-0.1067285,-0.03325815,-0.08582477,0.04453519,-0.03876878,0.1072405,-0.02589214,-0.08935907,0.006151112
-0.02079316,0.0180391,-0.02689821,-0.02843999,0.1290974,-0.07921956,0.1480541,0.1019863,0.01139187,-0.09820046,0.04399731,0.1486678,0.04591427,-0.02982623,0.1058637,-0.01472339,0.01575278,0.06939416,-0.06764811,0.05478803,-0.01022393,-0.08029325,0.05059211,0.002729707,-0.07559757,-0.1297523,0.07386272,0.06922603,0.06371725,0.08952692,-0.1228492,-0.07375605,0.02809174,-0.09267639,0.01695987,-0.05443487,0.02870754,0.1077551,0.03953499,0.002770442,-0.1262276,-0.00311991,0.1578151,-0.09268861,0.03884983,0.03438285,0.04700729,-0.09681994,-0.09364658,0.01703201,0.07438514,-0.1750714,-0.1691545,-0.2104217,-0.03198921,0.1579501,-0.1615969,-0.1575427,-0.04023977,-0.09914022,-0.0006783352,0.1586471,0.05221843,0.1090541,0.04776891,-0.09188782,0.001328444,0.0621743,0.1511643,0.1306141,-0.04053339,-0.0550202,0.07340951,-0.1121097,0.02194992,0.0618493,0.1167507,-0.01160177,-0.0323417,0.03386511,-0.05176156,0.1468644,-0.1025898,0.08549152,-0.05382136,-0.06953499,0.07471799,-0.007994706,-0.05572115,-0.04060621,-0.01446416,0.06513217,0.03476554,-0.005819257,0.05473296,-0.02271403,0.02935454,0.1130824,-0.1099621,-0.006500837,-0.1169891,0.1015807,-0.07242835,-0.007293921,0.1056414,-0.02671366,0.09571994,0.1170046,0.08734739,0.03651589,0.1029846,-0.07020993,0.00399984,-0.01458229,-0.003062442,-0.08585946,-0.0314938,-0.0797625,0.04352113,0.03220458,0.07367056,0.09804181,-0.09885405,-0.0749927,0.02257998,0.04464572,0.1113821,-0.0004447707,-0.05065919,-0.1000512,0.09649885,-0.06994193,0.1102521,0.06190827,0.00879536,0.0004982805,-0.01510782,0.1178112,0.07433723,-0.06846722,-0.04185043,-0.0253977,0.04312674,0.1181234,0.02057172,-0.02997148,0.1224624,0.1268059,0.03506754,0.006339326,-0.05987646,0.1130503,0.1512071,0.1204874,0.06953306,-0.003485834,-0.04543627,-0.05166959,-0.07059453,0.03022038,0.07366993,-0.07113032,0.009066286,0.04881836,-0.01889561,-0.01477404,-0.04046371,-0.03986066,-0.03432302,0.1138927,0.05441881,-0.004030947,-0.08215811,0.1112511,0.121252,-0.09510579,0.1085371,0.01279678,0.05278085,0.04279225,0.03885043,-0.03985414,0.003908026,0.1304885,0.04791111,0.05975871,0.1392193,0.006517041,0.07073825,0.1194903,0.05660325,0.1076833,-0.07849325,0.06522916,0.01927212,0.05861428,0.06734187,0.003148766,0.1421668,0.07926868,0.09336361,0.05267893,0.07812387,-0.0373308,-0.0488251,0.05750586,0.0994606,0.01966669,0.04682822,0.02010079,0.1331598,0.06282561,-0.06522457,0.1346059,0.06785414,0.1164189,0.1342428,0.05142718,-0.1171285,0.1246762,0.06514103,0.08081201,0.08036833,-0.1628159,0.08693142,-0.1104579,-0.01262782,0.1327721,-0.03032882,-0.02413319,0.07824001,0.1153273,-0.01017433,0.08469837,-0.1117338,0.1155043,0.1073374,0.1337001,0.03693472,0.02816717,0.09347399,-0.0756205,-0.1094292,-0.1313585,-0.01566203,-0.04690006,0.08570648,-0.1024731,0.1169631,-0.04581273,0.1360074,-0.009667758,0.004678969,0.0787074,0.03332474,0.05135962,-0.08116005,-0.04743368,0.0402301,0.1241882,-0.008874582,0.01959024,0.09065633,0.03607083,0.01294949,-0.06930327,0.09922189,-0.022922,0.1307118,0.1243716,-0.06193337,0.08610066,-0.03606915,-0.02045876,-0.04517813,-0.03431557,-0.01658178,0.07981329,0.1173461,0.07656436,-0.001853862,0.07366059,0.06445301,0.1137354,-0.09605285,-0.07323309,0.0149725,0.1094248,0.0907761,-0.1078936,-0.05106534,0.0555876,-0.0563387,-0.1137596,-0.09088801,-0.08119542,0.1381694,0.05866447,0.005260758,0.0281552,0.03924615,-0.04745364,0.1179311,-0.03746268,-0.08659473,-0.1748368,-0.0129061,-0.08174688,0.1003683,0.03292,0.1222477,-0.1128025,-0.08227801,-0.07848878,-0.03505877,0.08341037,0.08983914,0.048529,0.05528208,-0.02949244,0.07271669,0.07473914,0.06468654,0.01791218,-0.1172771,-0.1470947,-0.06994198,0.09153872,-0.07655399,0.1491962,-0.01510372,0.0599378,-0.04345653,0.09109658,-0.08602304,-0.05912485,-0.0007651735,0.04538481,0.07996766,0.02897614,-0.1080254,0.045309,0.000535403,-0.05459763,-0.04831705,-0.01858002,-0.07535639,-0.03540848,0.08639599,0.1004537,0.1125607,-0.02282475,-0.07565019,0.03388766,0.08314999,-0.08645158,0.08114675,0.005330489,0.03721666,-0.04336213,0.1156618,0.003915185,0.09719758,0.03747834,0.07490216,-0.115495,0.04543021,0.02900233,0.1176945,-0.02099194,-0.09521969,0.004774576,0.0588218,-0.06013599,0.03047688,0.04309812,0.07563347,-0.0896332,-0.01538118,0.08689649,-0.05484251,-0.02455757,0.05458431,-0.09674942,-0.06446499,0.02561288,0.03561617,-0.006440032,0.07310873,0.1244371,-0.003636773,-0.02496904,0.005592856,-0.08221907,0.0957135,-0.04094212,0.04237616,0.02711654,0.06712896,-0.09341254
-0.001827155,-0.06206394,0.1114982,-0.05433449,0.07174954,0.1381523,0.1404885,0.1041662,0.02251883,0.05445191,0.1408348,0.109982,0.002381158,0.07750547,0.07761449,0.1195797,0.1079256,0.008723209,0.05660247,0.08946485,0.1291878,-0.01029972,0.04408941,0.05705545,0.03793629,0.06030955,-0.02888081,-0.05032526,0.02322926,0.002635514,-0.05746133,0.011588,-0.09542343,0.1097424,-0.08012254,0.09355119,0.06207949,-0.008967883,0.0921276,0.09630894,-0.02876952,-0.01598664,-0.09953685,0.07013967,-0.06835794,-0.01690727,0.02829123,-0.1142309,0.07105253,0.01115691,0.02150869,0.03047014,0.01975558,-0.08869082,-0.07424496,-0.09399413,-0.1311114,0.0399806,0.03916819,0.0165772,-0.06908496,-0.07060666,-0.0003919221,-0.02659819,0.09676473,-0.002696035,0.02325236,0.02703932,-0.01904033,0.008627336,0.1050751,-0.06646249,-0.1243469,0.002489711,0.02226515,0.04048067,0.1366703,0.126451,-0.09286566,0.08552966,0.1065274,0.1114315,-0.07918917,0.1187793,0.05401018,-0.03921916,0.04349038,-0.03754736,-0.04799422,0.05968218,0.107088,0.1476734,-0.05480068,0.02349166,0.1130992,-0.0589587,0.0973163,-0.05194728,0.005073171,-0.02006423,0.03113964,0.001850169,0.07505506,0.01209751,0.1042259,-0.04179774,0.03410813,-0.115769,0.09614667,-0.1024907,-0.009647359,-0.07661584,0.1053731,-0.01791763,0.09728232,-0.00415484,0.0932143,-0.005329563,-0.0722111,-0.1174299,-0.1033916,-0.02004186,0.07412822,0.09052709,0.0230528,-0.08469027,0.09957653,-0.04737512,0.1342952,0.1132727,-0.02254823,-0.06688726,-0.07948597,0.02202419,-0.07440325,-0.09063977,0.124731,0.03064872,-0.06968854,0.07394256,0.05050643,0.09764884,0.1233309,0.08312372,-0.08289298,0.06015183,-0.08386283,0.04660271,0.1160677,0.03506402,0.05894691,0.05095228,0.001225056,-0.1079724,-0.04174507,0.03328792,0.1024077,-0.09043004,0.008122927,-0.06238671,-0.06534792,-0.02592643,-0.0312667,0.0229235,0.07381187,-0.04718051,-0.01068136,-0.1164889,0.0119024,-0.07392965,-0.1155873,-0.04808401,0.1216256,-0.06299056,0.08324443,-0.06417588,-0.08356848,0.04107538,0.07461585,0.004998594,-0.0618862,0.1380434,0.08474956,0.1362199,0.08801401,-0.05150271,-0.07622243,0.01040748,0.05048649,-0.003643046,-0.08767638,0.04855024,0.1417435,-0.051375,-0.08585092,0.01724846,0.003459177,0.1309025,0.1521643,0.01190368,0.009648683,-0.1187672,-0.05173898,-0.1208884,-0.04616345,0.05034337,0.05085253,-0.01160887,-0.1066781,0.1029018,0.1045099,0.06491212,-0.04622128,0.08538099,0.05220859,-0.04230987,0.02353735,-0.1314461,-0.07400578,-0.03342726,-0.0724001,0.02990572,0.02094137,-0.1284262,0.08445577,-0.06402298,-0.09270439,-0.123961,0.01474697,-0.09845389,-0.03889429,0.04306379,-0.0567992,-0.05807517,-0.08952074,-0.02411911,0.08308526,-0.01392068,-0.01873298,-0.08769775,0.1237098,0.03829332,-0.05935563,0.1051779,0.09930226,-0.1069215,0.04774221,-0.03227403,-0.05284704,0.1162491,-0.1202912,-0.09711989,0.01127454,-0.07198666,-0.01270128,-0.05188307,0.1138474,0.02449661,0.05245733,0.00848751,0.09399001,0.01345567,0.02709177,0.1314254,-0.0741687,0.1375086,0.02894387,0.08600245,-0.03254947,0.1013702,-0.09817443,0.0705301,0.1176298,-0.05875653,0.06628058,0.001543514,-0.07748674,0.04314052,-0.03165412,-0.0259147,-0.01484824,0.1228561,0.02197107,0.0326695,0.08466966,-0.0306246,0.06156528,0.07175511,0.100577,-0.05696692,0.05797784,0.04148398,0.0887528,0.02278837,-0.04643384,0.03414955,-0.09581868,0.127833,0.004716064,0.03667674,0.04088216,-0.1054178,-0.0367718,-0.07885367,-0.1140176,-0.1314887,-0.05030245,-0.07695211,0.1023027,-0.03369969,0.05351434,-0.1245486,0.08707169,0.04906483,-0.01300756,0.05704117,0.07272448,-0.1020152,-0.008549328,-0.01361845,0.06193529,0.06048206,0.05928271,-0.08503387,0.06076439,-0.1465421,-0.08305997,0.06418815,0.05714364,0.04030966,-0.1233476,-0.07676206,-0.0869069,0.04558212,-0.0489779,-0.05340265,-0.1345127,-0.05361701,-0.147944,-0.06185107,-0.03725532,-0.1388324,0.08615876,0.00157332,-0.07338107,-0.1486772,0.007118366,0.0312472,0.01205014,-0.1042315,0.1232891,0.0388722,-0.01183371,0.01812662,-0.07654308,-0.110153,-0.07105984,0.0969285,-0.05341243,0.08982038,0.06669989,0.002827521,0.07466318,-0.0988659,-0.0979142,0.08973148,0.08861369,0.08112945,0.02826063,-0.04413487,0.03168002,0.03886735,0.1085035,-0.09922132,0.06740015,0.06255904,-0.0995287,0.09980158,-0.09265471,-0.06847548,0.01344617,0.08290243,-0.1082915,0.08980036,0.01871249,-0.03277761,-0.07599373,-0.09281988,0.00561546,-0.07081796,-0.09210788,-0.01793894,-0.09755839,0.04471179,-0.1040645,0.06983476,0.05697119,-0.02711809,-0.07815964,-0.06322219
-0.03082608,0.0552475,-0.001853877,0.1202336,-0.08352155,0.1125456,0.1059315,0.09736776,0.004020639,-0.02021677,0.09035085,0.02565832,0.0006857872,0.05302426,0.01919176,0.1008582,0.07541317,0.07741211,0.08791437,0.1459375,0.02181428,-0.04409765,0.104946,0.07268329,-0.07489066,0.1321916,0.1526983,0.09805138,-0.05274134,-0.08488774,0.003609454,-0.0691777,0.0891603,0.06208599,0.0251596,-0.03709814,-0.02532303,-0.09001953,0.006337604,0.1016947,0.1023114,-0.006406245,-0.08492818,0.07714037,-0.007311956,0.09719555,0.1006341,-0.03281,0.1328187,0.1007,-0.07609214,-0.001830797,0.1120283,0.08833956,-0.02230444,-0.02227584,-0.04152888,0.1304033,-0.02795392,-0.05533977,0.03726641,-0.03375635,0.06349152,-0.05132408,-0.05796597,0.00380634,-0.1104352,-0.05652916,0.006057721,-0.07994936,-0.02992949,-0.07700282,0.07627006,-0.1163323,-0.08198617,0.04189475,0.1106598,0.1172838,-0.03941304,0.1149884,0.02094964,0.02800365,-0.03164607,0.1273797,0.03322305,0.03982894,-0.02108528,0.09808633,0.1072908,0.1124136,-0.04752314,0.160098,0.1683096,0.1299781,-0.01441954,0.06108178,0.05418057,0.04175749,-0.004034533,0.08414868,-0.1160818,-0.03888134,-0.06289843,0.1176511,-0.08765732,-0.07194214,0.008851452,0.09203838,0.0001087386,0.1022046,0.03026556,0.05168052,0.1062437,0.01351837,0.0650344,-0.08965788,-0.02879265,0.05151882,0.074664,-0.1096365,-0.02380959,-0.03965396,0.07530318,-0.1112511,0.07139537,-0.04921698,-0.06820209,0.003049278,0.1397606,-0.06957569,0.08694785,0.03994131,0.007040351,-0.03231407,-0.04026647,0.06713443,0.05378415,0.01594569,0.04776275,0.04111134,0.01359367,-0.05395603,0.142085,0.1317103,0.00371493,-0.01668267,-0.07983431,0.03651137,-0.02013286,0.003125474,-0.01782425,-0.03009335,-0.06415857,0.07554021,0.03208612,0.1022518,0.05846903,0.05635624,-0.09160402,-0.05801378,-0.08249627,-0.02655254,-0.08237394,-0.02360988,-0.05540232,0.06170305,0.1199125,-0.05280026,-0.01935731,-0.03458539,0.09783944,0.1154482,-0.09911583,0.1139518,0.06371293,0.04561961,-0.05799429,0.07889974,0.07135344,0.05760352,0.07939798,0.006561693,-0.01933952,0.05528046,-0.09126695,-0.09549259,0.1050811,-0.03126227,0.06029106,-0.05839039,-0.07670624,0.1509018,0.06072867,0.1201417,-0.02034649,0.07638147,-0.08238971,-0.069498,0.1301818,0.1079809,0.09997492,-0.04294611,0.03812309,0.03346607,-0.005740402,0.06779461,0.02444961,-0.1031286,0.07377622,0.09378408,-0.006841246,-0.1769222,-0.05593823,-0.02831688,-0.03452853,-0.03052315,-0.01055139,-0.03657728,0.01897348,-0.09819714,0.07087422,-0.01886148,-0.05095149,-0.03827688,0.03428231,0.1042717,-0.05566665,-0.05863636,0.01473286,-0.05082382,0.06778828,-0.03289296,0.02054206,-0.02768918,0.08277893,0.03508635,0.04318772,-0.0004162206,0.1154965,-0.02608399,-0.0621526,0.03569667,-0.01366654,-0.04819569,-0.06742494,-0.03927935,-0.03026173,0.06592164,0.1462098,0.09399182,0.02721957,0.02859562,0.1134656,-0.001896614,-0.09853959,0.08871421,0.1509467,0.02006418,0.04379423,0.09160991,0.01722112,-0.05222547,0.001165446,0.1754393,-0.03542656,-0.07309397,0.1276305,0.167907,0.09293997,0.033008,-0.0468531,0.03880762,-0.00287652,0.06461013,-0.00881971,0.08716087,0.03867107,-0.07823835,0.1002274,-0.0137692,0.07435128,0.1018758,-0.09177642,0.002268175,-0.0744535,0.0713207,0.03730646,0.1336249,-0.1001819,0.106876,-0.1012458,-0.002064001,-0.04108871,-0.06055787,0.1101857,-0.02601598,0.02338065,-0.08534093,-0.09536473,0.1393279,0.002955122,-0.09759726,0.008611836,-0.02611172,0.04254356,-0.1015074,-0.1077343,0.02605442,0.1854719,0.06735911,0.07651136,-0.08010574,0.01516003,-0.01727108,-0.01762484,-0.07501429,0.03936363,0.0107325,0.08544566,-0.08764289,0.01452803,0.0853913,0.03848458,0.06781202,0.0525703,0.1018779,0.1538929,0.01252933,0.06817599,0.06099857,0.1070557,0.03380533,0.1378153,0.03175005,0.1158546,0.1201613,0.08703218,-0.08874962,-0.04043575,-0.08170103,-0.08216836,-0.1150333,-0.1168595,0.08340933,-0.03642796,0.006240067,0.05673565,-0.08867146,-0.03039136,-0.08663278,-0.05709667,-0.06394166,-0.09682522,-0.06327487,0.07358138,-0.07200537,0.09498611,0.03384626,0.1034246,-0.085324,-0.09760129,0.1021741,-0.05200341,0.09859803,0.05672283,-0.1063228,-0.1059281,0.02634683,0.07610568,0.07679127,-0.07563942,0.06144528,-0.07379773,0.03924195,0.03039516,-0.1124184,0.06494586,0.0791344,0.08938646,0.05433071,0.04459538,-0.06672055,-0.02943877,0.06726578,0.0284023,-0.05096279,-0.01532187,-0.03356627,0.08414897,-0.03651127,0.004880856,-0.04412952,0.1399991,0.1156595,-0.04169363,0.1001784,-0.09261878,0.08710326,0.08487145,0.003745389
0.07480814,0.1171231,0.04755677,0.04855087,-0.009462554,-0.04498922,-0.008110004,0.003204177,-0.04129948,-0.03191551,-0.05276371,0.05142529,-0.003257594,0.07929062,-0.00296327,-0.06327996,-0.1050036,-0.03450576,-0.1081295,-0.06515134,0.08764741,0.004682244,0.1154829,0.1052946,0.1219592,0.06819903,-0.0577199,-0.07048022,-0.01916623,0.06570432,0.09093779,-0.04962326,-0.05212205,-0.01898217,-0.1011514,0.04279826,-0.1085143,-0.03262997,0.09766278,-0.1050449,-0.01103638,-0.07575469,0.1159906,0.1179168,0.03452671,0.01388208,-0.02538488,0.07877155,-0.02100706,-0.1148373,0.0227526,-0.03011103,-0.08618783,-0.0781572,0.07733015,0.06627251,-0.05614067,0.103502,0.03421693,0.05239456,-0.09362525,-0.02273464,-0.06941579,0.03309685,0.04085245,-0.04785024,-0.000505433,0.09248255,0.1000203,0.03473318,0.08605574,-0.05007713,-0.04126716,0.1203159,-0.0137335,0.09293794,0.0436122,0.1221891,-0.08603603,0.07380129,0.09661595,-0.009990537,-0.01636873,0.04468017,0.1146232,0.1178874,-0.00403714,-0.1085125,0.06688617,0.008256209,-0.06000616,-0.07867281,0.04195883,0.05193964,-0.04822648,-0.07983766,0.08858401,0.05333453,0.1339815,0.112605,-0.1148031,-0.04259932,0.0458764,0.04172834,0.03902892,0.02401512,-0.05608582,-0.0610761,-0.05325004,-0.0875401,-0.09949616,-0.08096544,0.08557863,0.02313421,0.05134977,-0.05669958,-0.01439247,-0.0587419,-0.06517281,0.054287,-0.05173702,-0.05830812,-0.1145831,0.06822354,0.02576859,-0.0113664,0.01552512,0.1032214,-0.08100711,-0.04221235,-0.09727649,0.01135932,0.04339281,-0.01092231,-0.009194294,0.007545647,-0.04923331,-0.09612245,0.1225436,-0.06696394,0.02229444,-0.07872799,0.0467219,-0.05872997,-0.05792292,-0.1173854,-0.08423319,0.03195232,0.0772031,-0.1127366,-0.0556636,-0.0973126,-0.0007181613,-0.110349,0.1170178,0.04072743,0.06905409,-0.09543499,0.1228029,-0.1053608,-0.1179634,0.05323533,-0.1118913,0.01921583,-0.114598,-0.01167814,-0.10486,-0.05819145,-0.01859277,-0.0558457,0.1023182,0.02853034,-0.09869925,0.07920503,-0.03609928,0.0008703867,0.002104129,-0.005675495,0.07560053,0.05404265,0.06797369,0.002051506,-0.1110377,0.0837261,-0.0237329,0.1010087,0.07036198,0.08516086,0.0472603,-0.001299381,-0.09590496,0.01407611,-0.04428195,0.02304064,0.1053524,0.01535881,-0.01770245,0.06971768,-0.1165566,0.02893304,0.1114286,-0.05843621,0.01365291,-0.02253161,0.1231468,0.1168786,-0.04939404,-0.03910655,0.02275095,0.004171903,-0.07243104,-0.02495798,-0.05249705,-0.04377622,-0.09368242,-0.01211906,-0.05315985,-0.07525753,-0.1188867,0.02637298,-0.1197883,-0.04478909,-0.1053745,-0.09235206,-0.002323084,0.06311755,0.04377755,0.0361281,0.05632488,-0.06525698,0.1156398,-0.1191167,0.03948366,-0.108574,0.02679512,-0.09211639,-0.1196856,0.1199323,-0.008381865,-0.01666765,-0.1169613,-0.01450127,-0.08152036,-0.09995595,-0.05508034,0.05470013,-0.0756074,-0.01086607,0.03332588,0.03637119,-0.087845,-0.04935522,0.1174014,0.1226923,0.1151567,0.01509612,0.1096116,-0.1066594,-0.05014504,0.08788927,-0.08971791,0.074499,0.1124232,0.06056513,-0.0157317,0.03786112,-0.05031371,-0.003902327,0.1083315,-0.07086402,-0.09785627,0.01477739,-0.09682805,-0.001532799,-0.0558562,-0.0545627,0.04117047,0.1165103,-0.1188262,-0.02297067,-0.07370635,-0.08792054,0.0003750724,0.06602594,0.02690716,0.1024654,-0.05217425,-0.008014394,0.02350152,0.08474577,0.004430575,-0.03895417,0.09853365,-0.05248743,-0.05633777,0.09777005,-0.0363168,0.1107095,0.07448481,-0.06966097,-0.03201593,-0.0841625,0.1247775,0.00106132,0.02643102,0.007155784,-0.04327914,0.04618686,-0.09032629,0.07191606,0.0345239,-0.05563447,0.02210364,-0.02829201,-0.07238191,0.07627456,-0.1021691,-0.01734203,-0.04971208,0.03641579,-0.108992,0.1080304,-0.06496989,-0.08762286,0.03886014,-0.1050434,-0.01031331,0.08953737,0.08551273,-0.0164839,0.1022272,0.03583087,-0.08061776,0.03224663,0.00476779,-0.02179782,-0.1164313,-0.1155483,-0.04658307,-0.02301332,-0.07620218,0.06254767,-0.06886989,-0.04238506,-0.07648931,0.03175323,-0.01547346,-0.1125256,0.1182374,0.03098138,-0.005176693,0.08536156,0.0374133,0.03844846,0.0680069,0.058439,0.06866336,0.1020109,0.1157446,-0.06961728,-0.0222509,0.009615732,0.04966831,-0.0161212,0.07993923,-0.1197196,0.1096666,0.009781905,-0.05418458,0.03610087,0.0904741,0.1136612,-0.1152346,0.08212089,-0.01309844,-0.0168906,-0.042032,0.0594607,0.01690122,0.06420281,0.01995991,0.08111528,-0.05535083,-0.08872624,-0.0534117,0.08155083,-0.04776808,-0.1048054,0.08324651,-0.01737593,-0.09155523,-0.1148962,-0.02208407,-0.08906491,0.006488517,-0.02667087,-0.06911433,0.03372624,0.04262459,0.04854054
-0.1212723,-0.1083245,0.02783567,-0.02573266,-0.1107884,0.05410411,-0.02249607,-0.2144851,-0.09653968,-0.1869529,-0.1038143,-0.1670132,-0.213825,-0.04973686,-0.1467394,0.04350555,-0.0006260258,-0.04156562,-0.1758831,-0.1229498,0.02355064,-0.21374,-0.2402297,-0.01553414,-0.07247739,0.1140351,0.02013823,0.004682069,-0.005978525,-0.1025679,-0.07784176,-0.06857752,-0.04674169,0.1126855,-0.02466112,0.03593522,0.0273289,0.1051167,-0.006789204,-0.01248937,-0.07094461,-0.04304855,-0.1162699,-0.02340029,-0.04047912,0.05658448,-0.02688234,0.09395947,0.01183061,-0.06704982,-0.05647055,-0.02985257,-0.08820608,-0.006937551,0.1026968,-0.0758227,-0.07924826,-0.03526983,-0.1205756,0.002522897,0.1031457,-0.07015103,0.003568292,0.03738096,0.03839877,-0.09045028,0.05706693,-0.1007312,-0.06414306,-0.1057384,0.1063883,-0.00855324,-0.04821705,-0.1167793,-0.1108559,-0.1317357,-0.07902829,-0.009360378,-0.1349557,0.03935746,-0.01001418,-0.08186617,-0.06717275,-0.05203478,-0.1732062,-0.08440328,-0.1315021,-0.07244226,-0.1863413,-0.0005948344,-0.1253641,-0.133244,-0.1946144,0.05246232,0.08948242,-0.01222961,0.02184848,0.0218311,-0.1400279,-0.0488006,0.07486487,-0.0468462,-0.03074229,0.02031395,0.005429516,-0.05058085,-0.01730364,0.1196046,0.1202185,0.07279787,0.1143127,0.06237991,-0.08991662,-0.04633339,0.08026671,-0.01510913,0.005663475,0.1062019,0.08704513,0.05626107,0.0367703,-0.02023445,-0.1197975,-0.0477074,-0.04556808,0.0161092,0.0381445,-0.02092922,-0.08984841,-0.0680738,-0.1456409,0.06239428,-0.08471359,-0.05656774,-0.147068,-0.0676199,-0.09788067,-0.09154419,-0.1389803,-0.01785078,-0.06392276,-0.1718528,-0.0175274,-0.1989115,-0.0782954,-0.01612078,-0.09023192,-0.01202728,-0.08854184,-0.1594063,-0.0543707,0.01517512,-0.05853442,0.06705295,0.04871854,0.05060954,-0.04856399,-0.06196456,-0.01196926,0.09223206,-0.1198344,-0.02360078,0.06755521,-0.07960857,0.05927784,-0.09834042,-0.0191569,0.1010014,-0.01267061,0.03075853,-0.04976587,0.04570089,0.06403056,0.06193071,-0.02754894,-0.1338714,-0.006038877,-0.1416794,-0.1326978,0.01760693,-0.1092904,0.007509043,-0.1919229,-0.06967441,0.01693097,-0.07366414,-0.04707809,0.000868472,-0.09779751,-0.05169725,0.05164745,-0.1582714,-0.02512939,-0.02303371,-0.05180981,-0.1392598,0.04200282,-0.02638512,0.003437814,-0.1338463,0.03656703,0.1082717,-0.04370009,0.09001569,-0.01937768,-0.08753395,0.02762047,0.09197161,-0.02553444,-0.1046807,0.03773354,-0.05599094,0.05730681,0.07383741,-0.0220197,-0.1190802,-0.04677175,-0.1214708,-0.04351337,0.06520247,-0.08365671,0.0580763,0.02368497,-0.09109683,-0.108232,0.05806254,0.07326711,-0.06648608,-0.05991204,-0.08964619,-0.05463662,0.0963401,0.03037669,-0.1137125,0.004316047,0.1030271,-0.0613252,-0.0989501,-0.1146055,-0.06503017,-0.1015942,0.04429451,0.02819018,-0.08321349,0.01099782,0.06519696,0.02465128,-0.0121559,0.03299781,-0.007432071,-0.07405602,-0.08301231,-0.1764759,-0.01045715,-0.02321362,-0.01966332,-0.04643457,-0.1245591,-0.03976886,-0.07949415,0.01090772,-0.003496101,0.0289166,-0.07046138,0.01794799,-0.09127773,-0.08964296,-0.06879961,-0.07774837,-0.1083261,-0.02269675,-0.1040766,-0.01821068,-0.04290728,-0.06395806,0.07885443,0.05961992,0.1074584,0.02351433,0.02129469,-0.09501205,0.01402505,0.08282916,-0.02652686,-0.1057599,0.07039648,0.09664574,-0.01450249,-0.01749239,0.08244507,-0.1108105,0.00943624,0.05770706,-0.1151823,-0.07721119,-0.1147716,-0.03193676,-0.07016753,0.07360347,-0.08478143,-0.0338475,0.001846108,-0.04885249,0.07406021,0.04085569,-0.05393237,0.08011414,-0.1090455,0.0174295,-0.09928122,-0.106332,-0.08236247,-0.07882459,-0.08441412,-0.02522494,0.06420258,-0.1429803,-0.0587135,-0.1180386,-0.1207307,-0.06449021,-0.008428783,-0.03279926,0.06409289,-0.005342261,-0.0881892,0.1111446,0.07583603,-0.1142579,-0.03819029,0.05696401,-0.0530899,0.07219198,-0.07520407,-0.1050463,-0.02615324,-0.0643956,-0.1147032,-0.1158679,-0.1257093,0.07080207,-0.01947843,0.0786551,-0.06998103,-0.08581012,-0.1193132,-0.007670642,-0.1067035,-0.04136188,-0.1364062,-0.04803725,-0.02917852,-0.111822,-0.08404287,-0.06717587,-0.1326263,0.05166342,-0.0001327469,-0.06525248,0.09107035,-0.03761502,-0.1208675,-0.008914835,-0.03398861,-0.07873781,0.06715315,0.001889026,-0.09145021,0.01134747,0.05686592,0.0353894,-0.05720601,-0.1429716,-0.1280993,-0.09859581,-0.01487259,0.06381108,0.07763173,-0.09167011,-0.01627268,-0.08460823,0.03275622,-0.003020449,0.02245215,-0.08586029,-0.116041,-0.0542978,-0.01321246,0.03784084,-0.146794,0.1091328,-0.007687855,-0.05304581,0.02893712,-0.05342554,0.07680663,0.08708167,0.0533535,0.008256583,0.05441692
-0.02152148,-0.0144604,0.1002618,-0.06564983,0.09824421,0.01973044,-0.1095306,-0.06457226,-0.07887714,0.0666778,0.1116287,-0.1075125,0.04290166,0.005736448,-0.06815744,0.06651532,-0.04504895,-0.02005622,0.03761103,0.08885367,-0.05278048,-0.06555741,-0.008861473,0.04160082,0.05137374,-0.01385327,-0.1121061,-0.01664297,0.09695938,-0.0950063,0.07819261,-0.06866013,-0.02624113,-0.07953015,-0.1072495,-0.06963568,0.07599976,0.04789247,-0.08841328,0.04385301,0.117934,0.0100316,-0.0010786,-0.06679732,0.04271929,-0.06628034,-0.06562783,0.1063969,-0.04802159,0.02770998,0.004067902,0.005531568,0.02632895,0.06588386,0.04395492,-0.003550499,-0.1229821,-0.09176419,0.01563805,-0.08503783,0.04845219,-0.06754099,-0.06434944,0.06399039,-0.03417971,0.09194363,-0.1338802,-0.07541198,0.006240309,-0.06238949,0.1376848,0.1174114,-0.001181838,-0.1218665,-0.002549462,-0.07622728,0.02253952,0.0004884598,0.07533263,-0.0299969,-0.0003310763,-0.1257537,-0.1539314,-0.0472757,-0.006848984,-0.02417697,0.09578088,0.05105827,-0.03415829,-0.0154196,-0.06576218,-0.0429092,-0.02189666,0.0898177,0.1229887,0.007947049,0.06553532,-0.07227795,0.08123281,-0.06432999,-0.06444009,0.002146664,0.0275636,-0.01780081,-0.03626009,0.111936,-0.02571193,0.1216403,-0.09259344,0.0303118,-0.1170763,0.0532588,0.1118644,-0.02498458,-0.03398456,0.008526201,-0.05266929,-0.06167235,-0.005771589,0.0583828,0.06113653,0.0966961,-0.05493343,0.06861883,-0.1021485,0.05833255,-0.1052194,-0.0002302513,0.03278918,-0.0823375,-0.02789295,-0.1120881,0.04049757,0.02686125,0.03464713,0.1367787,0.1281687,0.1227918,0.06886742,0.1330608,-0.1022914,0.03461325,0.09128992,0.06118502,0.1343053,0.01481375,0.08249482,-0.02239073,-0.08617867,-0.004686388,-0.006209144,-0.141772,0.0748124,0.1166957,-0.1144195,-0.1089403,-0.05192266,0.007743156,-0.1257215,-0.120911,0.01663129,-0.01764769,-0.004687114,-0.05690536,0.04650733,0.01451374,0.06433553,0.08366843,-0.03910043,-0.1226354,-0.1468162,0.05163688,-0.1083326,0.08798067,0.03990189,-0.05336715,0.07148679,-0.01186331,-0.06663689,-9.447212e-05,0.02089061,0.144712,0.08541293,-0.03098158,-0.09120032,0.1021915,-0.03601853,0.08024249,0.09628774,-0.04029775,-0.04609036,0.04868734,0.07773664,-0.01669094,0.05316699,-0.04063743,-0.02493998,0.08093618,0.0868964,0.0872057,-0.08101857,0.01222639,0.02640392,-0.04441418,0.05104089,0.008043019,-0.1209271,0.07010131,0.01141528,0.009664508,-0.08170482,-0.06451412,-0.1115813,0.1302108,-0.1036497,0.1641853,0.08308655,0.08852836,-0.01974071,-0.02197215,-0.003516679,0.01567128,0.07520799,-0.07422815,0.01240305,0.06393853,0.05592753,-0.1212939,-0.10158,-0.09199017,-0.02260657,0.07125884,-0.1231824,-0.1183153,-0.03266838,0.02925376,0.1124548,-0.09173676,-0.04122582,-0.02358968,-0.04381932,-0.04323293,-0.01262194,-0.06813338,-0.1096102,-0.125748,-0.04721497,-0.0788739,-0.07818533,0.1079386,-0.04384725,0.06054137,0.05544707,-0.08105126,-0.06095136,-0.09928476,-0.0006257335,-0.1013697,-0.04143428,0.03237982,-0.1207075,0.09878419,0.06247475,-0.03636991,0.03262348,0.08638759,-0.07640011,-0.1568727,0.08813184,-0.02231586,0.08780056,0.04219761,-0.1153761,0.005543464,0.1003171,-0.1041728,0.07222056,-0.005667383,0.07925197,0.09482163,0.04692057,-0.07770187,0.02688149,0.07977358,-0.05878376,-0.0810294,-0.1117551,0.06583823,0.02638553,0.04745356,0.1055617,-0.09994021,0.0550718,0.0527927,-0.023182,-0.07933237,-0.08348798,0.008794517,-0.1016947,0.003834635,-0.06670168,0.08949136,0.07343835,-0.05449555,-0.1374865,-0.07167579,-0.02067898,-0.03155445,0.05411517,0.04248242,0.05239658,-0.01477181,-0.1097568,-0.05053108,0.09583069,-0.124655,0.07749076,0.0446062,0.09027458,-0.05678109,0.0413073,-0.05817004,0.1101537,-0.01812087,-0.07243238,-0.08949615,-0.1481258,-0.02203423,0.0506001,0.01977265,0.02250304,0.1199973,-0.03013748,-0.1223998,-0.06356498,0.03254078,-0.108999,-0.1072243,-0.01120971,-0.1417313,0.1073951,0.1136596,0.07738996,0.07744848,0.008630962,-0.02013909,0.006055859,-0.07887589,-0.1047689,0.1071884,-0.03470265,-0.07801107,0.006693291,0.06017284,0.04355264,-0.1034578,0.02590808,0.06222741,-0.0520611,0.05673315,0.03452266,-0.03612503,-0.04905241,-0.01039097,0.07357047,-0.02558848,0.006046663,0.02852511,0.07377518,-0.04831636,-0.1141061,-0.02775615,0.05531398,-0.04345861,-0.08782242,0.02399408,-0.03750663,-0.00979271,0.07192919,-0.06895573,-0.09405293,0.05862971,0.01688115,-0.003236456,-0.09534874,0.06408609,-0.06955093,-0.05014643,0.02770054,-0.1202372,-0.0474587,-0.07299059,0.0425638,0.09646095,0.0608151,-0.04030127,0.002939237,-0.08440311,-0.0695648,0.01466811
0.09373307,0.01595164,0.05823311,-0.1141947,0.02346988,0.03856434,0.09118276,0.006782777,0.01236969,-0.01932297,0.0839441,-0.1061158,0.1169914,-0.1153835,-0.1140886,0.06748086,-0.004444355,-0.05657747,-0.1098502,0.1101089,-0.1124331,0.03712835,-0.04129261,-0.043154,-0.09795976,-0.051262,-0.04313698,0.006062954,0.09170479,0.008908476,0.09884532,0.0596914,-0.1168447,0.05986399,-0.02699896,0.06566994,-0.03869423,0.04465034,-0.005610303,-0.1037706,0.1090138,0.04102027,-0.106217,0.00796895,0.06999646,0.06427281,-0.07254218,0.12314,-0.06798295,-0.09128604,0.1060596,0.01143737,-0.1265642,0.09270671,-0.08938255,-0.0670518,0.1275059,-0.01654889,0.03314748,0.04717011,-0.07996406,-0.09179669,0.004420482,0.1134654,-0.07779734,-0.0169606,0.1231765,-0.1122319,-0.02664406,0.0479202,-0.06246776,-0.02059568,-0.04752718,-0.038712,-0.0881101,0.09512968,0.1122993,0.02498294,-0.009732422,-0.05220205,0.1084849,0.07657868,0.1079327,0.0830733,0.05473609,0.08980634,0.09602576,-0.03116183,0.06730356,0.1118169,-0.04663672,0.0263793,-0.0797905,0.05634414,-0.107339,-0.06074894,-0.1082272,-0.09770461,-0.02421903,-0.09906809,0.114336,-0.1074249,-0.1220922,-0.09822524,-0.1100604,0.1023908,0.0669539,0.1212818,0.02928164,-0.09248886,0.1133921,0.04218137,-0.01910198,-0.001263779,-0.01538655,0.04275864,-0.09727549,0.05790981,-0.07497066,-0.04157638,-0.05168265,-0.1035732,0.03093545,0.09336457,0.0551846,-0.1221058,-0.01907868,0.04277297,-0.06330071,-0.02961052,-0.03493109,-0.08600767,0.1138895,-0.06291161,-0.001730873,-0.0113764,-0.09026254,-0.05756612,0.08877948,0.08796844,0.01259644,0.01923402,0.02957418,-0.1177138,0.07527158,-0.006894691,0.04181705,-0.08801057,-0.04631199,0.02942236,0.08352546,-0.07708205,-0.08346634,-0.1091568,-0.1161656,-0.03624604,0.04742464,0.03714368,0.02611018,0.02883694,-0.1206764,0.03808969,0.01629312,0.02700539,0.0608988,-0.1096287,-0.01220679,0.07690609,-0.01213182,0.01909887,0.04201108,-0.08119501,-0.04132418,-0.05219384,0.08912282,-0.1161122,-0.006105138,-0.108066,0.03340724,-0.02455215,-0.05932243,0.06517469,0.009114066,-0.08907194,0.09718218,-0.1087582,-0.02493481,0.1233684,-0.120885,0.02303374,-0.1158314,-0.0316228,0.03332771,0.05089946,-0.03747961,-0.01228257,-0.07338305,0.009902758,-0.1005167,-0.06207798,0.04229335,-0.030339,0.07359971,0.106791,-0.1165734,0.0673029,-0.1015867,0.02020929,-0.07640933,-0.05388098,-0.09820896,-0.05534032,-0.01297428,-0.0429775,0.04418711,0.04184005,0.08142704,0.1058168,-0.1182557,0.09632564,0.05971925,-0.0542984,0.08150648,-0.04876252,-0.1036706,-0.07323215,0.03325639,-0.02071225,-0.02762013,-0.101086,-0.0987994,-0.03803542,0.08167646,0.1003385,-0.1115566,-0.03668135,-0.1165963,0.09641349,-0.05485096,0.02038839,-0.1009342,0.009857457,0.01434648,-0.08506101,-0.01612459,0.102952,0.1071394,0.01267018,0.04565949,0.08370509,0.08261315,0.0369566,0.08814603,-0.04286971,0.09505013,-0.1181616,0.07453125,0.0368034,-0.09936748,-0.03329787,-0.08034521,0.02404267,0.04293016,-0.04279112,0.08159752,0.03397418,-0.0985375,-0.1207491,0.03306256,0.1101786,0.06535309,-0.03654962,0.02118098,-0.0007452153,0.04117398,-0.1112442,-0.01953026,-0.08094764,0.05276435,0.04125729,-0.05342298,0.04247199,0.1105116,0.07576039,0.02344389,0.0273142,0.05273528,0.09013353,-0.123844,-0.1216055,0.03408094,0.06409148,0.09689344,0.06532768,0.02039343,-0.0420397,0.03939409,-0.03089554,-0.03915342,0.07476782,-0.01241465,0.1058065,-0.02842516,-0.05476756,0.09609065,0.09924232,-0.03941979,-0.07488745,-0.1049727,-0.05490853,-0.0592883,0.06034945,-0.1166437,0.06944908,0.02009797,0.09186886,0.1198247,-0.06236536,-0.06607204,-0.02201829,0.03289211,-0.02165242,0.08477712,0.02119729,-0.05994979,-0.02762879,-0.04065223,-0.1110172,-0.009148031,0.0789024,0.05116392,-0.1070441,-0.06673502,0.01607977,-0.06912402,-0.00214547,-0.06293529,0.03093253,0.08195885,-0.09042154,0.01723463,0.07920882,-0.02669782,0.02853263,0.07459784,-0.1020883,-0.07755999,-0.1178826,-0.09641112,0.09626552,0.04066554,0.08712213,-0.02301455,-0.007303687,0.05103926,0.03163667,0.09962029,0.05987723,0.07054047,-0.02180128,0.1207398,-0.005677984,0.09101288,-0.09627278,0.03670572,-0.1094876,0.08184851,-0.01106983,0.02687297,-0.05071056,-0.09110149,-0.1211029,-0.02965869,0.11909,-0.06909177,-0.02336079,0.1199285,-0.05161578,0.04756065,-0.05833734,0.06804566,-0.03164568,0.05115503,0.1030257,-0.03760221,0.05196152,0.04365603,0.04320955,-0.05550689,0.09422087,-0.009657936,-0.02308088,-0.1226399,0.0481359,0.04625614,0.09983651,-0.03167851,-0.04239392,-0.04846718,-0.05433432
-0.08855227,-0.1149702,0.04827777,-0.1251908,0.09910102,-0.03208916,0.01720226,-0.04424215,0.09333484,-0.1226923,0.0336795,-0.0223373,0.1113435,-0.08037765,-0.06402803,0.0679583,-0.08490086,-0.03023877,-0.005186696,-0.129116,-0.1001381,0.05172043,-0.08708514,-0.06651164,0.07927661,-0.06888264,-0.03655833,-0.1406239,-0.06522148,0.05892444,0.04803026,0.1900467,0.08179621,-0.02455696,0.06722706,0.147365,-0.07591376,-0.06619354,0.00637171,-0.003474025,0.07881108,0.0165008,0.03081018,0.06885152,0.1079909,-0.077426,-0.06318215,0.1151905,-0.09126054,-0.09219267,-0.1326158,-0.01521877,0.03258393,0.02227422,-0.07568768,-0.1376078,-0.1680081,-0.1054675,-0.0007505605,0.01616851,0.01126834,0.1214819,0.1507538,0.0731511,-0.1014395,0.0002068426,0.0599262,0.09745064,0.005874566,0.01317754,-0.01077057,0.0456828,0.05402784,-0.08500871,0.1152757,0.01464687,-0.02457692,-0.1099818,-0.04086694,-0.1272292,0.01287338,0.04819577,-0.05644791,0.07628727,-0.08980619,0.06804978,0.03368438,-0.02000413,0.04201343,-0.0623374,-0.1225819,-0.02250173,0.03336869,0.002861438,-0.1174618,-0.0184761,0.09649871,-0.01871113,0.03981946,-0.01637432,-0.03815152,-0.1137981,0.07485055,0.1027414,0.01270695,-0.1159586,-0.08127314,0.1078962,-0.03206652,0.10468,0.1113218,0.09434895,-0.02675932,0.008571801,-0.01971255,0.08180711,-0.08869323,0.0855777,0.1101562,0.07103306,0.120546,-0.02284521,0.1123533,0.07796698,0.0132745,-0.02947715,0.0788054,-0.06829412,-0.05404358,-0.06172696,0.09938898,0.1117614,-0.07921828,0.03601219,0.06755705,-0.05938718,-0.03552035,-0.02281203,0.003907356,0.009899478,0.1019409,-0.1254804,0.01210205,0.02936204,0.06456216,0.02700721,-0.05029665,0.09179564,0.07179456,-0.07246704,-0.06937799,-0.05825027,-0.01773528,0.04529705,0.06257755,0.09061294,0.05600609,-0.03648064,0.018658,-0.03993104,-0.1761857,-0.1907209,0.06163353,-0.02094136,0.08307313,-0.176717,0.002321586,-0.08971585,0.0493409,-0.007574852,0.0136023,-0.1133469,-0.04682285,0.08062156,0.03692002,-0.1183836,-0.1218347,0.01688131,0.1152505,-0.04307627,-0.100453,0.1030337,0.02649271,0.01588508,-0.0660838,-0.06500716,0.03232379,0.03187947,-0.06375483,0.05738493,0.09605902,-0.0498236,-0.1071633,0.03979632,-0.1218324,0.01307471,0.008152658,-0.01662032,-0.04474688,0.07458037,0.05283167,0.1001728,0.1137674,-0.0689937,-0.04130963,0.02619877,-0.02957368,-0.05671765,-0.07580727,0.04231824,-0.1027056,0.003356606,-0.08285552,0.06909339,0.0128489,0.06272437,0.06809431,0.001766568,-0.08983187,0.139762,0.111658,-0.01848965,-0.03855499,0.122282,-0.0432427,-0.05451956,0.02405825,0.09239859,-0.07422752,0.1487699,0.09851816,-0.03790281,-0.136796,-0.09803814,-0.06695058,-0.1231148,-0.08509917,-0.1182806,0.06125632,0.1504999,0.03788701,0.03612458,-0.08834375,0.01700332,0.05672349,0.08950159,0.09742934,-0.02898232,0.01314016,-0.004470693,0.08813129,0.08354094,-0.1079979,-0.04140317,0.0892057,0.09921344,-0.04102402,-0.07194102,-0.09559574,-0.02350403,-0.07040739,-0.1384236,0.08615641,0.003817227,-0.02252495,-0.07350212,-0.1317199,-0.08392703,0.04769975,0.05828925,-0.02641766,0.08600943,0.01197253,-0.02427177,-0.02774503,-0.02945455,-0.07584193,0.0323824,0.04322257,0.06282017,-0.05559074,0.004237269,0.05279194,-0.1178247,-0.01349046,-0.08877575,0.006526696,-0.108934,-0.1186415,0.07679654,0.09506827,0.03386249,-0.05094849,-0.04720277,-0.06531377,-0.03497088,-0.03223949,0.1068818,-0.04799663,0.03783528,-0.08759389,-0.09713109,0.01049539,-0.0720939,-0.0586272,-0.06011733,0.1453134,0.1105511,0.06730584,-0.1384581,-0.05972449,0.1913531,0.0640631,-0.1126419,0.05978741,0.06734526,0.03871204,-0.1453909,0.04484089,0.05855858,0.1206742,-0.1282477,-0.005738369,0.02005161,-0.1101261,0.145127,0.2047949,0.1407401,0.07531826,-0.09908565,0.1379486,0.1415612,0.06985352,-0.1139336,-0.03286768,0.007151413,-0.08229423,0.01990169,0.03174345,0.135615,0.06659399,-0.01908258,-0.00582432,-0.01160586,-0.04766443,0.03891542,0.009668037,-0.0833417,0.0613501,0.1075796,-0.04887652,-0.04615279,-0.02678335,-0.01540195,0.02937327,0.02904276,0.1098159,0.08599283,-0.0147477,-0.1191929,-0.1149405,0.007388367,-0.0624535,0.0185012,0.1135468,-0.1040801,0.03656702,-0.01766905,-0.05396783,-0.10924,-0.02754406,-0.0995964,0.04839484,-0.0270606,0.07660265,-0.01652362,0.03748984,0.08257013,0.06766213,-0.08537928,-0.08879206,-0.1519594,-0.03274577,-0.0409744,-0.0611384,-0.02487241,0.04337854,-0.07561736,0.1144747,0.05738287,-0.06311437,-0.1080572,-0.08608781,0.06155815,0.04084467,0.06210776,-0.09631258,-0.1245798,-0.06779669,0.07805603
0.0638985,-0.1244959,0.02143191,-0.0446072,-0.09633126,-0.1225915,0.03628616,0.00017163,-0.1358926,0.03309954,-0.09458291,0.02187935,-0.02566528,-0.05561124,-0.06695208,0.04784042,0.07178139,-0.05329645,-0.120702,0.09832621,0.05324662,-0.05899929,-0.09827342,0.02624575,-0.1018557,0.07499415,0.09698153,-0.0230959,0.004748626,0.02989532,0.08186624,0.1127531,-0.004643488,-0.07654742,0.04008806,-0.01389434,0.06158366,-0.1380629,-0.08400073,-0.01046885,0.1064591,0.1076929,0.04676719,-0.03602318,-0.02408565,0.02362121,-0.01497701,-0.1135686,-0.01494201,-0.1155999,-0.03943727,-0.02152214,0.01767924,-0.006927126,0.0131725,-0.04156442,0.0945688,-0.03196851,0.09178109,-0.04643818,-0.01867639,0.03131226,-0.1188542,-0.02184855,-0.02886702,-0.02580891,0.1531249,0.08984003,0.08250261,0.02647985,0.1325449,-0.09409717,0.0809176,-0.04977584,0.09896763,-0.03374464,-0.07348439,-0.1132505,-0.01116848,0.117564,-0.01581118,-0.03319813,-0.1057172,-0.1441367,-0.1265442,0.02703268,0.03609082,0.08979245,-0.0174881,-0.03093266,-0.1301856,0.0687166,-0.09783173,0.07527425,-0.05751187,-0.1488475,-0.08975735,0.02532231,-0.1277869,0.0561558,0.08331629,0.06240913,0.0536088,-0.08146057,-0.07823094,-0.02325128,-0.1096594,0.04774525,0.07651856,0.08776277,-0.0723277,0.07759728,-0.1116266,-0.01561188,-0.109895,-0.0147134,0.007249139,0.02528544,0.1146267,-0.03268556,-0.01136328,0.1165674,-0.119655,-0.08478323,-0.00903012,-0.07035818,0.05059767,0.104076,-0.09258211,-0.1300753,0.002771073,-0.0751894,-0.03308675,-0.1301769,-0.111499,0.08526933,0.07135852,0.0508889,0.05381084,-0.05872815,-0.03584286,-0.03273817,0.006514352,0.02195088,-0.104141,0.07911602,-0.0565749,-0.06384737,-0.02601407,-0.1192276,0.04902717,0.06327371,0.1054161,0.1105917,-0.013805,-0.01777782,0.06484599,0.09282747,-0.04129496,-0.0146769,-0.05569891,-0.03740947,0.05769079,-0.04251923,-0.05880987,-0.1095016,0.08702999,-0.03557665,0.01088947,-0.004273692,0.0002707255,0.04105256,0.0240082,0.1075763,0.06529457,0.006992536,-0.05137353,0.03289601,-0.02788649,-0.102394,0.06546961,-0.03754445,-0.04450522,-0.02249143,-0.1125891,-0.009206986,0.01744719,-0.02487827,0.01726235,0.09730169,-0.003992454,0.03622311,-0.07082895,0.03569013,-0.06681143,0.005313077,-0.01936551,0.03007673,-0.004369468,0.069179,-0.07657218,-0.04564225,0.1073651,0.09720573,0.1054057,-0.08777951,-0.0560577,-0.06084234,0.1392114,0.03769929,-0.08762774,-0.04453072,-0.08917767,0.1151911,0.02886767,0.1657283,0.02086614,-0.01995916,0.005444933,-0.1033359,0.02283427,-0.06859419,-0.07204238,-0.03273058,0.09418622,0.1050244,-0.01872612,0.137203,0.07338253,-0.01359203,-0.1008231,-0.04083174,-0.08540636,0.102224,-0.06319626,-0.04126384,-0.06150031,0.1202137,0.0687514,0.09369405,-0.02634729,0.1009537,0.07890438,0.09314028,-0.05227729,-0.04373502,0.02328886,0.07018636,-0.00554632,0.09577898,-0.04201386,-0.09993248,0.005694386,-0.07108944,0.01736844,0.05389493,0.0665143,0.06290719,-0.05380014,0.02840934,-0.05174234,-0.01997125,-0.0656173,0.07855082,0.006031964,0.0577989,-0.1278284,-0.07922086,-0.02045937,-0.03678951,-0.0124083,0.07693156,0.08530831,-0.1089752,-0.06543281,0.01621141,0.01907117,0.05043672,-0.05426463,-0.07267687,-0.05120953,0.01720165,0.07247409,0.008021446,0.03902374,-0.1215609,-0.006931157,0.08047722,0.07516657,-0.09599508,0.06192225,-0.02704874,0.07197659,-0.05283703,-0.09688292,0.03829668,0.09091872,-0.1182389,0.1111633,-0.08471587,-0.1140542,0.07700455,-0.1104407,0.1071714,-0.07972439,-0.03630808,-0.147378,0.01068089,0.08911434,0.06984562,-0.0738157,-0.04083369,0.1073269,0.0416574,0.01072785,0.107259,0.02654118,-0.1358793,-0.03635532,-0.02220862,0.04984614,-0.1149466,0.07959034,-0.04219655,0.003108096,0.09480818,-0.05512961,0.07871768,-0.06702742,0.03397502,-0.08497904,-0.03953935,-0.009038001,0.006963012,-0.1108729,-0.07650812,-0.06042982,0.005801106,-0.09408622,-0.003138374,0.09417844,0.12101,-0.04801593,-0.1170087,0.1045011,0.1111003,-0.01134656,0.03964052,-0.1407665,-0.06423443,-0.05896951,-0.08290956,0.02929139,0.1035988,-0.04562099,-0.01913319,0.08103578,0.1077585,-0.03718784,-0.08757669,0.07667589,0.05334914,0.04488084,0.1120974,0.009798196,0.1025865,0.07923073,0.07730035,0.03657414,-0.1096264,-0.09660541,0.02923682,-0.00454669,-0.1114188,-0.0505797,0.05052716,-0.06026531,-0.06339256,0.06495126,-0.0009876339,-0.1027126,0.07856415,0.03688024,-0.1240063,0.08773243,-0.1171711,-0.005545569,0.04079429,0.06392074,-0.119051,0.01044807,-0.02386987,-0.04946746,-0.1077385,-0.005632394,-0.08769926,-0.04151579,0.1142028,0.0705593,-0.07293792
-0.03563033,0.05247146,-0.005241056,-0.0308088,-0.06415883,-0.05578796,0.1041203,0.0292866,-0.06667186,0.01344436,-0.03776666,0.04637484,-0.08928254,-0.09712602,0.05026687,0.09089347,-0.01645778,0.1192665,-0.05232947,-0.01110252,0.0997767,0.06911666,-0.07607206,-0.04630899,-0.05550905,-0.1214309,0.06926969,-0.08320744,-0.0420679,0.1013707,0.09813878,0.03330247,0.1449765,0.09734377,0.07214341,0.1019372,0.08653515,0.06134137,0.08551987,0.007951941,0.06961033,-0.1016129,-0.05298212,0.108299,-0.07370228,-0.08665815,0.0628652,0.01128201,-0.07533661,0.03515053,0.1128902,0.07916235,0.1336887,0.02832903,0.09452347,0.03653246,-0.1168603,0.01782482,0.1388853,-0.08576827,-0.01795466,0.02052175,-0.1127932,-0.001445345,0.03780462,-0.1166175,-0.06001027,-0.07125134,-0.09739337,0.112292,0.05684946,0.0617944,0.02833045,0.09704629,0.09892113,0.02120274,-0.0151044,0.08318919,-0.06652414,0.1191841,0.08958184,-0.007954814,-0.01015849,0.06203214,-0.05213607,-0.06697583,-0.08122744,-0.02974193,-0.01386634,-0.0489109,-0.1013997,0.02959807,0.06185374,0.04901521,0.07718292,-0.002375996,0.08172131,0.05067647,-0.055873,-0.06747906,-0.05459196,-0.05881491,-0.01439047,0.03014716,0.07532299,0.01064276,0.04985751,-0.1043802,-0.1152353,-0.07108263,-0.08045676,0.05404174,0.05756661,0.1174142,0.05337775,-0.0464589,-0.01832404,0.06984948,0.06062806,0.06969178,-0.05880595,0.06422373,-0.09715581,0.05105657,0.008789327,-0.0329393,0.085552,0.08328082,-0.06945517,0.06136783,0.06822306,-0.003446412,0.1004791,-0.0312431,0.02119474,0.1161218,-0.1203282,-0.02026278,-0.06655569,-0.05764355,-0.05071041,0.05769664,-0.07090843,0.008232784,-0.1132327,0.1038704,-0.06991943,-0.08902269,-0.06879547,0.02605688,-0.118705,0.005650504,0.05270936,0.01636336,-0.0106987,-0.06144974,0.05572455,-0.002092241,-0.07495265,-0.008198152,-0.1003986,-0.01977701,0.1024457,0.1151569,0.1097107,-0.01406127,-0.07568437,0.09160829,0.08028685,-0.02744158,0.1171016,0.04541906,-0.07577312,0.05814489,0.07064892,0.0647249,-0.04025382,0.02067878,0.108997,-0.06718475,-0.09043412,0.07928948,0.01692564,-0.06178593,0.0004708931,0.01620386,0.07480058,-0.004608643,0.1007392,0.01332439,-0.02927935,-0.05749622,0.07907951,-0.09087192,-0.03346432,-0.112445,-0.06523861,-0.09597763,-0.05782678,0.02936743,0.02753596,0.0554631,0.06129381,0.1060292,0.05408604,-0.08164441,-0.09933567,-0.003135299,0.03556486,0.1060753,-0.09931836,-0.008855817,0.02745836,0.04893449,-0.04124257,-0.02766669,0.08233562,0.03632493,-0.03441704,-0.07308297,-0.05498279,-0.10385,0.08907281,0.05219548,-0.00830038,0.0320537,0.09085657,-0.0540209,-0.07431737,-0.05312712,0.07316088,0.08516475,-0.1118824,-0.06970171,-0.02205784,-0.1063829,-0.1016188,-0.02257162,-0.0472208,0.09411105,-0.08074308,0.04302162,-0.06321932,-0.0495229,0.1230245,-0.1017165,0.1304027,0.04389413,-0.03116255,-0.01344821,0.07079952,0.1205312,-0.01865447,-0.07089534,-0.02300672,0.09023811,-0.1075962,0.1175599,-0.08756564,0.1233332,0.01873241,0.1101663,0.1064574,0.03709016,-0.06430748,-0.06215884,0.04210483,0.09414139,0.1278104,0.01766788,-0.112812,-0.01819751,0.08909601,0.131432,0.087122,-0.02412805,0.1142465,-0.08655947,-0.008851036,0.08629566,0.0327632,-0.03684501,0.000722668,0.048012,-0.04017445,0.0989676,-0.1020423,-8.585285e-05,-0.1028895,0.09879685,0.115244,0.01783638,0.07237442,0.1147494,-0.0161872,-0.1051204,0.0005209509,-0.02215812,0.1097684,0.07641877,-0.01626956,-0.06431448,-0.08843312,-0.05243947,0.0591579,-0.02049289,0.0312127,-0.08881316,-0.006691298,-0.1006612,0.01304003,-0.08064431,-0.07619206,0.02204581,-0.0258327,0.03112772,0.03460932,0.07375095,-0.06505736,-0.1126924,-0.0583354,-0.08240564,-0.01031785,0.04904233,0.02652986,-0.1126508,-0.04629484,0.007893641,0.1207787,-0.07337214,-0.1018818,0.004011683,0.06798845,-0.09491359,-0.1053295,0.02935045,0.09002626,0.03438862,-0.04665596,-0.01792666,0.06527522,-0.0769005,-0.05360093,-0.06812456,-0.02982129,0.0252953,-0.1068293,0.08431248,-0.05891976,-0.1007114,0.07062177,0.07822239,-0.03186855,-0.1135075,-0.06617986,0.09535436,0.03035437,0.04114139,-0.0658939,-0.08005724,0.09576142,-0.08004984,-0.08658973,-0.06544481,0.01510681,0.09355891,-0.1127788,-0.1159669,-0.07448911,-0.1027015,0.02344664,-0.0253516,0.01610231,0.06087814,0.08014901,-0.01539247,-0.05330838,0.00708609,0.01861506,-0.06126842,0.0174501,-0.06170271,0.1097834,-0.04077086,0.03769074,0.01795741,-0.01602619,-0.02564038,0.1071469,0.08802692,-0.09587605,0.01502863,-0.09346429,0.01611837,0.02615842,-0.03038098,-0.03583182,-0.08292479,-0.07359511,-0.07014668
-0.0409819,0.1023004,-0.09916151,0.1183659,-0.01989152,-0.03742717,-0.02664502,0.103311,0.05589856,0.09510766,-0.04030791,-0.00486508,0.0853319,-0.1211397,0.09036229,-0.03521006,-0.01883133,-0.09075416,-0.06079099,-0.04980854,-0.01272278,0.05169335,0.02904363,-0.05713035,-0.02046912,0.08175317,-0.03316549,0.05391845,0.08839427,0.0164889,0.03919138,0.01636622,-0.05960223,0.04792436,0.1062847,-0.1029994,-0.09618009,0.005745218,0.04629092,-0.007821235,-0.009152906,-0.08829679,0.02887289,0.08811107,0.06176951,-0.08760821,0.04032911,0.1117212,-0.08059277,-0.07908029,-0.0680584,-0.1017463,-0.009651614,-0.1115719,0.09301865,-0.08373515,-0.006752938,-0.06978987,-0.0995886,-0.03257969,0.09257274,0.08648818,-0.05391465,0.06366954,-0.07229154,0.009938127,0.007348759,0.1248933,0.1207593,0.04651437,-0.04654611,0.06002979,-0.09712111,-0.001572618,0.004263833,0.1074165,-0.003928365,-0.07819637,-0.07351112,0.03774232,0.02812857,0.05342388,0.02411387,-0.1002485,0.01811019,-0.1191135,0.0577145,0.05295267,-0.09944676,0.03251984,0.0152338,-0.04807809,-0.02172257,0.04991909,-0.01423389,-0.119035,0.01906527,-0.02987879,0.07044306,0.04701052,0.1192389,-0.04249682,0.1117053,-0.02319965,0.06103992,-0.01694125,0.04867008,0.06230276,-0.1026395,-0.1148193,0.02465023,-0.1206036,0.1166432,-0.1159941,0.09397108,-0.1109769,0.001776029,-0.0003104798,-0.09554215,0.1090733,-0.01195419,-0.0543097,0.0997839,-0.009995043,-0.008435288,-0.08218803,-0.03988407,0.10478,-0.07569376,-0.07696453,0.0638391,0.08315675,-0.02411039,-0.04453762,-0.06467572,0.01253848,0.06817314,-0.04245228,-0.0001455475,-0.04329682,-0.01943566,-0.1112611,0.1176837,0.1174173,-0.110351,0.01873625,-0.03901636,0.1196224,-0.06064131,0.02552306,-0.1073229,0.1175369,-0.05577944,-0.05598321,0.03972641,-0.05397801,-0.07843826,-0.07418405,0.04503679,-0.08115242,-0.02306353,-0.06262708,0.03135941,-0.01893106,-0.1174733,-0.008460263,-0.05305647,0.09120335,0.09670251,0.06809985,0.01391217,-0.05305285,0.09928062,-0.1221989,-0.04072912,0.07449237,0.08656967,0.04499626,0.01143582,4.409003e-05,-0.08585206,-0.1127539,0.09444036,-0.05250416,0.04137232,-0.1113146,-0.001660735,-0.05426237,-0.09043031,-0.1000486,-0.1050791,0.1037275,-0.00107838,0.02737579,-0.0736258,0.0506813,-0.1033431,-0.03781341,-0.05569141,0.07417595,-0.01862978,-0.08851677,0.02637572,-0.01536907,0.03247754,-0.05392055,0.06188376,0.03103776,-0.09917213,0.04746025,-0.09711115,-0.01379032,0.1270945,-0.009861951,-0.09619197,-0.1056004,0.0595229,-0.05993917,-0.1154708,-0.08323517,-0.0734522,-0.0847249,0.04900916,-0.00806736,-0.07091089,-0.01272179,-0.0587945,0.09905831,-0.08535771,0.07223374,0.03092298,0.02342859,-0.02842514,0.005814164,0.007175134,0.05571352,-0.09533331,-0.03446313,-0.1259476,0.08411183,-0.02658989,0.05248231,0.04553719,-0.0538293,0.1159929,-0.1243846,0.07128897,0.04648407,-0.08874527,-0.08043338,-0.1003038,-0.05556586,0.02387888,-0.06997775,0.03540163,-0.02022446,0.04387639,-0.02790865,0.01865266,0.001519415,0.05340948,-0.06729387,-0.09176927,-0.09347834,0.0348323,0.115032,0.08414942,-0.03327118,0.05337733,0.038626,0.02628305,-0.07986955,0.06565066,-0.007219223,0.05782025,-0.03134799,-0.02467494,-0.02575898,0.09975784,-0.0384293,0.07078981,-0.01970517,-0.09769676,0.06136936,-0.02197698,0.004919685,0.004716235,-0.1089253,-0.1198276,0.08089422,-0.113173,0.0947547,0.1134821,0.02731976,-0.06082639,0.05941081,0.007247651,0.03062559,0.001246968,-0.06008321,-0.1086737,0.09914442,0.1196757,-0.05422493,0.04063282,-0.1380809,0.01004993,0.08413343,0.003591019,-0.1106219,0.06173677,-0.06877828,-0.09674448,0.08126695,-0.05748268,0.122215,0.08359924,-0.002030526,0.01629778,0.03472926,-0.1382068,-0.02292792,-0.02246357,-0.07060689,-0.1089797,0.07970686,0.008794774,-0.05756972,0.1263742,-0.01001228,0.05347721,-0.09352148,-0.06529496,0.08682612,0.01435682,-0.01884264,0.008421988,0.06980548,0.007729675,0.07344021,-0.02727274,-0.04523749,0.1164535,-0.09368408,0.08113378,-0.05882154,0.01502362,-0.005419884,0.01199999,-0.09540942,0.06832138,0.08796667,-0.1157676,0.1222318,-0.02237119,-0.05695826,0.1034804,-0.03470719,-0.066939,0.04527087,0.08114181,0.07707389,-0.04504318,-0.01041705,0.01486871,0.1089451,-0.09020956,-0.09490751,0.08336878,-0.01419913,-0.06585023,-0.05334932,-0.01501097,0.07177298,-0.1197215,-0.04092887,0.02368035,0.1013843,-0.02114793,0.08569925,-0.02589463,-0.0910719,-0.1022151,0.04757982,-0.03562925,-0.08922704,0.0252551,0.0946487,0.0337969,0.01912765,0.02062768,0.01482695,-0.1286289,0.02674385,0.1068728,0.07498376,-0.02817744,0.07976721,0.0145748,0.07438783
0.02915511,0.02473959,0.1033507,-0.1383425,-0.02359889,-0.108916,0.004234226,-0.06797719,0.09162448,0.04714275,0.0606948,0.03961986,0.06577115,0.04055167,0.02020442,-0.1157481,0.08088274,-0.05258742,-0.001973115,-0.06245577,-0.1240626,0.07073423,-0.01778888,-0.06924864,-0.09104396,0.00756498,-0.0207585,-0.03804151,0.02529513,0.1086375,-0.07109417,-0.1125006,0.1072988,0.160273,-0.1326316,0.1057456,-0.08779012,-0.07224361,0.03585408,-0.01266831,-0.01390769,0.02375603,-0.009594998,0.1168344,-0.03401915,-0.0003777742,0.07881601,0.1030489,0.1186578,0.09516992,0.1040906,0.15191,-0.04280277,-0.08546246,-0.06912444,0.004651244,0.07254209,0.101784,-0.1002378,-0.08770109,-0.05968577,-0.001599728,0.09144623,-0.0433791,0.0727543,-0.1153475,-0.04395771,0.03708268,-0.07513316,0.01806633,-0.007268163,-0.004539685,-0.02564847,0.04474652,0.1012402,0.09973769,0.08866528,-0.03945191,-0.05192675,-0.03055936,0.06310276,0.0589789,-0.1382896,0.03776869,-0.04499055,-0.06893982,-0.0567616,0.05365414,-0.1373002,-0.03906757,0.002565546,-1.945725e-05,-0.1182708,0.05831293,-0.008013322,-0.1273428,-0.1098456,0.05491618,0.03901031,-0.1049259,0.04433252,-0.1112287,-0.01556402,-0.09256878,0.00740413,0.03588199,0.04786586,-0.01746306,-0.03282954,-0.09882327,-0.0748968,-0.01959137,0.09241577,-0.07837254,0.02990379,0.05213324,0.02878912,-0.07224868,-0.05001703,0.1220828,-0.08605796,0.03244739,0.09811621,-0.01185534,0.008016278,-0.04910469,0.07091564,0.08405722,-0.1161879,-0.1057225,-0.05173666,0.01061026,-0.0529642,-0.01582082,0.03426147,0.08671795,-0.03661328,0.08839016,0.0665612,0.09004246,-0.04657755,-0.0720598,-0.1114149,0.02144564,-0.01067043,-0.07374538,0.02813938,-0.09131358,0.002355171,-0.01387048,0.07514995,-0.03444611,0.08845183,-0.1208088,0.06126732,0.05754454,0.1378911,-0.09505305,-0.002895623,0.05083458,-0.08635066,-0.01813344,0.02700561,-0.004670005,-0.08476178,0.04679949,0.01858783,-0.08389108,-0.1075144,-0.02412331,-0.1042566,-0.02655727,0.05779329,-0.09149573,0.01284828,-0.07861826,-0.008584815,0.04830405,-0.1198141,-0.1247115,0.009958928,0.08462155,0.06013945,0.002986956,-0.0885361,-0.01250641,0.03544534,-0.125029,-0.008099244,0.02930331,-0.1360383,0.07033973,-0.1350352,-0.03028922,0.04179938,0.09190936,0.081748,0.01159632,-0.06451697,0.08810043,0.09132769,0.1061533,0.08364707,-0.07124847,-0.03604748,0.01379476,-0.08719014,0.04337177,-0.09909704,-0.07928786,0.0101305,-0.02784579,0.03641045,-0.1261658,-0.0008396261,-0.09911435,-0.08362972,-0.01467112,0.0006986761,0.02000066,0.008362876,-0.0811032,-0.01173064,0.08003359,0.04653097,0.04887341,-0.06985133,-0.0802558,0.003434864,0.04820719,0.1141537,-0.006718664,-0.02983237,-0.03917857,-0.1657299,0.01370855,0.0187622,0.03604017,-0.1190071,0.03982088,0.09653031,-0.0843732,-0.04127469,0.1081257,0.02855571,0.02960139,-0.05809378,-0.07608993,0.1157697,0.07340124,-0.02607763,-0.09482632,-0.06432641,0.05481786,-0.1151982,-0.07897871,0.03140742,0.05528077,0.06047773,0.09301129,-0.00849383,-0.08070857,0.05531099,-0.1454259,0.07429457,0.01335087,-0.07355024,-0.07862784,-0.07522083,-0.05747401,-0.08559112,-0.04699896,0.08489522,-0.1185482,-0.06854066,0.109204,0.01705818,0.0338534,0.01415097,-0.08045434,-0.09737854,0.008577812,0.09109734,-0.1137845,0.07405207,-0.08629769,0.01379671,-0.09115455,0.01859746,-0.1009092,-0.08144473,0.006966833,-0.1052585,-0.03189562,-0.08682819,0.06382207,0.02535673,-0.06008057,0.0253272,0.01455617,-0.1395216,-8.216112e-05,-0.07022267,-0.05498464,0.09031922,-0.06273915,-0.0479483,-0.0956971,-0.06997697,-0.01190289,-0.08723543,-0.1005999,-0.157102,-0.03156631,-0.05714816,-0.1126624,-0.07899062,0.07143252,0.04292889,-0.03431649,0.1025513,0.08803462,0.09120147,0.05004444,-0.09003817,0.08701724,-0.06493489,-0.03050421,0.07386512,-0.06726841,0.0347904,-0.01097514,-0.0818297,0.09027892,0.06597575,0.02053303,-0.05680372,-0.1529013,-0.08957036,-0.03599124,0.08076193,-0.04985544,0.06778383,-0.1125916,-0.02419409,0.01326576,-0.1304508,-0.09333387,-0.01327395,0.1405716,-0.07333484,0.1186409,0.01912036,-0.0526913,-0.1083142,-0.1263121,-0.1113423,0.07171906,0.01134023,-0.109983,0.1125405,-0.008652048,0.0513429,-0.09155816,-0.05407671,0.08377979,0.04185268,0.03428784,0.084266,-0.04498087,-0.06124869,0.05128107,0.05265372,-0.02050797,0.05134939,-0.00118919,0.1380036,0.008182361,0.04987335,-0.1039133,-0.07650536,0.03406795,0.1345244,0.03579601,0.05260476,0.01816885,0.08714285,0.07661716,-0.04027826,-0.02190736,0.09391326,0.1199648,-0.045377,0.1091248,0.0598502,-0.03543276,0.04401668,-0.0853619,-0.0485131,0.06189824
0.06438424,0.1094169,0.1015466,0.06187169,0.02674032,-0.02160692,-0.09499575,0.01604094,-0.0003008973,-0.02550789,0.06530147,-0.008832815,0.03945591,0.0151445,0.1159731,-0.08312,-0.02385957,-0.116033,0.01858927,0.09960026,-0.03491101,0.02769925,0.03561851,0.05782906,-0.04183918,0.1174572,0.08212905,-0.02496718,-0.1348999,-0.03267062,0.1536303,0.01074696,-0.165067,-0.01804409,-0.1056793,0.0802924,0.05829745,0.04047847,0.02085106,-0.06803567,0.192255,-0.1045429,0.002043004,0.0124922,-0.04600775,0.16984,-0.04315017,-0.04955488,-0.07606422,-0.03625778,0.1508899,0.1848093,0.2300491,0.1024,0.03921016,-0.02636946,0.08463544,0.09967574,0.07560075,-0.1092649,-0.1775884,-0.05634412,0.1130389,0.07641444,0.09404348,0.08179428,0.08157582,0.04936666,0.2079636,0.03094968,0.06399128,-0.1965162,-0.03202256,0.0320759,0.06861212,-0.08371207,0.08236265,-0.05444986,-0.08151224,0.06125583,-0.08556049,0.07472923,0.07966566,-0.02495096,0.1152002,0.0714708,0.01383392,0.07445037,-0.1322498,0.006726969,-0.01287465,-0.06225245,0.07969703,-0.05052615,-0.01798677,-0.07699323,-0.03821691,-0.02374142,-0.03729766,0.05330653,-0.05266927,0.06066411,-0.04273264,0.09527113,0.1217151,0.03171887,0.05290783,0.0658608,-0.05761107,-0.1001045,-0.08933002,0.1052555,0.1169232,-0.09788521,0.09810809,0.008285173,-0.09129054,0.1023528,-0.07769071,0.04616391,-0.04849817,0.09324739,0.008289365,0.02269504,-0.03626173,-0.08329597,0.07748791,-0.07927566,0.05693749,-0.03777286,0.005988855,0.01080021,-0.091465,-0.08182205,0.08040863,0.0639445,-0.1026312,-0.1224715,0.06656793,0.07355207,-0.02737154,-0.1180563,-0.01083446,-0.1125525,-0.002930565,0.0007968856,-0.1012056,-0.0518583,-0.06323838,0.07012678,-0.1057381,-0.1319758,0.04371725,-0.01808948,-0.05782852,-0.1154216,-0.02554372,0.005141693,-0.06871556,0.06763885,-0.08113772,0.0980841,-0.09270132,-0.1289222,0.09514743,0.1474999,0.06477752,0.07110662,-0.009235265,0.09206089,-0.05798596,0.02874595,-0.06285353,-0.06657461,-0.03006815,-0.04734355,0.06127524,-0.1176323,-0.05897931,-0.05354475,0.004830964,-0.0009842931,0.02044332,0.04055947,0.035628,0.004763659,0.0873115,-0.1044707,0.1201583,0.01499571,0.0987347,0.01756021,0.08824386,-0.02484559,0.06358965,0.009437947,-0.003727926,-0.07955129,-0.004489017,0.108807,0.104304,0.1419114,0.02565052,0.03127789,-0.04592818,-0.02730314,-0.1041092,0.01223433,0.04635646,0.1246464,-0.02742108,0.002001421,0.02414734,0.1695208,0.1613988,0.06243858,0.02487735,-0.05537035,-0.1067531,0.00966916,0.001731322,0.03829442,-0.117029,-0.1645447,0.04398806,-0.07339693,-0.08241339,-0.03290168,0.0972466,0.003511696,0.09818077,-0.08458228,0.06069966,-0.02175802,0.06545416,0.09656677,0.1241956,-0.01308676,0.05037846,-0.1526204,0.06440049,-0.131852,-0.02851309,-0.07028297,-0.005956738,0.006405292,-0.1026393,-0.0793273,-0.02941588,-0.005106648,0.1185654,0.0436618,0.08628929,-0.02296107,-0.03625664,0.04468926,-0.02838306,-0.04296412,0.004533828,0.08649643,-0.1151488,-0.1035864,-0.02273951,0.009998964,-0.001592191,0.09889175,0.02234337,0.09266362,-0.1102633,0.1069681,0.0300838,0.03987196,-0.05331538,0.05925352,-0.09948371,-0.02819,0.02121366,0.1168297,0.008035494,0.001773436,0.04364562,0.0340665,0.01032535,-0.08416603,0.09275234,0.007022467,-0.02336521,0.1319175,0.04067055,0.1212292,0.03788157,-0.03849058,-0.09913603,0.008227946,0.1233364,0.01841475,-0.03509641,0.1039348,-0.110849,-0.128879,0.03663753,-0.05202618,-0.1820226,-0.08719678,-0.1522428,0.08871834,-0.07407145,0.07441379,0.06339023,0.08218323,0.1969413,0.01757568,0.06759966,0.07239398,0.08068275,0.1073041,0.01867814,0.01261867,0.06278485,0.01098709,0.04445588,-0.0511563,0.1016886,-0.02074669,-0.04985804,0.1856234,0.1264616,-0.03909582,-0.1769877,-0.09072281,0.2573668,0.109976,-0.006969653,0.02743454,-0.1807622,-0.01321792,0.009329598,0.1162858,0.01691668,0.2092663,-0.04034249,0.07724583,0.01180151,-0.05148379,0.1626412,0.03498392,-0.06262629,-0.05914013,-0.0136259,-0.0624264,-0.02580757,0.02432943,-0.07230846,0.05203388,-0.01183526,-0.03690206,-0.01291785,-0.02608977,0.009106483,0.008390427,-0.02438781,-0.1127751,-0.05846056,-0.1219393,0.07425092,0.1173566,-0.04993927,-0.08655524,0.08331475,0.1144174,0.05254501,0.08193849,-0.02332295,-0.07703733,0.09071204,-0.1082316,-0.01528943,0.07717513,0.04423846,0.04565618,-0.06001239,-0.07705548,0.03351902,-0.00676945,0.09328665,-0.05644283,-0.0003865068,-0.05278086,0.05413254,-0.02724656,-0.06936342,0.04955812,-0.09249736,-0.04976548,-0.03178449,-0.006458751,0.02734761,-0.07940171,-0.01590369,-0.08559485
0.1060193,0.02756525,0.07139423,-0.04944784,0.09472318,0.1124362,0.1124606,-0.01796629,0.07524066,-0.01902415,-0.04346615,0.02367049,0.005953973,0.01039066,0.02221896,-0.06400372,-0.03609563,0.01892676,-0.06915536,0.02667687,0.1383982,0.03681503,0.08744851,-0.03067619,0.07700267,-0.04531523,0.1066006,-0.01804669,-0.05593653,-0.04194526,0.02527049,-0.09200731,0.008521698,0.06828424,0.06903294,0.04572912,0.01409899,0.1082709,-0.1146613,-0.01114453,0.1073816,0.05108693,0.0371965,-0.07218858,-0.0517843,0.01389503,-0.1446594,-0.06688856,-0.03067283,0.05317719,-0.07135858,0.01891777,0.09750555,0.09857342,0.07460402,0.1883597,0.05772296,0.06382445,0.2734528,0.06936671,0.1091951,-0.004282289,-0.1723945,0.0003912978,0.01221416,0.01924215,-0.04855422,-0.1060815,-0.1700974,-0.1792561,0.01628646,-0.008612423,-0.02832479,-0.08049414,0.01791434,-0.1023147,0.1284199,0.1040913,0.09307111,-0.04248066,-0.05382155,0.09049847,-0.06774352,0.1211692,-0.07237568,-0.01866433,-0.03765456,0.04552013,-0.02593608,0.02194869,-0.0300683,0.0311073,-0.02972394,0.01712142,0.07547954,-0.004796471,0.06601667,0.03827219,-0.06989519,-0.03218152,0.1021563,-0.08085147,-0.0691233,-0.002789164,0.1226174,0.06561114,-0.02079082,-0.02752289,-0.01387143,0.02319018,-0.04935037,-0.08407029,-0.1196069,0.01024485,-0.1046487,0.07752407,-0.02559718,0.1210528,-0.04023514,-0.06663947,-0.07718904,-0.0347951,-0.005820119,0.09942436,0.07644086,-0.06535357,0.1328172,0.02225924,0.02366068,0.05595604,0.1003163,0.02145945,0.0003058531,-0.01887123,-0.03605035,-0.07223623,0.04989378,0.140977,0.1334585,0.1128373,0.08205475,0.1194283,0.03514684,0.02595128,0.05967115,0.008694446,0.02020753,-0.0319071,0.1071181,0.1170767,0.0753153,0.1406076,0.009313123,-0.02863402,0.08834169,0.0998092,0.04250757,-0.01921065,-0.01799524,0.07989449,-0.1059868,0.04472693,0.1362021,0.1479606,-0.03432292,-0.106286,-0.1198406,0.09688693,-0.06428277,0.04326855,-0.05427614,-0.09433414,-0.09019063,-0.08924849,-0.08597031,-0.03149774,0.06379835,-0.08484873,-0.1028708,-0.03944599,0.05629503,0.04675156,-0.015166,0.001254563,-0.05467537,0.07934999,0.1322113,0.05355863,0.1445299,0.02509996,0.08377583,0.06422051,-0.002996131,0.09203777,0.07778138,-0.07419699,-0.07090915,0.0741648,0.0723716,-0.06802972,0.07172986,-0.0261123,0.1153688,-0.06888195,-0.06100428,-0.03942826,0.003103244,0.09909751,-0.07497729,0.08675029,-0.1059894,-0.03624639,0.03512872,0.05262534,0.02024496,0.01130869,0.02533566,0.07844464,0.02574387,0.129046,-0.1199559,0.1251842,0.03811027,-0.06227356,-0.04079559,0.01231603,0.09906164,-0.03273122,-0.06138033,0.07495429,-0.0742392,0.0554398,-0.0319772,0.1489276,-0.07186804,0.0851761,0.09891339,0.2611423,-0.0978763,0.09568782,-0.05237342,0.02430862,0.1194887,0.02937471,0.07238361,-0.03851259,0.03108609,0.09221943,0.03278571,-0.0207944,-0.04597223,-0.0238023,0.1538222,0.1136322,0.0839261,-0.002792533,0.1238556,-0.08755281,-0.005600233,0.07942492,0.07345906,0.09311414,0.1277646,0.01917284,0.09427469,-0.1038809,0.02548416,0.1357014,0.05792746,0.003620896,0.11297,-0.03938133,0.04833693,-0.06359848,0.1246309,-0.06851249,0.08456789,-0.05837154,-0.07273969,-0.01261798,-0.03524401,0.01093565,0.06714535,-0.00595455,-0.01804787,0.06925218,-0.01911103,-0.007975789,0.01464063,0.06305935,-0.1083672,0.0603158,0.08542111,0.0006208061,-0.111629,-0.02073957,-0.08284148,-0.02304538,-0.05623339,0.02154501,-0.1727093,-0.04496117,-0.07776576,0.08747441,0.1528235,-0.09668691,-0.01504504,0.03480852,0.1247387,0.04345896,0.005997571,-0.04077999,-0.2099398,-0.03775328,-0.1094213,0.08413143,-0.08118422,0.08357326,0.08814114,0.09560379,0.01399699,-0.07995879,-0.1292198,-0.08450645,-0.01080431,-0.08804452,-0.04567773,-0.02495705,0.1928361,-0.04442116,-0.06469429,0.0755891,0.04140776,0.2395878,-0.004114592,0.08382671,-0.06004832,-0.02427148,-0.001303575,0.06407332,-0.04876942,-0.1097397,-0.02009028,0.03537382,0.02099146,0.06450601,-0.04311928,-0.0004678956,-0.09868712,0.03945987,-0.1142098,-0.03448262,-0.009948469,0.09328103,0.09520219,0.07780091,-0.0943532,0.01540809,0.06282873,-0.0823571,-0.08572737,0.107048,0.06775373,0.005985663,-0.04214194,-0.05809272,-0.006152407,0.07720708,0.05079446,0.0393223,0.09399412,-0.03146686,-0.05705205,0.06155471,-0.1118306,-0.08949378,-0.06237867,0.03484187,0.05331864,0.06484376,0.01735308,0.1593604,0.08113317,0.03835195,-0.07922924,0.0376803,0.06188074,-0.09670298,-0.003836167,-0.07410373,0.05805692,0.1077257,-0.001400781,0.1205351,-0.03274032,-0.07269706,-0.1044906,0.03777388,-0.06769786,-0.09690067
-0.1039113,0.1090978,0.1333911,0.073367,0.09849964,0.0559783,-0.02362104,-0.0560854,-0.025045,-0.05323907,-0.08754732,0.05313838,0.03648779,0.05023944,-0.08060133,0.04558832,0.09658352,0.1423864,0.1355258,0.1595207,0.09862365,0.109466,0.1139761,0.003995474,0.1081891,0.03146371,-0.02950453,0.03597976,-0.1045398,0.06300078,-0.1074117,0.007223792,0.09177099,0.01959512,0.03075998,-0.07229021,-0.07335488,-0.03855623,-0.1017603,-0.07708712,0.06897527,0.1644074,-0.1227883,-0.1562443,0.02636729,0.01028407,-0.1137133,-0.001403725,-0.009757459,0.1036164,0.02405024,0.1252867,0.04412242,-0.1336248,-0.1437785,0.07681447,-0.1559426,0.04499651,-0.06963372,0.02471507,0.0370763,0.07757015,0.2018385,-0.04101307,-0.03453702,0.1371253,0.09814381,0.07074155,0.1155999,0.03333584,-0.04373558,-0.07833351,-0.03414309,0.1254501,0.06870189,-0.06572747,0.1535044,0.1328037,-0.06511376,0.08032601,-0.05249858,0.07349341,-0.01995559,0.04725673,0.03045185,0.08989325,-0.03966462,0.07704794,0.1312737,0.08546279,0.003954466,0.08042895,0.1159122,0.003614348,-0.04076424,-0.09100077,0.02975531,0.03790274,0.05482993,0.1204101,0.03644467,0.08115871,-0.02966845,-0.1006466,-0.104768,0.05919589,0.01419911,0.0189233,-0.004838037,0.1038552,-0.0856768,0.03227969,0.01759194,0.05487907,0.04552589,-0.1207657,-0.1193097,0.06401573,0.08990977,0.0009424975,-0.1137367,0.01788718,-0.06614438,-0.04082097,-0.01372904,0.1120304,0.1363476,0.1156762,-0.03796329,-0.06232277,-0.0394631,-0.08666778,-0.02663494,0.09240142,0.05943163,0.07363359,0.01067501,0.1437048,0.04597711,0.04201134,0.08668517,0.1474898,0.008774959,-0.05065211,0.0957909,0.1166685,0.1287283,-0.0113728,0.1063672,0.1128403,0.1002408,0.06639452,-0.06145017,0.02562934,-0.09339353,0.07357685,-0.09629184,0.1255939,-0.07132979,0.01123753,-0.02926718,-0.0508186,0.1062975,-0.1141725,-0.01572925,-0.04582682,-0.09670573,-0.07166255,0.1075839,0.04652127,-0.03926856,-0.02859849,-0.05726722,0.1009689,0.0378961,0.08765964,-0.02395834,-0.07934335,0.09533931,0.07769402,-0.01878749,-0.03548575,-0.02704823,0.1390814,-0.02215252,0.03407294,-0.06557834,0.1423853,0.1302141,0.08850566,0.002383395,-0.08840173,0.08133268,0.09688175,0.01171467,0.03887186,-0.0005498837,0.01665328,0.03991991,0.1440174,0.1251713,0.06439604,-0.06004642,-0.05304538,0.1167946,-0.0259946,0.1048319,-0.01455488,0.06501749,0.1639123,0.1277281,0.06090816,0.0672528,0.03029684,-0.08381698,0.0185209,0.009964144,-0.1326309,-0.1064996,0.1081023,0.05752189,0.05404913,-0.06756531,0.09301282,0.08035304,0.1264895,-0.02023071,0.01953114,0.1071502,0.06618138,0.0606884,0.07387976,0.07942692,0.04070485,0.1207152,0.023793,0.01391633,-0.07574364,0.05041602,0.1076519,0.08137531,0.03031652,-0.1062435,0.027736,-0.01344891,-0.0582762,-0.08704802,0.002405482,0.003703817,-0.02328149,0.1272873,0.05314564,-0.05642727,0.07981529,0.1068783,0.006005002,-0.03611107,0.1123957,0.09978694,0.04847711,0.1042191,0.04737634,0.1249546,0.1483385,-0.02369319,0.0503304,0.1018116,0.06409242,0.01934449,0.07221672,0.1311326,-0.05012162,-0.02164249,0.06981047,0.03386637,-0.07319137,-0.0320995,0.08722167,0.1086038,0.021465,0.1205239,-0.03191411,0.0950028,-0.05789522,-0.05409359,0.07040964,0.04387018,-0.06476357,0.1356123,-0.05938871,0.1020648,-0.08899704,-0.06212589,0.02634167,0.0901004,0.005114945,0.1335846,-0.0521355,0.01416448,-0.08369518,-0.08172109,-0.06071104,0.1182136,0.1226868,0.1175294,-0.05649363,-0.1518397,-0.01262906,0.06160811,0.009003544,0.05231704,0.01484403,0.02883142,-0.05150556,0.02668978,0.02469354,0.008443345,0.08334926,-0.08455916,0.07567701,0.05014848,-0.01365267,-0.01000456,0.01634001,0.1169859,-0.06223849,0.0783672,0.03925378,-0.05001887,0.1171564,-0.1866227,0.01813567,0.08583429,0.04460408,0.05405476,0.004116652,0.2014155,0.06010142,-0.1197833,0.005149674,0.03460344,-0.05022904,0.04054598,-0.0126425,0.07868899,-0.06648745,-0.0399016,-0.1366078,-0.03362559,0.09819149,-0.1038129,-0.03566223,-0.0002051075,-0.05359503,0.009829788,-0.05223434,-0.08855688,-0.02521493,-0.09458907,-0.02457345,-0.02380737,-0.03915076,-0.05151311,0.09719557,0.006682549,-0.07854374,0.07078553,0.1026368,-0.07140371,0.1186116,-0.0793265,0.1271089,-0.1025177,0.01958858,0.01479058,-0.02463544,0.01753717,0.09863633,-0.0734468,0.06885997,0.1191845,-0.04353851,0.1525917,-0.04378963,0.02393429,0.102961,0.06715752,0.1185846,0.03500707,0.005542482,-0.08045826,0.08235306,0.140094,0.09077758,-0.05472425,0.1176779,-0.0953247,-0.0865021,-0.01510458,0.03038019
