-0.1620711,0.1394144,0.03449162,0.2473461,0.0420589,0.1605457,0.00441181,-0.2161629,-0.09874898,0.07572594,-0.01412541,-0.1953102,0.1804894,-0.05381228,-0.200923,0.1151048,-0.06204605,0.1315684,0.05902504,-0.01109299,0.03134143,-0.112953,-0.1508618,0.05466406,0.09623761,0.1198978,0.1906879,0.01561251,-0.1686627,-0.07575892,0.0506297,0.08129266,-0.0567016,0.008615037,-0.1582353,0.1107437,-0.1813671,0.0100633,-0.03516091,-0.1625112,0.2088789,-0.2102914,-0.2153569,-0.2086908,-0.1928344,0.009651726,-0.02344064,-0.1470944,0.1030041,0.1637072,0.1723786,-0.206474,0.05592712,0.1755779,0.1535711,0.1071135,0.02122062,0.05814945,0.06137644,0.104525,0.1610474,-0.06084386,-0.1580042,0.1230712,-0.09676579,0.09307922,-0.1793418,-0.1696916,-0.2033967,0.07932821,0.1309078,-0.04108237,0.04454106,-0.1464833,-0.04491247,0.1269208,-0.1360664,0.1149692,0.1581317,-0.01432121,0.06092348,-0.1033229,0.08838376,-0.03779059,0.1598926,-0.2055959,0.04993158,-0.07017848,-0.000943915,-0.1664688,0.1866591,0.02661561,0.06861233,0.05626899,-0.04534092,-0.1947145,0.0502679,-0.09019495,-0.1902269,-0.02354356,-0.01724515,0.03689355,0.1141514,-0.08591651,-0.1758725,-0.08569535,-0.152285,-0.02518683,0.1083468,-0.05972652,0.02351245,-0.09787977,-0.07082297,0.07608164,-0.1642699,0.1409261,0.06112153,-0.1300287,0.1713419,0.1006846
-0.1060091,0.1414804,-0.1798065,0.05352968,-0.1288424,0.2055766,0.1776282,0.03429667,-0.1256799,-0.10182,0.1130746,-0.03568304,0.08031067,0.1922146,0.1204337,0.2143168,-0.08422145,0.1073078,0.2043505,0.04938187,0.05152198,-0.1612941,0.1438033,0.1834728,0.01060095,-0.02829166,-0.1960536,0.2053839,-0.04611943,0.05263399,0.1955141,-0.07624353,-0.1649601,0.01112187,-0.0006291617,-0.04188798,0.148916,-0.2077598,-0.2018032,0.08325833,-0.169521,-0.1257715,0.05272315,0.03244014,0.1842429,-0.2137115,-0.1937174,-0.1117413,-0.04645535,-0.1852824,-0.1030733,0.12143,-0.03373495,0.06535698,-0.01727317,0.005413604,-0.1093239,0.1564261,0.1929566,0.1569683,-0.04997282,-0.08477534,-0.2064009,-0.03762406,-0.1278962,0.09499719,-0.0942743,-0.1466668,-0.210511,-0.08324219,-0.1534326,0.138306,0.01965382,-0.1965416,0.02595988,-0.07886941,0.1587882,-0.1669286,-0.09209011,-0.171356,-0.06330366,-0.06439652,0.1568347,0.02959865,0.1832611,0.1279946,0.1597535,-0.08349217,0.06256831,0.1830864,0.1397823,-0.06219086,0.07862704,0.1369952,0.1350036,0.09063818,-0.116406,0.008481929,0.1443208,0.09632103,0.0619261,0.1648465,0.01835267,-0.01208111,0.1888044,0.1405177,0.03482017,-0.01108016,-0.2357341,0.2206283,-0.1057389,-0.1034651,-0.07021161,0.06139539,0.171872,-0.1484708,-0.1881744,-0.07115918,0.07498897,0.1042773
-0.1346564,0.1661215,-0.04897614,0.07410801,-0.05961457,0.01588608,0.1288595,0.07590034,0.08180685,-0.2188184,0.1102836,-0.1874492,0.1276111,-0.1908877,-0.04087872,-0.06320534,-0.08608667,-0.222645,0.02558755,-0.03091563,-0.1935336,0.02928367,-0.1409064,0.04658508,0.003223576,0.03038645,0.04853157,-0.21293,-0.01923468,-0.1518316,-0.1772696,0.1100243,-0.1455533,0.1934628,-0.1607818,0.06488195,0.164565,0.1831989,-0.1424731,0.03319426,-0.0935474,0.05153068,0.05246264,0.06256571,-0.1441244,0.1522767,0.01600791,0.01031242,-0.1171445,-0.06147296,-0.1985221,-0.01551514,-0.06101188,0.02421593,0.14085,0.193972,-0.1176862,-0.1318968,0.1619446,-0.006019054,0.1137831,-0.08770283,0.1166516,0.05479252,-0.02055866,-0.04608414,0.02504225,-0.1615282,0.1450992,0.1058627,-0.08484686,0.06148018,-0.1109441,-0.1292804,-0.05365729,-0.04550781,-0.0151625,-0.1404786,0.08768405,-0.1163737,0.02945877,-0.07595202,0.1234974,-0.06554212,-0.07031037,-0.1983456,0.1185779,-0.0285216,0.0005599672,-0.1438771,-0.1186791,-0.1093832,0.0732009,0.07133102,0.07069965,-0.1818534,-0.1174051,0.1759527,-0.08589245,-0.09549686,0.01231725,-0.08001613,-0.1710599,0.04526395,0.08113306,0.04850549,0.1324977,0.05739083,0.01201879,0.1072751,0.1345825,-0.1434543,-0.183361,0.05445906,-0.07191845,-0.07206126,-0.1691949,0.1953008,0.1826406,0.2201209
0.001106099,0.038785,-0.1588698,-0.0736336,-0.2393544,0.00607489,-0.09785853,-0.1379811,-0.1337162,0.01138999,0.09055462,0.1480117,-0.1790724,-0.1806893,-0.2483057,0.05427523,-0.057819,0.04971602,-0.3220224,0.1076473,-0.132741,-0.1944742,0.00837121,-0.1780964,0.02938826,-0.1776939,-0.1445371,-0.07880773,-0.1479548,0.1455602,0.1276646,-0.08121826,-0.02109531,0.04671322,0.06971954,0.2354104,0.1026234,0.04587582,0.1277378,-0.2142621,-0.1753462,0.1684943,-0.1821899,-0.1754522,0.1845006,-0.03556758,-0.001470394,-0.1820962,-0.1024527,0.103531,0.0977771,0.08451876,-0.1053237,0.2059252,-0.1636632,0.2152543,0.08799744,0.2513745,-0.1735297,-0.009054529,0.1141841,0.02780696,-0.2327572,0.1528862,-0.07891158,0.1491444,-0.01872332,-0.1769568,0.1132987,0.16036,0.09584986,-0.08214796,-0.08525671,0.2584479,-0.1210548,0.1136583,-0.004781552,0.02289676,-0.05762039,-0.1781239,-0.0181339,0.1989284,0.105732,0.111043,0.2139208,0.1089724,0.2171203,-0.1403848,0.08764581,-0.009323568,0.1988094,-0.1892806,0.004190245,-0.2262475,-0.1140207,0.02035972,-0.08568408,0.02014552,-0.1196165,0.1541258,-0.0798349,-0.2089177,-0.2033397,0.08996128,-0.2208778,0.1476708,0.13762,0.1447125,-0.1821342,0.1178558,0.05565333,-0.09429494,-0.03487033,-0.1217972,0.1533304,0.1236558,-0.1561179,-0.09597726,-0.1569309,0.09676412
-0.08654017,-0.1076958,-0.01739041,-0.3263415,-0.1715722,0.1535396,0.06284754,-0.2732917,-0.2476916,-0.23724,0.01074807,-0.131835,0.1049739,0.05225283,-0.1312968,0.204404,-0.02764626,-0.01328231,0.1190322,-0.1540508,-0.09105957,-0.01023367,-0.2068565,-0.07747689,-0.149538,-0.2027049,0.08606511,-0.09106254,0.01200246,-0.2992602,-0.2487889,-0.1977207,0.1795875,0.1230201,0.1498836,0.05290668,-0.2425362,-0.03729568,-0.1676173,0.02512049,0.09375801,-0.2837274,0.1432511,0.129174,-0.01281466,-0.1272443,0.1369353,-0.1356272,-0.0004630134,-0.1481261,-0.1327317,0.2044672,0.01239055,-0.03645211,0.1702069,0.04356559,-0.2120567,0.02617759,0.1757212,-0.3174424,-0.1417148,0.04882028,0.1165358,-0.08647183,-0.1173014,-0.02760142,0.2000965,0.04899504,0.03380243,-0.02777111,0.09085032,-0.06096388,0.2146122,-0.1124276,0.06891614,0.1158478,-0.05960405,0.0192474,0.2096593,0.09851072,-0.1512681,0.2131687,0.1147306,0.147616,0.2086326,0.1640134,0.07431471,0.05533387,-0.07098419,-0.1296417,-0.07384001,-0.06191394,0.1296601,-0.1020175,-0.07688881,-0.1276442,-0.1787625,-0.06724758,-0.143218,0.1617281,-0.02011854,-0.07463786,-0.1851768,-0.04215097,0.04250141,-0.08089516,-0.1276378,-0.0903738,-0.1658775,0.1048536,0.03238817,0.2060576,0.02050425,0.1431042,-0.1541114,0.154657,-0.150824,0.2030032,-0.1697971,0.1719445
0.09698082,-0.08446752,-0.1619474,0.1333343,-0.0603035,-0.1732802,-0.157466,-0.1242255,-0.111517,0.02335586,-0.1459876,-0.1871189,-0.2451418,-0.04574181,0.1198426,-0.1857082,0.1380249,-0.1985937,0.02040913,0.1601102,0.07063001,-0.1186842,0.07007426,-0.09583031,-0.01186007,0.02581904,-0.2167097,0.2012906,-0.1318749,0.05678112,-0.1920513,-0.1000778,0.09489891,0.1197241,-0.1480788,-0.2094928,-0.08300012,-0.09909908,0.1605063,-0.2363205,0.1722193,-0.09419361,-0.03371771,0.176543,0.1275203,0.07257993,0.02796434,-0.02280035,-0.08736005,-0.05911989,0.040038,-0.1522242,-0.1844007,0.1384688,-0.06790115,-0.1429886,0.1866736,0.1323736,-0.0778228,0.03299664,-0.09814872,-0.08932079,-0.02739604,0.1219151,0.02669442,-0.1267546,-0.212686,-0.1406985,-0.1094446,0.2175127,-0.1829506,-0.07189747,0.1241263,-0.1393517,-0.1541975,-0.1714961,-0.02746227,-0.2043498,-0.1560037,0.003497097,-0.2064046,0.0808808,0.2015696,0.04037498,-0.1844782,0.04269509,0.1096427,0.2084696,-0.125806,-0.2220417,-0.1234773,-0.1990836,0.05155662,0.003810143,-0.05738837,-0.07172099,-0.1376581,0.1669216,-0.07075343,-0.1421042,0.05816438,0.06380502,-0.09513032,0.1224258,-0.05087917,0.05792505,0.1329237,0.07540341,0.2030605,0.03157876,-0.03190715,0.01122603,-0.2167563,0.03288891,0.165604,0.1577912,-0.005246893,0.125421,-0.09167659,-0.02220338
-0.1733983,-0.1816532,0.04936895,-0.2083266,-0.1885441,-0.1576807,-0.1249855,-0.2558678,0.2164793,0.002435248,0.1493632,-0.2021206,-0.02435795,-0.2187272,0.07877273,-0.2222784,-0.2071599,-0.2071793,-0.1089151,-0.1318618,-0.05321103,0.07684935,0.004222911,0.0888216,-0.08945085,0.1591939,0.08776622,0.0256549,0.06367607,0.04458324,0.1253,-0.1721533,-0.1879037,0.2086869,0.2012296,0.1695675,0.02973794,-0.06261849,0.1717831,-0.1747957,0.1048695,-0.2327528,-0.1794926,0.1671255,0.09043115,0.03659607,-0.1431977,0.07784485,0.0754133,-0.05100879,-0.02691346,0.1571005,0.09125206,0.2036102,0.1593845,-0.03528407,0.006227895,0.09259908,-0.1881742,-0.02856317,-0.1224365,-0.139397,-0.09545309,0.06787533,-0.2158508,-0.08418144,0.2081336,-0.2127447,-0.1670175,-0.1384872,0.016748,-0.2232247,0.1535934,0.1073433,0.1539754,-0.1622179,0.2024084,0.09271192,-0.1279207,-0.1788824,0.1947966,-0.1966307,-0.2164112,0.1710457,0.1788528,0.1248025,0.01193551,0.2171521,-0.130984,-0.197779,0.2382192,0.1403332,0.01499083,-0.1665503,0.003027588,-0.09861749,-0.1695873,-0.1146728,0.01392793,-0.1602127,-0.09795559,-0.1266463,0.009376355,0.129364,-0.002117833,0.1352342,-0.03686924,-0.1537028,0.007475544,-0.1762814,-0.08643954,-0.03340916,0.01763374,0.02291586,-0.192649,0.1699452,0.1037094,-0.07893682,-0.1745407,-0.04689756
-0.1177735,0.02252651,-0.1869425,-0.001914808,-0.04766598,0.03505515,0.07152522,-0.05803007,-0.05523103,-0.05395612,-0.05739241,0.01832313,0.2101891,-0.2014472,-0.05147666,-0.08815577,-0.1154026,0.09212619,0.1504143,-0.04086064,0.1559782,0.1596316,0.189906,-0.01834336,-0.07291102,0.1019918,-0.1193019,0.1554431,-0.07763455,-0.1580021,-0.05839812,-0.1308776,-0.1776746,0.214766,-0.06067884,-0.1521554,-0.03054626,0.09349577,-0.05032562,-0.1292617,0.1257443,0.1160201,-0.08551013,0.1785902,-0.07882509,0.06314997,-0.06986538,0.1173468,0.0276984,0.06409582,-0.2200078,0.2047339,0.04514784,0.05987363,-0.189976,0.008459557,-0.1213588,-0.1486086,0.1380357,-0.004423377,0.05202992,0.03206118,0.1940459,0.2057448,0.1779257,-0.01480997,-0.2146419,-0.1670433,0.1915385,-0.02884306,0.004591704,-0.09410428,0.1354792,0.09615345,-0.1276898,-0.1585457,-0.158766,0.03430087,-0.2194192,-0.1765997,0.02432238,-0.08216493,-0.1674398,-0.1078214,-0.03279934,0.021865,0.03000167,-0.008792908,0.1888248,-0.1191651,0.01962171,0.0353491,-0.1668596,-0.04323031,0.006702315,-0.02055991,0.167887,-0.1383607,-0.1747498,-0.2353282,0.1550453,0.1741373,0.2149698,-0.1924691,-0.160617,-0.1587125,-0.03269568,0.08320397,-0.154262,0.2144937,-0.1464982,0.1037131,-0.05718657,0.0163704,0.1056939,0.1504518,-0.1356575,0.2044877,0.04570566,-0.0552042
-0.09005278,-0.08168402,0.1110751,0.1163723,-0.02959771,-0.1613922,0.07908528,0.06877434,-0.1714102,0.1046658,0.1169702,0.0216384,-0.1992032,0.07299682,0.2008044,-0.006543878,0.1992193,-0.1992264,-0.181535,0.1415782,-0.1820836,0.01298436,-0.1133619,0.1393835,0.1433901,-0.1077113,-0.225105,-0.1678249,0.02197019,-0.2022939,0.1672094,0.2064129,-0.1021465,0.2152022,0.003073838,0.05218424,0.08262028,-0.08694227,0.02641538,0.1637214,0.1111965,0.1497275,-0.164654,0.005247191,-0.005086145,-0.01760718,-0.1472159,-0.06788051,-0.1018794,-0.08837431,0.06076426,-0.03246481,0.2459958,-0.168786,-0.1344997,0.266389,0.0174793,-0.07365128,0.05280037,0.1075261,-0.2226505,-0.04512359,-0.1406263,-0.1083685,-0.08362214,0.1362713,0.1436488,0.02839104,-0.1968398,0.120758,-0.002411254,0.03567199,0.04202455,0.1910482,0.2155283,0.02734918,0.1508293,-0.02571436,-0.00546768,0.1899748,0.2034508,0.07153232,-0.1210273,-0.08649486,0.08770337,-0.1011587,-0.06906113,-0.1034524,-0.1863789,-0.1254834,0.1052174,0.07596131,0.003824937,0.154197,-0.08490472,-0.1512891,-0.1549345,0.1472284,0.1697509,-0.07172236,0.007845371,-0.0833359,0.1069034,-0.2076342,-0.1832938,-0.2124066,0.06792329,-0.2258197,-0.01526994,0.1391965,-0.2621953,-0.02337897,-0.03963515,-0.1333616,-0.03252596,0.0745854,0.06335297,0.1205638,-0.06062721,0.10208
0.1624169,-0.06886472,0.1225947,0.2469869,0.1247285,0.001633394,0.3019054,-0.04286082,0.1112339,-0.1605214,-0.04651221,0.08873549,-0.1557539,0.1539495,0.1565866,0.1794105,0.01124937,-0.01744253,0.2385693,0.02778785,-0.06397793,0.1233027,0.02964882,0.1016299,-0.0847459,0.2272646,0.1103157,-0.1214474,-0.1242593,0.2471088,0.02023355,0.09599157,-0.03689396,0.1748697,-0.0778024,-0.03809173,0.05067884,0.1671818,0.04241142,-0.04142585,0.106342,-0.08229638,-0.05789019,-0.05459388,-0.0363515,-0.1939157,0.2222738,0.06720637,-0.2047555,-0.09642552,0.164037,0.02510349,-0.04388552,-0.08211748,0.06708138,0.2247197,0.03781797,0.1396478,0.1822975,-0.09563671,0.02996428,-0.08004365,0.1014016,0.1040787,-0.1646401,0.2231587,-0.1781564,0.1680665,0.08532643,-0.01394909,0.1209242,-0.08280477,-0.2214637,-0.1878002,0.2235968,-0.1485559,0.05247469,0.05074806,-0.02513125,0.204559,0.04928764,0.1352206,0.06063319,-0.2086496,-0.09506001,0.05829237,0.1058921,-0.124416,-0.2959802,0.09139644,-0.1015415,-0.02959218,0.1266995,0.1685241,0.1711488,0.01782885,-0.02239478,0.08860291,-0.0118099,0.0290444,0.06492665,-0.1710263,0.1871404,0.0158355,0.04115546,-0.02603456,0.1080081,-0.02912381,0.08959766,-0.06977016,0.1234967,0.2525461,0.00488518,0.09602515,-0.04081892,-0.02887418,0.01475231,0.1767344,0.04998758,0.1125823
-0.1391155,0.04502688,-0.05177185,0.09981277,-0.05247068,-0.08364284,-0.2311385,-0.004416313,-0.06026427,0.1022714,-0.08338317,-0.01154173,0.136806,-0.1131953,-0.2211277,-0.03286405,-0.2099536,0.1606063,0.1880909,-0.2605558,-0.280793,-0.01120709,-0.04828477,-0.1221014,-0.1332467,-0.07462126,0.05543113,0.09903222,0.154845,-0.1058767,0.09688789,0.1483763,0.2158372,0.05912944,0.1740896,0.1114693,-0.1592626,-0.136067,-0.07475059,0.09761981,0.1571097,-0.03608749,0.1294038,0.05220911,-0.004473639,-0.01076436,-0.1786882,-0.07098206,-0.2149188,0.2196809,0.03120157,0.16082,0.001626079,-0.2068831,0.2119677,0.147044,0.04980195,-0.131781,-0.09047469,0.1693249,0.1431872,-0.00327068,0.1632391,-0.03092667,0.1433969,-0.05993386,0.1881473,0.1606194,0.09507874,-0.2114451,-0.0606995,0.1761089,0.1606676,0.1805003,0.05366661,-0.06243008,0.2435861,-0.07148606,0.101183,-0.2218677,-0.1088711,0.1191275,-0.009668613,0.09830133,0.1078882,-0.1216915,-0.01332716,0.1629145,0.09932491,-0.2088182,-0.08116942,-0.172658,-0.1564851,0.1657997,0.01638302,0.08422209,-0.1925448,0.07402179,-0.1032932,-0.0812406,0.1971134,-0.07506944,0.1380909,0.1196749,0.2212936,-0.2052,-0.03311689,-0.05037504,-0.1431083,-0.05771884,0.1008849,0.002000385,-0.01904608,0.02553855,0.1938602,0.04236002,0.1544182,-0.1869144,-0.08566787,0.1056957
0.1156004,0.102299,0.0671187,0.05589005,-0.1697477,-0.04919367,-0.1336873,-0.1885662,-0.04385136,-0.1719267,-0.2056677,0.1330118,-0.05206898,0.2195336,-0.06925375,-0.08271163,0.2100563,0.1971519,-0.1555376,-0.2027068,0.01451437,-0.04646454,-0.1020945,-0.0923866,-0.1146135,0.1279734,0.1214648,0.2192277,0.007456175,0.1292551,0.1166172,-0.201465,0.1158525,0.05994787,-0.1144144,0.1922773,0.09062337,0.04898012,0.2049419,-0.1152973,0.2046364,-0.02378235,0.1077078,-0.1015311,-0.001233903,-0.04078386,0.06899883,0.05149174,-0.09379084,-0.1781595,-0.07186463,0.04175445,-0.1170254,-0.205083,0.1970412,0.170446,0.01507377,0.1108459,-0.1804598,0.1461492,0.1434228,0.146587,-0.1027036,0.06816458,0.1346556,0.1829738,0.0683803,-0.2028673,0.06879627,0.01936962,0.108794,-0.03357166,0.1153425,0.1980104,0.09477882,0.02214675,0.138888,-0.1476224,0.07464792,0.1463538,-0.1956978,0.1028535,0.1177267,-0.1525175,-0.2114447,-0.0472943,0.2700574,-0.1242463,0.04818574,0.1768208,-0.02776141,0.08723707,-0.1398201,0.1318631,-0.2045247,-0.1787909,0.152052,0.1875059,-0.1172676,-0.0301977,-0.1028872,0.009542711,-0.07918421,-0.1627483,0.08020492,0.09868773,0.198592,-0.2341642,0.09526917,-0.03870545,-0.02004391,-0.1020154,0.07383857,-0.0837379,0.07675471,-0.01922136,0.2258506,0.09829746,0.08420359,0.1606896
0.1303785,-0.191127,-0.08324825,0.04818347,-0.06353343,-0.2007702,0.04077633,0.08035704,0.103581,-0.03735285,-0.04595954,-0.090186,-0.1547564,0.02450314,-0.007412158,-0.1920299,-0.02547709,-0.1744319,-0.1668817,0.1250979,-0.1067262,0.03315661,-0.08265529,-0.01506624,-0.03634295,0.0918703,-0.04555782,-0.1636367,-0.1245059,0.1491838,0.1103274,0.09135985,0.2007033,0.2044673,-0.06738549,-0.04186542,0.1170801,-0.0422969,0.06648569,-0.2090978,-0.05710098,0.08761386,0.1097143,0.06901975,0.01981227,-0.09656005,0.08098836,-0.07211113,-0.2049069,-0.1641938,0.004689556,-0.02935613,-0.1408847,0.03081715,-0.1846086,0.1521528,-0.1585621,-0.04471325,0.1028155,-0.07025496,0.2068344,0.1254624,-0.09192458,-0.1180481,-0.1725554,-0.1823683,0.1559651,0.04033027,0.1501822,-0.1557437,0.07382725,0.2184569,0.1855025,0.1859187,0.159921,-0.05228509,-0.003941673,-0.169465,0.1100988,0.1202106,-0.04364423,0.02465983,-0.007098796,0.002532808,0.1636424,-0.1939329,-0.1999995,0.04570289,0.06217366,-0.01347948,0.05158783,0.1353287,-0.1736203,-0.1339877,-0.1225561,-0.07900319,-0.04308195,-0.1700201,-0.02567323,0.07121823,-0.1446361,-0.05529825,-0.009017233,0.1070853,-0.1539422,-0.2008938,0.06987568,0.0702734,-0.1156849,0.05367091,-0.141388,-0.1465135,-0.2015405,-0.1259666,-0.2145255,0.09456804,-0.152337,0.03084959,-0.1276646,0.2076614
-0.08359623,-0.06495751,0.1012828,0.04099794,0.134672,0.2279489,0.2208917,0.2415956,0.01864205,0.08829854,-0.1589891,-0.0006736599,-0.1188729,0.0741445,-0.2560009,-0.1908469,0.008721901,-0.0685387,0.1578266,0.1593514,0.1146081,-0.0231829,0.1749501,0.05834601,-0.03491394,-0.1053836,-0.04745633,-0.200701,-0.1610396,0.229946,0.01007965,-0.1038855,0.08743943,0.009407421,0.0217905,0.0940548,-0.110654,0.2241792,0.2086849,0.1932842,0.2131613,-0.1268964,-0.1649459,-0.05451528,-0.02642992,0.02090948,-0.2008404,0.03801912,0.04718624,-0.1116269,0.06368867,-0.01261661,-0.1580168,-0.2699378,-0.04850847,0.2516539,-0.1483424,0.1820069,0.09328462,0.09668322,0.2816583,-0.07770222,-0.1224274,0.1874081,-0.04954918,0.1395411,-0.132088,-0.2591662,0.08911027,-0.03939701,0.06731718,0.08206477,-0.2053464,-0.2266306,-0.2045014,0.01197039,0.1550903,0.1938457,0.08285332,0.1169432,0.1716916,0.2129387,0.0533911,0.15156,-0.07258962,-0.2422391,0.2377942,0.01834907,0.02365977,0.008015253,0.1339234,0.1932378,-0.09477553,-0.1413187,0.1875678,0.12677,-0.004482432,0.2033076,0.04064805,0.01091422,-0.1154946,0.1032406,0.1235695,0.04616573,-0.09324008,0.2088841,-0.07450885,0.05022195,-0.1390086,0.1209747,-0.1590787,-0.1401671,-0.1437621,0.1987376,0.009545811,-0.01679524,0.1648846,0.1392547,0.1610671,0.1566406
-0.04230201,0.0847956,-0.1374334,-0.05984623,0.1691353,0.1183318,0.06422539,-0.2449554,-0.01125201,-0.05890956,0.1216504,0.06161266,0.1014728,0.1664789,0.1843869,-0.06383166,-0.09341756,-0.1268549,-0.01973698,-0.205769,-0.2073428,0.06165262,0.01922518,-0.1380632,-0.1301434,0.0866938,0.2250789,0.03309297,-0.08974525,0.01808248,-0.0837768,-0.03686251,0.1057336,-0.08006933,0.1026811,0.1220623,-0.09697324,0.08066334,0.1022457,-0.1963635,0.0846378,0.1818597,0.02584691,-0.068436,0.1491835,0.1212501,0.0661044,-0.09488187,-0.2098318,-0.2528131,-0.09043636,-0.1523836,0.2351735,0.2089525,0.04561586,-0.1865294,-0.1347241,0.1971806,0.09565787,0.1236846,0.1107436,0.03043984,-0.004754434,0.0911339,-0.08829096,-0.2092599,-0.1886007,0.112982,0.1768164,0.1640019,-0.02070146,0.02690142,0.1450378,-0.1375843,-0.2275305,-0.0853034,-0.1348401,0.1220805,-0.1952653,0.1726279,-0.2511397,-0.04508267,0.1598553,0.1452556,0.2136889,-0.1283697,0.0972356,-0.1099115,0.12174,-0.01696956,0.1460051,-0.05329992,0.17049,-0.17284,-0.2100656,-0.178559,0.03582,-0.03027471,-0.1384986,-0.1489199,-0.06696847,0.1465519,-0.09270594,-0.1132346,-0.2059078,-0.2908245,-0.01154389,-0.03748877,-0.09459718,-0.1996433,0.1134577,-0.1336007,0.02893898,-0.1158193,-0.06332541,0.1803946,-0.0202632,0.154103,0.1399059,0.1186442
-0.02244864,-0.06171608,-0.06931932,-0.08666578,-0.0279134,-0.05037756,-0.088099,0.01981323,-0.1100662,-0.04661518,0.2021246,-0.198128,-0.03717615,-0.2176265,-0.06277329,-0.06629965,-0.05593772,0.02635202,-0.03589598,0.0577158,-0.186875,-0.06962158,-0.1794011,0.2043334,-0.09652442,-0.06967076,-0.07101396,-0.1206227,-0.0115421,-0.1321639,-0.05645521,-0.2003106,-0.0356095,-0.1681887,0.1794905,0.0376897,0.02184595,-0.1184152,0.1382739,0.1806323,0.1881097,-0.1772668,-0.002526224,0.05555128,-0.1730023,-0.06457077,-0.02587211,-0.1015405,0.01853374,-0.003104846,-0.1944215,0.1568321,0.2082669,0.009324674,-0.1779143,-0.08451176,-0.1040403,-0.03847442,-0.1494286,-0.08163983,-0.03867589,0.01658428,-0.1884928,-0.1562156,-0.1692201,0.09887457,-0.166954,-0.197787,-0.1225133,0.06577755,0.09770103,-0.07417491,0.106528,-0.1380554,0.07623912,0.2040311,-0.001593682,0.1729462,-0.09854867,0.1799633,-0.1290845,-0.1647962,0.0319837,0.1304693,-0.1528607,0.1656833,0.1798338,0.224267,0.1773615,0.07523897,-0.07586953,0.1499825,-0.0895851,-0.01051855,0.01907719,0.07883104,0.06911572,-0.006383922,-0.07801073,-0.02025148,-0.1865377,-0.004021998,-0.1891758,0.1608119,0.08340514,-0.1865427,-0.004313544,-0.1240649,0.04008086,0.05646605,0.1042722,0.003664636,0.2191774,0.1017594,-0.01547013,-0.2197654,-0.2088607,-0.2234063,0.1192259,0.1356313
0.1728563,0.1289615,-0.08068527,0.1179982,-0.1484949,0.002441584,0.05370578,-0.1436051,-0.1215233,-0.1373674,0.1672906,0.07533131,0.201362,0.1449286,-0.00461426,0.2393242,0.1757689,-0.2109915,-0.06291007,0.1948525,-0.125599,0.05143394,0.1569232,-0.1171224,-0.065496,-0.1277146,-0.01588103,-0.08232421,-0.04118462,0.1563627,0.04707099,0.1641644,-0.1661191,-0.01775411,-0.1096189,0.1592514,0.05754435,-0.1341848,0.1600006,0.03183433,0.1214462,0.1783335,0.1542933,-0.2414294,-0.1649062,-0.1857622,0.1907042,0.1539376,-0.03019933,0.0826316,0.1486662,0.1900791,0.1552075,0.1821598,0.1700367,0.04073487,0.1544523,-0.04156918,0.06763986,-0.1432405,0.1183014,0.04062255,-0.097087,0.06989836,-0.06474578,0.02912733,0.02298791,-0.02864998,-0.04792749,-0.1731419,0.09658588,0.2005147,-0.1910442,0.1687369,-0.04878317,-0.01639271,-0.2118567,-0.07842556,-0.1897106,-0.1240563,-0.06286905,-0.1080213,-0.02906114,-0.003445827,-0.09640525,-0.01523265,0.08000458,0.1846001,-0.04832403,-0.0877692,0.1079284,0.04032535,0.1908092,0.04078439,-0.1997236,-0.07093947,0.03878424,0.08718604,-0.05596632,0.08421608,-0.09211636,0.03490791,0.1010647,-0.06851564,-0.1656903,0.05283903,0.1705292,0.18084,-0.2154174,0.131975,-0.1613027,-0.1760563,-0.05430456,0.1368437,0.2531841,0.1526511,0.03838326,0.03184213,0.1603858,0.1111449
0.06527393,0.03873694,-0.01788459,0.2132111,0.02242434,-0.2270776,-0.2028405,0.1298154,-0.1282608,0.08540113,-0.1949283,0.1009728,-0.1939658,0.1846313,-0.08376241,0.2494675,0.09743175,0.02065767,-0.05640774,0.07762258,0.1001927,0.3127273,-0.2363665,-0.09719668,0.1332722,0.11722,-0.08584774,0.1668587,-0.1135924,-0.2084937,-0.06931458,0.1187521,0.1983152,-0.1589364,-0.01748413,-0.07906672,0.2325978,0.1706721,0.07002167,-0.163803,0.04054751,-0.1532243,-0.1953471,-0.05930782,0.1779783,0.1642236,0.1785379,-0.2062736,-0.1338841,-0.02570292,0.2247553,-0.07928985,-0.1690022,0.213874,0.006549968,0.2645509,-0.01500446,0.02224092,0.01424057,-0.1563054,-0.1459846,-0.1624379,0.1709083,0.01742673,-0.1583979,-0.01354566,0.1231147,0.2151223,0.1037372,-0.2036358,-0.05754099,0.19873,0.1834383,0.103344,-0.04088226,-0.09551673,0.06974085,0.2534407,-0.01603251,0.08694176,0.02289333,0.1029967,-0.06826366,0.3294251,0.106761,0.404985,-0.1931124,-0.007806986,0.04301417,-0.119761,0.1555545,-0.1262053,0.07189696,0.001941678,-0.1355806,-0.03398827,0.1324351,-0.04943519,0.2062902,0.0335292,-0.1899149,0.1423069,-0.2138139,-0.1882798,-0.2213786,0.2386062,0.06950822,0.2096512,0.03063008,0.06439718,-0.07706579,-0.1109363,-0.01089305,-0.01445764,-0.05838395,-0.05515239,-0.2002622,-0.144496,0.2261318,0.2212968
-0.03488898,-0.003171936,0.174742,-0.1226064,-0.2044968,0.0585806,0.01126156,-0.1992724,0.1621643,-0.2109579,-0.01510943,-0.07642731,-0.2154045,-0.03046122,-0.2267884,-0.01380932,-0.1207486,-0.1854588,0.1163066,-0.2169586,0.1568474,0.1043217,-0.01602081,-0.01248615,-0.1849449,0.03531103,0.01749094,-0.1470117,0.1609351,0.0389425,0.1647753,0.1879398,-0.05432273,-0.002767138,0.2001991,0.04402945,-0.09041695,-0.1202013,0.06295153,0.2127062,-0.1573945,-0.1742213,-0.1902265,0.1100484,-0.2120681,-0.1034281,-0.1647768,-0.1137308,0.1456948,0.08074619,0.09056,0.2125399,-0.06215448,-0.05472892,-0.1387227,-0.06733985,0.06931016,-0.0008817764,0.09681599,-0.02603376,0.1878093,0.1669616,-0.1156708,0.05269744,-0.08426635,-0.1927388,-0.1227446,-0.1447522,0.219201,-0.08550832,0.06908406,-0.135097,0.08102721,-0.05260142,-0.215827,0.2022119,0.03144303,0.1501127,-0.1153263,0.1122416,-0.003882147,-0.05749451,0.1129539,-0.04129036,0.112467,0.1257446,-0.150289,0.2122588,-0.06270456,-0.09843846,-0.1990698,0.03204807,-0.1138571,0.1980499,-0.1951754,-0.2119314,0.03709197,-0.1182891,0.0311214,-0.1163812,-0.1391869,-0.1168617,-0.03468895,-0.1699968,0.1458955,-0.10842,-0.1194603,-0.04360469,0.1558631,0.09897367,-0.09763359,-0.03732013,-0.1031262,0.07897618,-0.1908008,0.04035633,-0.1453044,0.08434465,0.01540242,-0.009735177
-0.1397916,0.1827909,-0.02342251,-0.3005495,0.03277901,-0.1951401,-0.1257679,-0.00487527,-0.1596528,0.09862476,-0.2158125,0.1287604,0.06520072,0.2089934,-0.07171535,-0.1263477,-0.2256037,-0.1226556,0.1351212,0.04327876,-0.1636729,-0.1106966,-0.1974617,0.1676202,-0.1547258,-0.03017219,-0.2525608,-0.1559061,0.1812616,0.1642538,0.1013043,-0.07572063,0.1175851,0.1683767,-0.05148141,-0.0006363553,0.1853154,0.1166601,0.1996403,0.05051596,-0.192064,-0.05669185,-0.1698555,0.002900284,-0.02035141,0.1575448,0.04293137,0.05836076,-0.1117,-0.1929169,-0.1636308,0.08200269,-0.05048802,0.03937947,0.1535034,0.1455835,0.0330069,-0.1369257,-0.07409868,0.02220332,-0.1834704,0.01097275,-0.1573961,-0.002833553,-0.09482642,0.1101584,0.1977485,0.2272283,0.02331669,-0.09592939,0.148994,0.1517774,0.06993981,0.02707657,0.08222991,0.05440103,-0.1498601,0.1708485,0.04071432,-0.04956711,0.1094815,0.2168852,-0.1782097,-0.0344313,0.2025769,0.06839687,-0.1131124,0.1545344,0.1599412,-0.07099012,-0.2320764,-0.04434747,0.07822005,-0.2354019,0.1369882,0.1133027,-0.1672558,0.05697113,-0.2075704,-0.237696,-0.08249742,0.05016845,0.05670946,0.05689915,-0.00504713,-0.2639281,0.0008022935,0.03042956,-0.08444656,-0.01810239,-0.002444466,0.1873111,-0.2562402,0.1373563,0.1184635,0.02705096,0.1310543,-0.1601141,-0.1902848,-0.09342468
0.236908,0.09308055,0.149693,-0.03071897,-0.06135319,0.05784194,-0.001033656,0.08166715,-0.197932,-0.08329521,-0.205542,-0.0187666,0.06323783,0.2231274,-0.1687978,-0.0160396,0.1128802,-0.2003537,-0.1071761,-0.0499168,-0.157853,0.05941923,-0.01478969,0.206276,0.0715028,-0.2106762,0.07341135,0.09205231,0.05048987,0.2202074,-0.1052106,-0.04300307,-0.1222341,-0.1209177,-0.07810806,0.2786823,0.1655178,-0.007799823,-0.05359713,-0.234118,-0.09589712,0.07589491,-0.01658307,0.1685877,-0.02649392,0.1507565,0.1216489,0.1599659,-0.2157886,0.1087237,-0.1958283,-0.1350112,0.1147894,-0.1781791,0.1191628,0.1812066,0.14039,-0.1593377,0.167903,0.02003319,-0.01025046,-0.08040477,0.1262874,-0.09086818,-0.09476636,-0.04400522,0.03198703,0.07230702,-0.2350309,-0.1355747,0.0174158,-0.2222338,-0.03592955,-0.001154428,-0.1135418,0.151057,0.1650774,0.04786982,-0.1457854,-0.1159513,0.2238159,0.03418599,-0.01495614,-0.1329656,-0.04791063,-0.101269,0.03278713,-0.1193958,0.01573237,0.07753987,0.1711036,0.1440012,-0.0343737,-0.08834434,-0.2336456,-0.2069818,-0.05126476,0.1942082,0.06774628,0.1293378,-0.177641,0.07692547,-0.1226027,-0.09106556,0.2157404,0.2624705,0.06011992,0.03658612,0.1361606,-0.00572264,0.09029724,-0.2262632,-0.03683536,-0.05098611,-0.03609841,0.2315743,-0.1779477,-0.1227862,0.05664442,0.2478369
-0.1770541,-0.1057665,0.0164638,-0.1640324,0.2066543,-0.09357324,0.1551188,-0.04366843,0.01607341,-0.01680426,0.07580785,-0.04132336,0.05461902,0.09066652,0.04462101,-0.08612514,-0.01566232,0.03522303,-0.04548365,-0.1376817,0.1115019,-0.1225276,0.1216317,-0.1794241,-0.1121122,0.1101128,-0.1867027,-0.003098024,0.0580935,-0.1917197,0.1763821,0.06467176,0.08546552,0.04040913,0.1282018,0.02116025,-0.1581096,-0.1618446,-0.1548569,0.1733897,-0.1893519,0.1053851,-0.09811778,0.145767,0.06024307,0.04793912,-0.1582444,0.1769823,-0.1045157,0.01878099,-0.1426068,-0.1989018,-0.06236,0.1922053,-0.1064583,0.123732,0.02893096,-0.1386816,-0.09688,0.1875205,-0.08844893,0.1308024,-0.1175637,0.01973912,0.02500847,-0.03991352,-0.2245393,0.01708266,0.1911518,-0.2198129,-0.03142692,-0.01665878,-0.05866268,-0.1644876,0.1406099,0.2293333,0.001888845,0.1858245,0.1621899,-0.1670121,-0.06816121,0.01696218,0.05686841,-0.2018729,0.02698305,0.06706164,0.2158392,-0.08851428,0.02161984,-0.196747,0.1503697,-0.065405,-0.01468336,0.1912091,0.1729378,0.1406109,0.1843981,-0.04538488,-0.152936,-0.1652836,-0.06606528,-0.04232295,0.04968439,-0.2017979,-0.211794,-0.02083163,0.0638753,-0.1820556,-0.1530062,-0.01824014,-0.1029463,0.1313681,-0.189035,-0.002745283,0.09121482,0.2084374,-0.1057247,-0.199717,-0.002499005,0.2000681
-0.228285,-0.1257774,0.1120102,0.06209861,-0.002005883,-0.1094501,-0.03942732,-0.2751285,-0.2952786,-0.2063301,0.01615177,-0.09493171,-0.1003459,0.05723967,0.1436886,0.1312603,0.02486798,-0.1438158,0.05080508,-0.191286,-0.07666762,-0.2589023,-0.09671708,-0.1556586,0.139845,-0.1283031,0.1136181,0.06518088,0.08005667,0.1001563,0.1346062,0.1040303,0.1278241,-0.00962553,0.1327008,0.1788312,-0.02493441,0.1436836,0.1581779,0.1363199,-0.2193716,-0.05722784,-0.07469668,-0.2117674,-0.2012486,-0.05673175,0.05290826,-0.1478229,-0.1403328,0.0639831,-0.09333234,0.002266739,0.04680938,0.09929175,0.08244195,-0.1097621,-0.05552103,0.1546509,-0.05461659,0.003473296,-0.09129183,0.1575912,-0.138696,0.122928,0.01249512,-0.1406658,-0.01074659,0.110974,-0.1462265,-0.2211209,-0.1724244,-0.214973,0.1692137,0.1678911,-0.1235285,0.1475095,-0.08611257,0.1192472,-0.03692636,-0.1313926,0.1768636,0.1471354,0.02870984,-0.09970029,0.09854747,0.1334223,-0.02870763,0.01724677,-0.1372938,0.02202561,-0.1030736,-0.09393208,0.1578039,0.01842302,0.07709669,-0.08282769,0.1183136,-0.07175887,-0.1007892,-0.05114499,-0.2034527,-0.163808,-0.2033538,-0.2065999,0.07138254,-0.1806506,-0.2416111,-0.3064278,0.1609658,0.05049509,-0.01254239,-0.2379878,-0.03690981,0.1419611,0.066233,-0.1224507,0.1087535,-0.07633077,0.04221986,0.02612827
-0.05704388,-0.0345195,0.2093094,-0.01411345,-0.2650161,0.07408133,0.01599951,-0.3119982,-0.09628087,0.02549531,-0.01595499,0.1719119,0.0939456,0.100735,-0.05604856,0.03138143,-0.1131665,-0.03143437,-0.2392652,-0.2414062,0.06145626,-0.3164987,0.1231427,-0.08144219,-0.04116942,0.05890722,-0.2711862,0.03046716,0.1678051,-0.08414127,-0.1010413,0.09767891,0.07070968,0.1775829,0.0566581,0.1421746,0.1700036,-0.1493158,-0.02212411,0.05865531,0.01483957,-0.1109801,-0.2244797,0.05093609,0.08353553,0.2159683,0.05267636,-0.03146372,0.1494401,0.09748422,0.1585456,-0.1760777,-0.01200803,-0.003017705,0.1925474,-0.1398384,-0.08881385,-0.08432383,0.05788108,-0.0467767,-0.003138106,-0.1925036,0.1921103,0.009116159,-0.1631345,-0.2111319,0.007575038,0.06016393,0.1392669,0.1643961,-0.1317854,-0.2094342,-0.2025911,0.06364641,-0.07222462,-0.1998479,-0.09706455,-0.08597513,-0.1774784,0.168173,0.1729806,0.129534,-0.01616913,0.1245891,0.1868096,-0.2319761,-0.2173888,-0.1124989,0.05123264,0.008823439,0.06371045,-0.2053493,-0.03396373,-0.2524551,0.08140043,-0.1045632,-0.07310066,0.03125213,-0.2295122,0.09497233,0.1285583,-0.04366741,0.04106761,-0.05491956,0.190255,-0.07164347,0.1305446,0.07285377,0.1297066,-0.07544185,-0.2430021,0.02785841,-0.2138517,0.1572536,0.009778532,-0.197094,0.07967728,-0.1497882,-0.1228723,0.09345157
-0.1229176,-0.1103684,0.1917875,-0.02617885,0.1088861,0.177059,-0.06253371,-0.1598489,-0.2666693,-0.001578463,-0.1760682,0.187322,-0.2306831,0.1477182,0.1521834,0.05651592,-0.06110161,0.1002354,0.04192431,-0.09810099,-0.2064164,-0.1041849,-0.1563772,0.09748204,-0.1417113,-0.08647931,-0.2325872,-0.06013477,-0.1445265,0.06012088,-0.1213394,-0.1692984,0.1880486,0.1693746,-0.08110189,-0.2035715,0.005908102,0.1642809,0.001004916,0.103125,0.1438597,0.1575956,0.09668849,0.1922089,0.01462569,-0.2115318,0.1867377,-0.04586172,-0.06049098,0.09276905,-0.1934279,0.1840618,-0.07209224,0.2048142,0.09864184,0.0424923,-0.08432083,-0.2100557,-0.003046223,0.1631371,0.07990965,0.03496797,-0.04372268,0.08682863,-0.05882825,0.1520355,-0.1097408,-0.01247877,0.1125065,0.1360892,-0.09245667,0.2186922,0.0001667764,0.01377098,-0.08685586,-0.01881805,0.1372373,0.1262485,-0.1288677,0.03928636,0.06770857,-0.07773397,0.1729472,0.1906871,-0.1224227,-0.03408676,-0.02881825,0.1603772,-0.1403208,0.1593854,-0.1362118,-0.2276442,0.004091012,-0.1080689,-0.1943553,0.02537998,-0.07519045,0.06720292,0.1056611,0.02103578,0.09812682,-0.1078584,-0.2001092,0.2003099,-0.1595263,-0.02623007,-0.05752363,-0.2081164,0.1575039,0.1170451,-0.1982478,0.04578187,-0.01640454,0.154053,-0.08783302,-0.1469584,-0.1974891,0.1739632,-0.1090268,0.1558026
-0.2119155,-0.132184,-0.1464869,-0.07924464,-0.1781971,0.1177403,-0.0003761183,-0.1350948,-0.101825,-0.05843981,0.1069834,0.01938301,-0.1392076,-0.1755245,-0.1233688,-0.140117,-0.1887328,-0.09093568,-0.1726281,-0.02420208,-0.3232211,-0.1006504,0.2219277,-0.03803002,-0.07754206,-0.2994519,-0.04395524,0.06937932,-0.01428459,-0.08386809,0.05174106,-0.09512975,-0.1706728,0.1949477,0.03212781,-0.2757736,-0.05404241,-0.08143906,0.08844934,-0.06228374,-0.04679166,0.07753304,0.07867419,0.1565051,-0.1622343,0.1536985,-0.2212733,-0.09665819,-0.1184836,0.1327492,-0.1099611,-0.07855603,-0.02349974,0.184876,-0.05445284,0.09755914,-0.05434617,-0.06074172,-0.1880288,-0.005528699,-0.2315411,-0.1371318,-0.06282002,0.1659809,-0.2606035,0.003994308,0.05123378,0.1222351,-0.1760323,-0.2384934,-0.1423262,-0.04770514,0.1714667,-0.2157314,-0.2019036,0.002106375,0.1279437,-0.225567,0.07688017,-0.1929507,0.04128343,0.1896592,0.08179967,-0.1639015,0.05800194,0.02362725,-0.1363111,-0.1061554,-0.1660522,0.04443476,-0.01425778,0.2018785,-0.05031885,-0.1384232,0.1171642,0.1608043,-0.06125564,0.08386154,-0.04443114,-0.001953361,-0.02494741,0.1118821,-0.1102937,0.1756569,-0.2711238,0.1325206,-0.09885227,0.03258241,-0.03590741,-0.1311055,-0.07918489,-0.001090933,0.1511221,-0.1579867,0.1043554,0.1556152,-0.1091484,-0.1230614,-0.0258265,0.009968971
0.05434331,-0.147232,0.1525359,-0.1455883,-0.01965859,0.1090851,0.1105902,0.09316742,-0.05367946,0.002959745,0.2045771,0.07376981,0.1287855,-0.09899932,-0.0519208,-0.1529578,-0.1026036,-0.09403699,-0.2230987,0.05304059,-0.1200513,-0.1845025,-0.1022798,-0.07825785,0.1316669,0.1282968,-0.05437402,0.008746048,-0.04959116,-0.1517638,-0.1215792,0.1777453,-0.03630253,-0.1006246,-0.1046876,-0.1332548,-0.05017276,-0.1998763,0.1066544,-0.1400015,0.08033131,0.0537993,-0.1730168,0.1885424,0.07012492,-0.188497,0.1156611,-0.09262002,-0.04291217,0.09781241,0.03782134,-0.02798158,-0.1001638,-0.1528754,-0.1261263,-0.1007354,-0.1084362,-0.1408194,0.07907292,0.1706581,-0.03802127,-0.1265825,-0.1324806,-0.07800408,-0.0140827,-0.1304704,-0.1680274,-0.01711479,-0.2014642,-0.1333136,-0.1051528,0.2115598,0.002729548,-0.1788636,-0.01122225,-0.1644939,-0.1092045,0.08388688,0.06206746,0.02153383,-0.1157949,-0.1969713,-0.1321954,-0.0004381328,0.02300716,0.1085452,-0.1688969,0.09698294,0.06666825,0.1291297,-0.006490402,-0.1213669,-0.1185942,-0.1345678,-0.08274188,0.2165305,-0.205462,-0.02097316,-0.0492007,-0.2142264,0.2048035,-0.03496861,0.1027928,-0.1646541,0.1624736,-0.2214182,0.04392072,-0.1949519,-0.04237356,0.0112354,0.02739533,-0.1275042,0.1369866,-0.08539932,0.0466302,0.1841362,-0.08835489,0.1613705,-0.08822458,-0.191316
-0.03321227,-0.1655687,0.1886523,0.1738365,0.1605468,0.1531148,-0.03988957,0.08504911,-0.2409425,-0.2212527,0.135863,-0.02310603,0.1719437,-0.06827689,0.1769135,-0.1972028,-0.0341439,0.04709618,0.19044,-0.07875391,0.05017794,-0.310887,0.1032114,-0.0122391,-0.03283178,-0.1152686,0.05215301,-0.1776027,0.1413961,0.01239189,-0.1683361,-0.03468496,0.08789335,-0.00281049,-0.02645722,-0.04524766,0.1712157,-0.1809122,-0.03127223,-0.1425961,0.18345,-0.0948536,0.1668852,0.03182454,-0.1009518,-0.1682702,0.1733316,0.05325381,0.1117965,-0.09171034,0.03057245,-0.1214314,0.05658234,-0.05719091,-0.156673,-0.02359356,-0.05908205,-0.2148697,0.1284967,-0.07870328,-0.09443508,0.1780215,0.194064,0.1155152,0.05074291,0.06422143,-0.05800143,-0.2365717,-0.05609596,-0.01430333,0.07061229,-0.004543151,0.165988,0.00975847,0.02856762,0.06326722,0.01777426,-0.0730305,-0.1107047,0.08820803,0.01134605,-0.0949711,0.1344655,0.06362916,0.1495806,-0.002845504,0.02824008,-0.05169092,-0.04410792,-0.03033451,0.07839145,0.1592684,-0.2186568,-0.006810106,-0.08071371,-0.2164235,-0.108401,-0.03800167,-0.2160645,-0.06699649,0.1112987,0.08167652,0.09350909,0.09008934,0.1015279,0.1219596,-0.1803761,-0.2117296,-0.2176189,0.01028436,-0.01242576,-0.221881,-0.1387621,-0.2133764,-0.1204704,0.1564432,0.01328028,-0.05449443,-0.06357097,0.1381662
0.0214614,-0.1553016,-0.164932,0.074513,0.05451926,-0.1787283,0.2111709,-0.1592147,-0.06059815,-0.1858122,-0.08116625,-0.003247082,0.1089051,-0.108684,0.03382726,0.01192289,0.08181649,0.1456021,0.07741612,-0.1983881,-0.186218,-0.03807619,0.07860269,0.01555921,-0.2262357,-0.07524742,0.009586967,-0.07241467,0.03265278,0.08938377,0.05299569,-0.04940695,-0.06473682,0.02657694,0.06156376,0.02168343,0.1023215,0.1735926,-0.0958976,0.06252464,0.07958951,-0.2171981,-0.05841089,-0.1017015,0.1475053,0.1817256,-0.2057141,0.06225986,0.01426626,-0.02960608,0.09315627,-0.1364861,-0.07978341,0.1463028,0.07826304,-0.05324678,0.1188033,-0.05917094,0.1230461,-0.1099702,0.02328471,-0.2222237,-0.06000478,0.1412178,0.1163512,0.03525342,0.01268364,-0.1160443,-0.04378214,-0.02354921,0.1236873,0.1113755,-0.1853093,0.05792433,0.1699622,0.1229612,0.1226755,0.1781657,-0.1597429,0.05405087,-0.09026051,-0.05756173,0.02055737,0.1959354,0.1571721,-0.1436052,0.02316776,0.165322,0.2254885,-0.2228684,0.2101908,-0.09767914,0.2378887,-0.1962283,-0.07279951,-0.1304978,-0.03303897,0.1483423,0.2097947,-0.1105192,0.2323763,0.0421249,-0.06041479,-0.03924124,-0.09500157,0.04949222,0.05055862,0.08734958,-0.1169338,0.08683633,-0.004463125,0.1572058,-0.180229,-0.0969734,-0.06956194,-0.1980615,0.08459197,-0.1662971,0.1660967,-0.05911998
-0.1851345,-0.1136508,0.1132365,-0.03820317,0.03104647,0.1817931,-0.09955341,-0.2222378,0.2021025,-0.1292775,0.184865,-0.05974798,0.2072772,0.04146841,0.05030404,-0.1410268,-0.0891238,0.2030184,0.1854409,-0.2078397,0.2058096,-0.118624,-0.2163965,-0.1808153,-0.1136739,0.1916373,0.08871775,-0.04063727,0.1705062,-0.1603522,-0.2051806,-0.2254568,-0.09566972,-0.01663559,0.003429468,-0.2155995,0.2099298,0.07643888,0.07013612,-0.02340267,-0.07213445,-0.04950667,-0.1671517,-0.15331,0.07750278,0.1309617,-0.009696295,-0.1768314,0.01647491,-0.07691536,0.05262404,0.1190757,-0.06500494,0.0918252,0.07615446,-0.121255,0.009400079,-0.1918068,-0.03203337,0.06412613,0.02365479,-0.1786181,-0.1428845,0.124261,0.09346168,-0.03466993,0.2188299,0.02728815,0.03105253,-0.08576681,-0.1532215,0.1530373,0.2118559,-0.1592063,0.01030164,0.05020967,0.186198,0.2176728,0.05298718,0.03457826,0.1355349,0.07440395,-0.07846629,-0.2224307,-0.02876457,0.07672719,0.0208509,0.2098095,-0.2231173,0.1275171,-0.1303577,-0.06816311,-0.1701674,0.1792685,0.2025705,-0.1114244,-0.1368405,0.2119292,-0.2045624,-0.03661174,-0.2000655,-0.2201389,0.2145148,-0.1679774,0.04507731,-0.00549992,0.03376152,-0.1293917,-0.1529602,-0.07556675,-0.03283374,-0.1232487,0.03988366,-0.07358754,-0.1411175,-0.1179391,0.03788434,-0.1500497,-0.2006699,0.1597602
-0.1870158,-0.08041228,0.01923378,0.1597756,-0.1826784,-0.05448066,-0.09975789,-0.02205072,-0.01977715,-0.1018142,-0.07543175,0.007378358,0.09211957,0.04407842,-0.2113526,-0.0647157,0.06121309,-0.06680159,0.1358074,-0.2792846,0.02459203,-0.0570458,0.08848649,-0.1480327,-0.1794092,-0.2028323,-0.2141257,-0.007475209,0.2031697,-0.1384849,0.2152976,0.03553449,0.1517155,-0.02603215,-0.02054507,-0.2700152,0.07392307,0.1913576,-0.1181449,0.1237198,0.1305618,0.1207072,0.134071,0.2266224,-0.007061981,0.01014834,-0.1932115,-0.174426,0.2412949,0.2011646,0.010968,0.07798371,0.07958139,0.1189576,-0.03504138,0.1529677,-0.2216515,-0.07354485,-0.1214726,-0.2069883,0.09286261,0.03377388,-0.2851037,0.2608758,0.2904438,0.0004490753,-0.05605198,0.09788247,-0.2311419,-0.0009778292,-0.1557081,-0.08193219,-0.2027137,0.2312282,-0.09554263,0.08676448,0.04962308,-0.0174603,-0.07744001,-0.01659909,-0.1556276,-0.1077239,-0.09457612,0.1282393,-0.09970035,0.03661409,-0.005055638,0.09141615,0.02628876,0.1447209,-0.02057326,0.05234914,0.1849594,0.1768793,0.1137182,0.14859,-0.06597561,-0.05909116,0.0316178,0.1266224,0.03550039,0.1452066,-0.01019447,-0.01298966,-0.05914762,-0.04502276,0.03173463,0.1150377,0.07426108,-0.1298594,-0.1861112,0.1426593,0.1985775,-0.1709496,0.1179697,-0.09364219,0.1253293,0.1677282,-0.1944467,-0.0328374
0.1521161,-0.005838583,-0.115444,0.1890915,-0.1523932,0.2058689,-0.05478334,-0.08761188,-0.02778246,-0.0755768,-0.1063231,-0.1816346,-0.01436748,-0.003013346,0.2765033,0.1516421,-0.1892392,0.2090101,0.09778504,0.251343,-0.05925258,-0.009411393,-0.01673905,0.163652,0.2124073,0.01168084,0.1722505,-0.07609679,-0.05628983,0.06768109,-0.1071185,0.1663546,0.07573082,0.1051425,0.1756402,0.1061244,-0.03895827,-0.174951,0.1326665,-0.09963229,0.05848144,-0.04273329,0.07880395,-0.07041723,0.006518301,-0.1818562,-0.09584045,-0.03012073,-0.03033073,0.1437182,0.08018298,0.1350724,0.0630796,0.1446909,-0.04915927,-0.08502668,0.07589557,0.1746691,0.06800333,-0.1171922,-0.1472422,0.1141076,-0.04600064,-0.03705044,0.06995461,-0.0841395,0.09494218,-0.1640806,-0.1332529,-0.0199684,-0.03747565,-0.1013768,0.1542484,-0.2031855,0.1544568,0.0444764,-0.2327611,-0.04276888,-0.2101915,0.2295102,0.1574772,0.1743559,0.09109855,-0.02009939,0.05981494,0.1492813,-0.02379768,-0.1670678,-0.1185817,-0.104631,-0.1632538,0.1811264,0.1030086,0.1804154,-0.04976242,0.03924447,-0.0794448,-0.2014068,0.03731294,0.1314987,0.08020893,-0.1083106,-0.05712454,0.1927619,-0.03049504,-0.07945248,-0.0731161,0.01946899,-0.08482627,0.2330396,-0.2371618,-0.05709238,-0.2063134,0.1064841,0.03147565,-0.08609671,0.1259243,-0.1870027,0.06719938,-0.00778381
-0.2109422,-0.02647665,-0.09635215,0.1410691,-0.1837698,-0.1580367,0.1728442,0.1353108,-0.1576784,0.1040581,0.01613169,0.1413839,-0.1957461,-0.05299003,-0.1640476,-0.1493043,0.1505763,0.1978548,-0.1573374,-0.1410287,-0.1343228,0.04510055,-0.14016,-0.1305212,0.03210414,0.1635719,-0.1508956,0.07782261,0.2115716,-0.1000286,0.1078891,-0.005969707,-0.07838489,0.2057185,-0.1682183,0.07335808,0.04891006,-0.05064637,0.02175642,-0.220643,0.1072073,0.02214666,-0.04042447,-0.1004519,-0.08757142,0.2250764,0.1417541,-0.09661465,-0.03280035,0.1240682,-0.05873206,0.1018935,-0.05371154,0.2000147,0.06485656,0.1657791,-0.1039995,0.1160539,0.2210099,0.04427934,-0.2145598,-0.05531326,-0.07467228,-0.09631579,-0.03249792,0.001455585,0.06259772,0.03129447,0.04452946,-0.2110671,0.2346246,-0.1353107,0.1955684,0.04302718,0.05326256,-0.09997442,0.1700703,-0.1030501,0.08827636,0.08715078,-0.09159406,-0.1862999,0.003151298,0.1884754,-0.1914991,0.08145371,-0.2016599,-0.1832613,-0.02541232,-0.0867262,-0.01730445,0.1827375,0.1712968,-0.07405902,0.1051749,-0.06179857,0.1246225,0.04657497,-0.04889949,-0.2218858,0.04057181,-0.07375836,-0.1277574,-0.13122,0.01424173,-0.1139638,-0.06816754,0.1482773,-0.2039562,-0.03077701,0.056476,0.1812006,-0.184973,0.1443119,-0.1722999,-0.07388083,-0.1916533,0.1757419,0.2025761,0.1784442
-0.168959,-0.1410856,-0.003313289,0.07295846,-0.2020606,-0.003729923,0.1440318,0.05649754,0.04840753,-0.1257205,0.199946,0.1077154,-0.2093184,0.2150874,0.08888054,0.087874,0.1955395,0.1820358,-0.1341243,0.003164488,-0.02085433,-0.2325859,0.1445133,-0.181102,-0.1470043,-0.1594304,0.01940566,0.1048471,0.2094009,-0.09505916,0.01442829,0.2030446,-0.1973665,0.0569288,-0.08378808,-0.1313875,0.1808204,-0.01707021,-0.173491,0.1536938,-0.02083942,0.1861027,0.08136783,0.1893376,-0.1718452,0.02433855,0.004027735,-0.1570207,-0.03457453,-0.05304752,0.1242477,-0.1107519,-0.1747625,-0.03274708,0.08499193,0.1228044,-0.01894431,0.1933282,-0.175323,-0.2052792,-0.03259148,0.1336271,0.03856942,-0.2073852,-0.05829416,-0.1325454,0.20189,0.08392555,0.08805044,0.03036865,0.2231882,-0.1837891,-0.1178945,-0.2050953,-0.03314827,0.01337098,-0.03645289,-0.1782625,-0.1326348,-0.09198683,0.05425029,-0.01528188,-0.1625979,-0.1388316,-0.05695602,-0.05694805,0.1072073,0.2145194,0.1887039,-0.1213266,-0.1195061,0.0253735,-0.1789349,0.02594013,0.1589227,-0.1180283,0.03838732,-0.1897622,-0.1624053,-0.06780343,-0.2262091,-0.06883031,0.2073709,-0.1826643,-0.04785396,-0.05514764,-0.1064058,0.1341642,0.0350488,0.1548261,0.1907728,-0.06122017,0.04170364,-0.1852563,0.01067515,-0.1814187,0.206987,-0.03936804,0.1054524,-0.1049839
0.05522459,-0.1901103,0.07952181,-0.4497561,-0.09926287,0.0669938,-0.03483789,0.02457812,-0.06813806,-0.1956743,-0.2268358,-0.162228,-0.004127332,0.19396,-0.07577382,0.1258296,0.03913679,0.1589208,0.01832437,-0.3463283,-0.03603725,-0.3622931,0.01447554,0.04248353,-0.106424,-0.2575103,-0.2524557,-0.2098825,0.136821,0.09483586,0.1152289,-0.02768898,-0.01691964,-0.04007669,0.1531638,-0.0474223,0.1253975,-0.185964,-0.1404563,-0.1406258,0.06592859,-0.111596,-0.02160063,-0.1604014,-0.1418421,0.03175368,0.05476314,-0.01323812,-0.1543474,-0.2068273,-0.2133973,0.0571757,-0.07775718,-0.1692955,-0.1424279,0.01499781,-0.2362476,0.1529278,-0.03381908,-0.02891089,-0.03796368,0.03686817,-0.1526928,0.06688432,-0.1273758,-0.1375642,-0.1838852,0.06677885,-0.1400801,-0.2381478,-0.2119718,0.2100884,-0.1786274,-0.1747335,-0.1910886,-0.04136927,0.06280315,0.1147211,-0.01799019,0.05112445,-0.1915769,0.1071667,-0.05684347,-0.2460661,-0.04180161,-0.1441073,0.1946986,-0.06113909,-0.1702384,0.06312135,-0.168017,0.06965891,-0.1277041,-0.01691828,0.147346,-0.01518795,-0.2713466,0.1842059,-0.1976039,-0.07730837,0.1214036,-0.2178288,0.1651984,0.06947207,-0.02223562,-0.1623987,-0.08863566,0.06940765,-0.1233673,-0.05207389,-0.08148324,0.04827979,-0.006980808,0.1210079,0.1402178,-0.1414418,-0.07276564,-0.01256261,0.04194684,0.1621901
-0.07632463,0.1173199,-0.06776862,-0.09978614,-0.2863947,-0.1395631,0.02363299,0.04266914,0.001162632,0.08148208,-0.1146302,-0.1019247,0.05600965,-0.004419736,0.09153273,-0.1936711,-0.1301237,0.198563,-0.09962427,0.2331247,-0.2029479,-0.1398846,0.19495,0.1146523,-0.1268371,0.2050774,0.006565209,0.1551968,0.02720337,-0.1713818,-0.153373,0.03590345,-0.1750913,0.2574683,0.2231141,0.03981372,-0.2326052,-0.07616961,-0.1981487,0.01607965,0.08593066,-0.03904567,0.09016012,-0.01662028,0.0330481,0.1204667,-0.002060779,-0.1551949,0.03509453,0.009202731,0.09974138,0.002733014,0.019437,0.0832174,-0.1113812,0.01418429,-0.08151262,0.1335701,0.1944363,0.07409327,-0.1579911,-0.1444755,-0.155181,-0.08258259,0.1521706,0.228602,-0.005744488,0.2169686,0.04192235,0.01377824,0.1412597,0.08499947,0.2206549,0.03837671,0.04961774,0.1255409,0.09125513,0.1637727,0.1558248,-0.2392302,-0.1892199,-0.1020864,-0.05098547,0.06565747,-0.2258498,-0.1917278,-0.1664264,0.2009124,0.2263631,0.178468,-0.1457949,-0.1601143,0.1956971,0.1343134,-0.1778655,0.2800834,-0.1010074,-0.196947,0.03260124,-0.0538574,-0.1497288,0.133077,0.2267929,-0.04667094,0.04473595,0.1397239,-0.06845,0.2063009,-0.2078339,-0.02522606,-0.01240205,0.05456918,-0.1670573,0.1448428,0.2211225,-0.2270513,0.1614985,0.137443,0.01037726,-0.1511429
-0.2469305,-0.1538778,-0.145467,-0.2659914,-0.1926861,-0.1081853,0.1305669,-0.06903731,-0.2259312,-0.1302987,-0.1558127,0.184155,-0.2164843,-0.1380366,0.180593,-0.04171756,0.1124425,-0.1634647,-0.1523245,-0.22132,0.1249317,0.09277871,-0.05821568,-0.1432272,-0.08700159,0.0785977,0.03881246,-0.007699738,0.006234071,-0.0820014,0.0475703,-0.05588609,-0.006104919,-0.02550659,0.01072138,-0.058881,0.06742853,-0.1640398,-0.1647592,0.1973499,-0.1034404,-0.04055738,-0.1576879,0.1150574,0.09679355,-0.2225354,0.022516,0.05903796,0.08020823,-0.1028147,-0.1697283,0.168657,0.1295432,-0.1499843,-0.007534701,0.09620608,-0.1909536,-0.1909262,-0.09758638,0.07951166,0.07975341,-0.1724887,-0.01540694,-0.2186367,0.07546416,0.01727457,0.0151542,-0.08868637,-0.07404123,0.09161466,-0.238632,0.2166151,-0.1427964,-0.0533279,0.1689281,0.05338655,0.009834249,0.03606762,-0.2220958,0.03119108,-0.131447,-0.2069965,-0.170479,-0.006312627,0.1837207,-0.1420265,0.09536517,0.219634,0.1483301,0.07680728,-0.1100641,-0.01896582,0.01196581,0.05989633,-0.008157015,-0.1209743,-0.1139655,-0.1953754,-0.2100551,0.05824387,0.005891443,-0.1671011,0.1853566,0.03653846,0.05298278,0.04364407,0.07168196,-0.07471588,0.1565915,-0.223611,0.01213875,0.03916136,0.2118952,0.08371414,0.1682438,-0.1969052,0.009758098,0.128482,-0.1879869,0.09538836
0.02882201,-0.1434765,-0.1115629,-0.240791,-0.03998239,0.1262294,-0.06786593,-0.0448826,-0.1958813,-0.1787204,0.2027247,0.1798936,0.1381027,-0.1073557,0.1241056,0.1004928,0.1895961,0.2654927,-0.1709843,0.08487982,-0.2992092,0.123923,-0.2205572,0.1143125,0.2686617,-0.182732,-0.1061079,-0.1649816,-0.0439025,-0.04118325,0.04522506,0.07504148,0.1831925,0.002224899,-0.1176149,0.06544838,0.1959392,0.04922785,-0.06615569,-0.1657078,-0.06024167,0.108992,-0.06712577,0.08024813,0.2174954,-0.1154552,-0.01913715,0.05770573,0.007688229,-0.1082195,0.1564256,-0.008683578,-0.232853,-0.04372326,0.007732845,-0.07158883,0.07420543,0.1202617,0.1660512,-0.01420464,0.1184643,-0.1305451,0.05414939,-0.1058191,-0.07690433,-0.001187713,-0.05542536,0.256277,0.08897854,-0.1908116,-0.1308128,-0.2214586,0.04788516,-0.1955156,-0.1356872,-0.2153312,0.0527759,-0.07937451,0.07479091,0.06883059,0.05507323,0.04636163,0.05536147,-0.02060896,0.07280913,0.09214182,0.2029519,-0.0800809,-0.1635356,-0.05430117,0.03181059,-0.05479976,-0.02147871,0.02985159,-0.1062326,-0.217943,-0.1132476,-0.07841411,-0.1386946,-0.1501529,-0.1644574,0.1256846,-0.1007932,-0.03527624,0.1353969,0.2415815,-0.1339017,-0.2224316,-0.1426081,0.1393695,-0.1176726,-0.02501286,0.2090778,0.07014685,-0.01920828,-0.01119469,0.08981363,0.09520384,0.1095145,0.2371709
0.1324554,0.0004958037,-0.08221635,-0.06195005,0.05363305,-0.01796969,0.1496928,-0.1898512,-0.1787089,0.1903147,-0.1045673,-0.07419144,0.07736567,-0.1628429,0.150731,0.2391628,-0.07884847,0.1882293,0.1148748,0.2216738,0.05270523,-0.1878837,0.004920991,-0.1373159,-0.1571443,-0.1384069,-0.1356363,0.1322317,-0.1618258,0.04035056,0.00561729,-0.01266173,0.1542902,-0.00716964,-0.008183504,-0.2074297,-0.05892983,0.1146352,0.1203765,-0.05856471,0.1577002,-0.2305047,-0.0179865,0.1038521,0.0796356,-0.09540038,-0.0456489,0.01055107,0.1934849,0.1962188,-0.2015695,-0.1781522,-0.05384475,0.1167315,0.08158674,0.03070028,0.05796054,-0.09077884,-0.1194834,-0.1383536,-0.21574,-0.0997863,-0.1988063,-0.0526414,-0.2408536,0.1994366,0.1709156,0.0006864704,0.01960995,0.1009233,0.1740912,0.01411918,0.1316686,0.1730463,0.1569997,0.05714363,-0.06077977,-0.1357003,0.008352837,0.09411144,-0.02346167,-0.1379835,0.1794101,-0.05606348,-0.2248032,0.173254,-0.0589363,0.1451166,0.2602061,-0.09653426,0.003315862,0.1162996,-0.2137803,0.04526315,8.330123e-05,-0.156387,-0.1681231,0.05649081,0.1612412,0.09231503,-0.1228703,0.143497,0.1373003,0.05315806,0.06338132,-0.1581355,0.002865719,-0.004338006,-0.1000554,0.09341969,0.1662621,0.228461,-0.2242139,0.2111648,0.1762585,0.01237029,-0.0586788,0.04888172,0.210193,0.1038779
0.129491,-0.02941558,-0.1207388,-0.1051963,0.0988126,-0.02015385,0.1838713,-0.1205117,0.05834461,0.1236448,-0.08745693,-0.113276,-0.09064163,-0.2030332,0.2112057,0.1809004,0.05923935,0.04948422,-0.124933,0.1762205,0.08517399,-0.06984066,-0.08255511,0.2028875,-0.1162965,0.1819745,-0.1408903,0.08574267,-0.08038297,-0.03007066,-0.1647523,0.2345417,0.1403347,-0.2140591,0.1182271,-0.04517183,0.1464463,0.1890914,-0.01077217,0.1891874,-0.1457279,-0.1889021,0.08310287,-0.1132412,-0.08128511,-0.2081411,-0.1852651,-0.1256303,-0.02034662,-0.08103195,0.04024814,0.05982779,-0.140625,0.1414648,0.150483,0.03807191,0.1612571,-0.02912593,0.1077122,0.175083,0.1626096,-0.1551386,-0.1842257,0.1181595,-0.2344019,-0.04256018,-0.1184613,-0.04855345,0.006514005,-0.03825559,0.1519842,-0.1362694,-0.1331679,-0.04912905,-0.1281529,0.1059483,0.1848134,-0.03555189,0.06909492,0.09111552,-0.1110948,-0.09273019,-0.00931972,-0.1395729,-0.1771512,0.09661138,0.1391362,-0.03267194,-0.1889947,-0.1119592,0.06522886,0.1891353,-0.1524514,0.1802562,-0.2370279,-0.1822297,-0.1573112,-0.2306342,0.01212708,0.01022509,0.1308666,0.1749012,-0.2001428,0.1813545,-0.217254,-0.1638515,-0.01664841,0.1606526,0.1122391,-0.0686541,-0.19566,0.1760935,-0.02346771,0.1559807,0.08175495,0.1327675,0.004151444,-0.1517675,0.2686955,0.01149714
-0.005865556,-0.18771,-0.009216332,0.06721518,-0.2104201,0.1494755,0.2165293,0.1523935,0.03497577,-0.1144099,-0.1496774,-0.1929,0.03841477,0.1803057,0.06989945,-0.1384717,-0.1115653,-0.04723989,-0.1191712,0.003916307,0.02622911,-0.1793357,0.146561,0.1212088,-0.2584138,0.1585702,-0.1705168,-0.06316537,-0.08925238,0.222253,0.1236021,0.03090186,0.1208262,0.1371836,-0.2067764,-0.0357243,0.1970862,-0.03671125,0.163116,-0.08216934,0.07284597,0.2308013,0.06408772,-0.2011162,0.0590733,-0.009040244,0.1566875,0.1607493,-0.123803,0.1367159,0.03345626,-0.1489688,0.009325619,-0.04127255,0.159293,0.1340015,-0.1399664,-0.121266,-0.09686122,-0.2157498,-0.1057414,-0.2014016,0.1492034,-0.1235255,0.08789624,-0.2000963,0.1041154,0.09989505,-0.05821174,0.1285219,0.154563,0.0496081,0.08495395,0.07132652,-0.01390087,-0.1350238,0.1573606,-0.1265116,0.1067491,-0.173078,-0.0929848,0.01951134,0.171023,-0.1176381,0.03495416,-0.2121132,-0.2045207,0.06846727,-0.2182323,0.03221157,0.05298897,0.09181304,0.1950562,0.04619465,0.1742238,-0.143394,-0.02241212,0.1859731,0.01854627,0.02471553,-0.1003393,-0.1370537,0.02513,0.1243619,0.164229,0.1389854,0.07965385,0.007118641,0.2214576,-0.05362153,-0.1655719,0.05218953,0.1508875,0.01232429,0.0822079,0.2114637,0.00177793,-0.1018533,-0.212286,0.1514525
-0.06074565,-0.1043908,-0.08020173,-0.109318,-0.0038885,0.008556433,0.2069589,0.1128266,0.02987227,-0.2014893,-0.1684063,-0.08709948,0.1299666,-0.006888223,-0.1916008,-0.0491989,0.04502065,-0.03681383,-0.04572541,0.06440923,-0.06278039,-0.08192562,0.1126932,0.1479276,0.01514954,-0.1599599,-0.08786707,-0.09216971,-0.03483113,-0.03570274,-0.06462592,-0.04641302,-0.0464845,-0.163702,0.1812865,-0.1520219,-0.1969186,0.07555604,-0.08067725,0.1726137,-0.2133545,0.2276593,0.215186,0.1411787,0.01673832,-0.2477126,-0.1632758,-0.01933338,-0.08368606,-0.0794694,-0.02967498,0.1775115,-0.0620836,-0.05029017,-0.09181877,0.004308488,-0.01979005,0.173928,0.167849,0.06327845,0.03860096,0.189072,-0.07092541,0.1486687,0.0005856694,0.05933594,0.1121675,0.1521759,0.06410004,-0.1162089,0.162652,-0.05501698,0.04579659,0.1521986,0.05856088,0.1719067,-0.03417537,0.1850118,0.05040623,-0.1102848,-0.1444363,0.06767182,0.1612127,0.06571342,0.1850858,0.1877794,-0.09330384,-0.09193033,-0.1652768,0.1684151,0.09426915,-0.1717621,-0.201142,0.1112451,0.005762272,0.06808556,-0.001771033,0.05474225,0.1372289,0.01659577,0.1078548,0.1679776,-0.0103657,-0.1621964,0.1005567,0.2051491,-0.1714156,0.1705804,-0.1885164,0.1789029,-0.02979596,-0.08636334,0.003908554,-0.1180934,-0.1356594,0.0992993,-0.1704976,-0.09907948,-0.2169418,0.07539869
0.004762867,-0.02161264,0.03399256,0.06969117,0.1312551,-0.1882489,-0.07214338,0.1099748,0.02933946,0.02131064,0.01887494,-0.1860069,-0.02414148,0.2163152,-0.2441239,-0.2568384,0.01948649,0.03576369,0.02738245,-0.2464129,0.2138773,0.1250715,0.1779145,0.1387753,0.03482588,0.1032045,0.1652908,-0.04114293,0.1362086,0.127325,0.1805694,0.1103345,0.19428,0.03516541,-0.2415618,-0.00645911,-0.03579503,-0.07117548,0.1362905,-0.102058,0.07645939,0.1743658,0.1434058,-0.03713005,0.0416185,-0.076819,0.0510948,0.195817,0.1307678,0.153168,0.005105348,-0.09839823,0.01845538,0.06870331,-0.1925368,-0.1983885,0.06431768,0.1664499,-0.1139231,-0.1163777,0.04503421,-0.1249788,-0.08801222,-0.284854,0.07136989,-0.1630713,-0.2114763,-0.2157921,-0.1980719,0.06955045,0.1018916,-0.1081029,0.1502905,-0.06629998,0.1387754,0.2184066,0.2627186,-0.09374823,-0.09645249,-0.266014,0.1735984,-0.06275358,0.1880212,0.1205121,0.1718988,0.1711466,0.1369908,0.2040516,0.1589907,-0.1610989,0.08283647,-0.2175283,0.04643963,0.321529,-0.009740598,0.1606526,0.1257795,-0.1917471,-0.04738682,0.2135397,-0.1484353,0.06536773,0.1097143,-0.1550076,0.004633092,0.3105516,0.2453426,0.06934012,0.123674,0.1462596,0.07645001,-0.1033907,0.1877195,0.01199313,-0.1928811,-0.008313615,-0.1101252,-0.1008334,0.2384043,-0.2408002
0.1375181,0.06214635,0.2214565,0.03864682,0.08465248,-0.02874797,-0.02918929,-0.06350154,-0.08691788,0.1095068,0.1712235,-0.1364757,-0.04360799,-0.08823605,0.01216755,-0.1865121,0.2184491,-0.03735059,0.1800328,0.1740547,0.3464288,-0.02193704,0.1566211,0.1909877,0.192703,-0.1297932,0.209391,0.0647232,0.1651555,0.03880158,0.1255657,0.009286919,-0.03988926,-0.0957882,0.07062706,-0.1015108,-0.03364369,-0.1670654,-0.2080278,0.2358966,-0.0646401,-0.2046195,-0.04323333,0.004219142,0.2134577,0.2265054,0.07595988,-0.1878427,-0.01840142,-0.02706379,0.1801699,-0.02080989,-0.1847045,-0.05121832,-0.1018791,0.01349724,-0.1081502,0.1406452,0.1968289,0.01662774,-0.1686147,0.0849106,0.1483535,-0.05872501,-0.149055,0.05614444,0.1681081,0.1014222,0.1881391,-0.0691177,0.01220164,0.1592797,0.1626959,0.01333164,-0.2397492,-0.1086402,-0.0921682,0.2095562,-0.05856845,-0.001196325,-0.09144361,0.1315082,-0.1452668,-0.03399822,0.06712286,0.1136267,-0.1136262,-0.184332,-0.1526712,0.05195029,0.1987759,0.09599346,-0.2225511,-0.2060348,-0.09511774,-0.05087114,-0.1535792,-0.07943166,0.05843216,0.1330325,-0.008749831,-0.2390483,-0.1091271,0.0250206,-0.008374515,-0.1233587,0.01335329,0.01952538,-0.06729183,0.009450687,-0.1712476,0.188089,0.2102344,0.2446178,0.1837075,0.05789964,-0.1971893,0.1401632,-0.0672482,-0.1391412
-0.0825049,0.08088675,0.1939318,0.02011356,-0.02039908,0.2016685,0.1197794,0.1373465,0.1798938,0.05384179,-0.09681094,0.1422904,0.0559334,0.1462344,0.193972,-0.10192,-0.1363561,-0.1493477,0.1119935,-0.06231266,0.06244424,-0.1122945,0.02751495,0.05235889,0.1443504,-0.1557323,0.01665537,0.08375061,0.127514,0.2006851,-0.1382996,0.2209957,-0.0874532,-0.1136266,-0.09162699,0.0170061,0.1515293,-0.04207782,-0.2079103,-0.06054783,0.2209534,0.05427012,0.0724347,0.1208845,0.1430667,-0.008335708,-0.2073906,-0.1971409,-0.143022,0.02205679,-0.02230693,0.1955892,-0.2123408,-0.02799441,0.1395376,0.1936026,-0.0100158,0.1050236,-0.131209,0.1881634,-0.01585102,0.06299097,-0.1858476,0.02033399,-0.172129,0.098274,-0.09480832,-0.2334204,-0.01998411,0.01856113,-0.1555308,0.1995721,-0.04105694,-0.0651283,0.1323314,-0.1010057,-0.08956134,-0.02523727,0.1073173,-0.0587186,0.196235,-0.163565,-0.1498849,-0.02196886,0.05880139,-0.08477922,-0.02365575,0.0802343,0.1728076,0.2515045,-0.01166787,0.04083327,0.1659375,-0.007204798,-0.155105,-0.07977098,0.1905392,0.08355067,0.07726183,-0.02379429,-0.1585867,0.005467963,0.1544562,-0.116708,0.2408601,-0.2158867,0.1821426,-0.005314325,0.09278254,0.2383595,-0.1825305,-0.1183577,0.002218909,-0.02527336,-0.1796919,0.1127971,-0.01070518,-0.007953126,0.09558774,-0.1853415
0.0966979,-0.2157378,-0.07702547,-0.1797722,-0.1907044,-0.0300767,-0.07428559,-0.05921718,-0.06615724,-0.0504177,-0.1859507,-0.1567745,-0.214971,0.1907874,0.1648731,0.007266196,0.2163692,-0.08372311,-0.03064974,0.04594154,0.1698101,0.07673284,0.1618572,0.05847356,0.2998393,-0.1532135,-0.08522625,-0.06766856,-0.1766036,-0.01313187,0.216866,-0.08924647,0.1085566,0.0335281,0.04090365,-0.06550298,0.1245774,0.1962771,-0.1154465,0.05331567,-0.1781126,0.1243007,-0.2122149,0.04033657,0.169659,0.2704785,0.1491194,-0.1617872,-0.0403794,-0.09962209,-0.221551,0.1209249,0.07546806,-0.08103072,-0.1877126,0.006562367,-0.1473566,0.2488712,0.1448132,-0.0910733,0.02966171,-0.2178086,0.05558863,-0.1376545,0.1468788,-0.2571489,-0.0151172,-0.04282593,-0.05160757,0.06283412,0.09277745,0.08297483,-0.1531489,0.03045355,0.1437049,0.07047752,-0.2082104,0.1264683,0.01951142,-0.02821135,-0.0916366,0.1930448,0.0852749,0.03859146,-0.008105258,-0.2141733,-0.08656438,-0.1367212,0.1358404,-0.05690641,0.14994,-0.1677634,0.05375775,-0.1179383,0.1464938,0.03389027,0.1967426,-0.06765427,-0.1217535,-0.2133497,-0.09551586,-0.2407865,-0.07376741,0.2103515,-0.1395319,0.04927759,-0.1612379,-0.1097765,-0.009247583,-0.1635811,0.2002527,0.08490409,-0.07456622,0.2096074,0.0005582571,0.1178516,0.2382444,-0.0379129,0.06380716,-0.1860938
0.2545656,-0.1503185,-0.2101088,0.05050886,0.09243258,0.009754686,0.1711566,0.03876368,0.181447,0.1327589,0.06875403,0.1292387,0.128367,-0.1919233,-0.02537807,-0.1637475,-0.1232615,-0.08713488,-0.02296151,-0.01146913,0.027455,-0.04711573,0.1138446,0.1829212,-0.02064479,-0.03962297,-0.05346093,-0.2006772,0.03905538,0.09218607,0.1166607,-0.07953759,0.05654938,-0.08860198,-0.1009781,0.1692352,-0.1158269,0.1823803,0.02717701,0.007262892,-0.04087491,0.04984542,-0.1194598,0.06626008,0.02246677,-0.1167759,-0.1173181,-0.1060138,0.06744818,-0.08651692,0.1543138,0.2037542,-0.05481317,0.04633014,0.04299838,-0.1848624,-0.1378927,0.1853811,-0.1591961,-0.07033578,-0.2092384,0.08768567,0.07667259,-0.2419042,-0.1839392,0.08658366,0.01180351,-0.009063489,0.1815961,0.1619027,-0.08780377,0.09886405,-0.01627974,0.1665,-0.1732336,0.06021978,0.1463421,-0.05928138,-0.01170043,-0.2262968,-0.1236903,0.1327001,-0.05816609,-0.1358845,0.1557309,0.1836754,-0.2091186,0.2140652,-0.02620752,0.133416,0.2536908,0.1050259,0.08268481,0.1303793,0.1941816,0.08336606,0.2195808,0.1917037,-0.03437866,-0.0260062,0.1142579,-0.1814554,-0.04640795,-0.2168853,-0.09891503,-0.1187769,-0.1133372,0.2038203,-0.1042649,0.1616575,-0.08982699,0.1084683,-0.2235488,-0.1037743,-0.07111474,-0.03678023,0.2083188,-0.03099846,0.1888399,-0.1146211
-0.2057954,0.07067623,0.1481705,-0.2452772,0.0736592,0.0819049,-0.1495574,0.05652894,-0.06070518,-0.003747295,-0.2119334,0.1338343,0.007653042,-0.1904031,0.006908379,-0.1032213,-0.002940814,-0.2007987,-0.2523248,-0.01933056,0.03838103,0.09331153,-0.1749273,-0.06430603,-0.0828844,0.004978932,0.1418875,-0.1018203,0.003968958,0.02046466,0.01192261,-0.01854702,-0.2315646,-0.07489321,0.004579229,0.1264094,-0.08280967,0.005678751,0.207223,-0.02763336,0.09504922,0.2853173,0.09385912,0.1214745,0.01416057,-0.04443321,-0.0008682108,-0.03409612,-0.1172304,-0.1380195,0.1453975,0.1806216,0.1192523,0.11496,0.06452142,0.2259719,0.1171286,-0.07595005,-0.111086,-0.1742141,-0.2006375,-0.14049,-0.04765268,0.118984,-0.151143,-0.07550327,0.2391621,-0.008899573,0.004474138,0.1648834,0.0929481,-0.05612588,0.2117921,-0.08968621,-0.119214,-0.04356087,-0.1778351,-0.1845597,-0.08031956,-0.02305792,0.1024042,0.04344877,-0.2186892,0.1860168,0.170694,0.1191577,-0.1524545,-0.1585257,0.2035668,0.1898443,-0.1319311,-0.03112871,-0.1714055,0.1232226,-0.009268438,-0.2147418,-0.1241349,0.2445573,0.22122,-0.0751258,-0.191207,-0.05986384,-0.1899312,-0.07711688,-0.003043734,0.1262874,-0.05093968,0.1778173,0.1667659,-0.2431716,-0.0292744,0.05636423,-0.07352217,-0.1649776,-0.1918042,-0.005931606,-0.02471335,0.1931629,0.09954105,-0.169411
-0.1954419,0.04118776,-0.1000148,-0.05765318,-0.1724773,-0.08060653,-0.02036323,-0.1758599,0.1349094,0.06533135,0.1346661,0.008245748,-0.1402435,-0.2034326,0.2076356,0.05237856,0.04087923,0.008232416,-0.05673448,-0.0323815,-0.09249534,-0.2521974,0.1296607,0.1467453,-0.1840106,-0.1643185,0.08301131,-0.1090972,-0.016378,-0.03365433,0.0420682,-0.2219676,0.1010279,0.125332,0.1493629,-0.198315,0.1401672,-0.1919874,-0.1004457,-0.1284747,0.187285,-0.2644708,0.164335,-0.2191546,-0.1261765,0.05914265,-0.1446222,0.2143704,0.1786522,-0.2261708,0.03219713,0.1785644,0.1651629,-0.1961011,-0.05672884,-0.1906887,0.0002571199,0.1190786,-0.01734917,-0.2093041,-0.1224841,0.1483179,-0.1891222,0.009686084,0.1850842,-0.1463823,0.02948552,-0.1947988,-0.006869755,0.1344547,0.1012754,0.1501589,0.1260093,-0.07515888,-0.02728594,-0.04088412,0.02583183,-0.02722517,0.03337337,-0.1916736,0.102688,0.07971832,-0.1449235,0.08261284,-0.1639406,0.05128502,-0.04048771,0.007190663,0.04983337,0.1261968,0.007714367,0.01238364,0.05630351,-0.1561805,-0.1462143,0.1680585,0.1765292,0.07184546,-0.07386369,0.1407081,-0.1453021,-0.2122151,0.1741688,0.1702587,-0.1473065,0.02568746,-0.004023515,-0.07296921,0.03849703,-0.1599202,0.1640195,0.2072055,0.01539304,-0.09801062,-0.1404053,0.05258162,0.03868283,0.1064458,0.1037453,0.1357478
-0.1156529,-0.1249813,0.1769039,-0.2301829,-0.0236761,0.06609324,-0.211296,0.1116724,-0.02719771,-0.06838202,0.1654924,0.09248336,0.03586415,-0.1019676,0.04956323,0.1712765,0.1236133,0.0311746,-0.1456951,0.1040475,0.04082636,-0.2231295,-0.1057075,-0.1619005,0.07163323,-0.0217412,0.03398858,0.1283275,0.08096693,-0.02508746,0.113356,-0.02030942,0.1724007,-0.08326611,-0.008743896,0.1870893,-0.2143366,-0.03417604,0.1940008,0.1400874,-0.1948028,-0.02981432,-0.06198926,-0.1412539,-0.04873715,-0.1891983,0.08616795,0.0329059,0.1670821,-0.032762,0.1086821,0.1829161,-0.1508275,0.02113265,0.1736055,-0.206717,-0.0489491,0.08674005,0.2079809,-0.06831075,-0.0001110806,0.0991951,-0.03684503,0.1969696,-0.2025758,-0.1300934,0.1436334,-0.06694217,0.04860613,0.1274834,-0.2165614,0.09482159,0.08615758,-0.03469381,-0.2295288,0.05553963,-0.04785432,-0.0430462,-0.2086846,0.1204078,0.1953956,0.1030915,-0.1918696,-0.04131868,-0.2129956,-0.1201194,0.07844196,0.1598578,0.1778741,0.1456667,0.07727423,0.2175922,0.02981502,-0.05287452,-0.03596881,-0.01464744,0.08338726,-0.2213422,0.04163609,0.09883443,-0.1983409,0.1605223,0.1581089,-0.1924757,0.01102623,-0.1363858,-0.1371288,0.06672237,-0.08368693,-0.004040875,-0.203641,-0.0849502,-0.009291927,0.04507094,0.01652467,0.003777408,-0.05598979,-0.05415535,-0.2411509,-0.1108776
0.0294207,-0.09800301,-0.01184276,-0.02356949,-0.1341102,-0.05711495,0.07895768,-0.2031136,-0.01194425,0.03587483,-0.1121931,-0.2364263,-0.2522635,-0.07516325,-0.1742778,-0.1126022,-0.2130367,-0.09703149,0.0950807,-0.05362415,-0.2241355,-0.2508909,-0.1302149,0.01998878,0.006425208,0.07296021,0.1923209,-0.1707701,0.003544475,-0.0702482,-0.001746612,0.1345994,-0.01670665,-0.1744928,0.1402631,0.03330849,0.2494001,-0.169656,-0.09342849,-0.1023336,0.1408503,0.04188881,0.161944,-0.1062411,-0.1189227,0.0209118,-0.2368526,-0.03858296,0.1198949,0.08458706,-0.09767686,-0.109306,-0.08383016,-0.1602136,-0.2145949,-0.01037869,-0.1016563,-0.1667578,0.2242231,-0.2332623,-0.05216419,-0.2797922,-0.1412923,0.02415617,0.0129657,0.07179018,0.2288629,0.1479687,0.02795473,0.1011048,0.09320598,-0.083903,-0.005736362,-0.0208895,0.2186554,-0.03477472,0.07346214,-0.01927135,-0.007191604,0.1428135,-0.1632711,0.1434982,0.1464085,-0.2419119,-0.1231723,0.0398634,0.2201239,-0.09687975,0.006236661,-0.1663677,-0.09888694,0.1168814,-0.1367562,-0.2293972,-0.04712183,0.1049093,-0.1057397,-0.07386751,-0.0739736,-0.114296,0.2232011,-0.2242678,-0.1534392,-0.0214444,0.1102757,0.01715592,-0.1535715,-0.294789,0.1368249,-0.2168641,0.1467992,-0.06898379,0.08605486,-0.0259405,-0.1281964,-0.2099793,0.2576773,0.1407749,-0.01437727,0.09055373
0.2134347,0.1484483,0.01369355,-0.1638516,-0.1576019,0.1912232,0.1230136,-0.2263703,0.0565866,0.03286252,0.2028912,0.06816511,0.04158568,-0.1267585,0.1233446,-0.2175382,-0.1690198,-0.06481791,0.0407039,0.1030035,-0.1752798,-0.1079918,0.02702679,-0.03809323,-0.01053462,-0.09055322,-0.1456566,-0.120845,0.03591483,-0.08624302,0.01746224,-0.05123508,-0.1773889,0.06250668,0.03439905,-0.06706118,0.1705115,0.02639889,-0.1232637,-0.2143729,0.005441503,-0.01055076,-0.1570399,-0.1318811,0.1409556,-0.2030624,0.1826444,0.1307716,-0.1593288,-0.03451562,-0.05338191,0.05981681,-0.03380075,0.1493259,-0.1853239,0.03751609,0.0140053,0.1243708,0.04105223,0.1984797,-0.1659572,-0.1425177,0.151164,-0.1507143,0.05262175,0.1713854,-0.1975722,-0.1140953,-0.01605045,0.1036496,-0.0955393,0.04670917,0.1200497,-0.03451167,-0.04425415,0.06033025,0.1074516,0.03508707,-0.1984624,-0.1417155,0.159144,-0.1581827,0.1005753,-0.09134917,0.2176526,0.1933378,0.1593391,-0.2140065,-0.01788972,0.1564774,-0.1543968,0.2167208,-0.1630612,0.1584087,-0.1194675,-0.1000266,0.07281855,0.2167753,0.2001601,0.06896335,0.1956006,-0.2093579,-0.1883665,-0.03336744,0.04300449,0.03014819,0.03266327,-0.1741992,0.1184832,-0.08241714,0.06793569,-0.1568128,-0.1538477,0.08594224,-0.01256272,0.05238739,0.1104245,0.1552547,-0.211672,0.1905104
0.1300835,0.2307722,-0.0976551,-0.1635384,-0.2041784,0.0004115624,-0.1869597,0.2306899,-0.1810078,0.03189209,-0.1552814,0.005726248,0.04120567,0.01647768,0.05474193,0.01706416,0.01929872,0.04453301,0.0929472,0.07479965,-0.192633,0.1411025,-0.02869595,0.05182583,0.06472192,-0.05889323,0.2440433,0.04416941,0.01027281,0.1220662,-0.1314875,0.1860382,0.092638,0.0501366,0.05830744,-0.07583159,0.1442831,-0.06346231,0.002258687,-0.08402907,-0.02100603,0.1000387,-0.171001,0.1417575,-0.06588321,0.02216968,0.1999245,0.1497178,0.008012988,0.07855213,-0.1752171,0.1027118,-0.0477252,-0.01150657,-0.190687,0.08241263,-0.2060567,0.04906897,-0.01674012,0.1195037,0.1161222,-0.09623288,0.07586011,0.1206727,0.07280419,-0.1772761,-0.00252148,0.005043842,0.1914165,0.119759,0.07696055,0.1357293,0.156449,-0.06713615,-0.03588312,-0.1362112,0.2500102,-0.1571975,-0.04726233,-0.1111535,0.1372245,-0.2217611,-0.04978133,-0.1987411,-0.1843942,0.0785818,0.09003849,0.1064404,-0.1145809,-0.04134974,-0.03158377,0.2368541,-0.1579358,-0.1582353,-0.1728344,-0.1586875,-0.08915623,0.1369318,0.04142094,0.1448469,0.1682181,-0.1434918,-0.1275268,0.1444981,0.04059603,0.01097522,-0.1492729,0.06140113,0.03714426,-0.001843092,-0.06711087,0.1555583,0.1182394,-0.09746727,0.1308838,0.1271013,0.07832026,0.1612519,-0.03192043,0.06502897
0.08220559,0.1455716,-0.0006011121,0.1699692,-0.212555,0.127927,-0.0752997,-0.1976885,0.179799,0.1638881,-0.2177182,0.08581115,-0.07267574,-0.09984294,0.03787982,0.01555197,0.1340719,-0.04956284,0.1765281,-0.08730779,0.1484253,-0.2480976,0.09913937,-0.1616979,0.01129089,-0.08693086,0.1388206,-0.1635298,-0.1278045,0.10631,0.1137684,0.03031188,0.03165817,0.05107527,0.07999261,0.02176697,0.1570475,-0.1266016,0.006759464,-0.06878693,0.09129869,0.0104592,-0.01206983,0.09116496,-0.02491709,0.01037504,-0.1740451,-0.06707308,-0.1087511,-0.06318291,-0.05424562,0.06235847,-0.1767782,-0.1622898,0.1720573,-0.06608466,-0.09659954,0.07322264,0.1002949,0.1696075,0.02271547,-0.2245002,-0.1325721,0.05612983,0.1326276,-0.03737836,0.0311537,-0.209903,-0.07179418,-0.02254069,-0.2344761,0.03483182,0.1996502,0.2171288,-0.2266664,-0.2111291,-0.07795846,0.06956857,-0.1407458,0.00226719,-0.1994747,-0.1855194,-0.03832394,-0.05995535,-0.1339639,-0.01088731,-0.121475,-0.111253,-0.1879538,-0.007192436,-0.07187927,0.0173538,-0.1966431,-0.1580521,-0.02908051,-0.1095525,0.177352,0.01435299,0.04975301,-0.176515,0.007931842,-0.06368229,-0.09578161,-0.04064317,0.05121045,-0.01839316,0.124289,0.1078715,-0.03140333,-0.1012793,-0.1175332,0.09597713,0.2215507,0.1499334,-0.1860527,-0.003308038,-0.112043,0.1726892,-0.2076118,0.104246
0.2187859,0.01222576,0.08179037,-0.09026099,-0.02119142,-0.06354389,-0.077296,0.04488622,-0.1800313,-0.02703292,-0.1717297,-0.001319238,-0.1235685,0.04023549,0.1571929,0.05177765,0.01117708,-0.06915343,-0.009168833,-0.2000455,-0.176122,0.04131712,0.1985569,0.2315484,0.2697294,0.09894008,0.0928824,-0.1147695,-0.1335291,0.1212066,-0.275619,-0.05891752,-0.1656417,-0.1302059,0.1510623,0.165008,-0.2259514,0.006576871,0.1744684,-0.02152501,-0.1816612,-0.2181192,-0.06891371,0.2003149,0.2078715,-0.1292065,-0.04645649,0.05504106,-0.1634187,-0.02636116,-0.1505592,0.2901521,-0.1835687,0.03717915,-0.05091412,0.1892908,-0.0136535,-0.06884792,-0.1152671,0.1146931,0.06697996,0.03362995,0.1031178,0.1698354,0.1229089,-0.01133036,-0.06729294,-0.1629056,0.1407653,-0.2421703,-0.02513321,-0.1959944,-0.1702691,0.1950463,-0.06229609,-0.1414221,-0.01795513,-0.1216853,-0.09832657,0.2365113,0.04673687,-0.1088879,-0.01734272,-0.005371286,-0.08797066,0.1134749,0.1586815,-0.06952402,-0.2141794,-0.1899253,-0.02844287,0.251318,0.1202116,-0.1011244,-0.1862899,-0.1944735,-0.2586874,-0.1211946,0.03061373,0.1634763,0.1728344,-0.1023624,-0.1618613,0.1905695,-0.2443846,0.197358,0.03388166,-0.1807537,-0.1731241,-0.02389238,-0.01413038,0.1825688,0.03172912,-0.05537225,0.03950007,0.06810059,-0.1339121,-0.0167621,0.123708,0.06183865
0.01899314,0.1289445,-0.03835172,-0.1377038,0.01149413,0.03945005,-0.02058971,0.08295915,0.01602822,-0.2361351,-0.1712239,0.03577783,0.01371296,0.01414922,-0.01521383,0.02483658,-0.08804812,0.1242203,0.1677473,0.07044161,-0.2621559,-0.02268742,0.2077743,0.06773975,-0.09232474,-0.2547439,-0.07535844,-0.1422373,0.1574848,-0.1630358,-0.2348207,-0.1773115,-0.1760025,-0.2115509,-0.1907793,0.06845267,0.1310997,-0.05222518,0.1688529,-0.1793309,0.05867728,-0.2375286,-0.01364058,-0.2074914,0.1131192,0.07977625,0.1083047,-0.1319237,0.08455586,0.08017283,-0.07797924,-0.05567128,0.01083048,0.07200743,-0.1322406,-0.2226332,-0.01746897,-0.1514304,-0.1235883,-0.172273,0.09931328,-0.2174518,0.09918399,0.01618801,0.06815563,0.09155557,0.04828912,-0.1192217,-0.2004516,0.05635636,-0.01209896,-0.04135341,-0.1174549,-0.199513,0.07914327,-0.1056228,0.1393865,0.01842079,0.1286384,-0.2241011,-0.1274597,-0.08205371,0.06122385,-0.06601852,-0.04895292,-0.01491778,0.09974117,-0.0442927,0.02401218,-0.2183434,0.101161,0.05397024,0.1920539,0.1414513,-0.2289535,-0.2110422,0.07973131,-0.20442,0.1175544,0.01046958,-0.04422317,-0.1865223,0.1636287,-0.04913979,-0.146938,0.1761306,-0.03238631,-0.01930031,0.007723378,0.0286036,-0.002558054,-0.1409613,0.01530013,-0.03413653,0.04094302,-0.06179318,0.1650511,0.005162656,0.02188741,0.1649432
0.04119033,-0.1630503,-0.2132391,-0.1918185,0.2206193,0.1091324,0.1512788,0.07828654,-0.01188887,0.06521489,-0.06372255,0.1908036,0.2053662,-0.01085783,-0.1496064,-0.1136298,-0.06384859,-0.149728,-0.1141796,-0.08695278,-0.04300178,-0.1582952,-0.0514189,0.1446322,0.04683889,-0.0488174,-0.01652664,-0.1005249,0.2096817,0.1966964,-0.1252266,-0.06322924,-0.06700689,0.1103697,0.204947,-0.07248011,-0.1906463,0.2302619,-0.1597066,0.08220541,-0.06627932,0.09234334,0.1103845,-0.0391323,-0.1013674,0.1530654,-0.08662685,-0.002441816,-0.05620402,0.1500095,0.03759491,-0.0001768041,0.08190128,-0.1206691,-0.01568884,0.01514845,-0.1656751,-0.1539058,-0.117781,0.092122,-0.03361827,-0.1051125,-0.0385115,0.05179622,-0.1618911,-0.129971,0.1963618,0.1101178,0.06618586,-0.1650811,0.01471941,0.0585421,0.04077299,-0.005052562,-0.1101899,-0.0438237,-0.02947375,-0.1121519,0.07832472,-0.1779254,0.09198066,-0.1642113,-0.1357305,-0.06540236,0.1095406,-0.1725701,-0.03627354,0.02801294,0.02193,0.1704215,-0.01221763,-0.1286181,-0.09156013,0.1051681,0.1145246,-0.09268673,-0.1614887,-0.2241503,0.06141081,0.1571702,0.003183975,-0.01321743,0.07270937,-0.1609118,0.07257676,0.07068005,0.01893601,-0.2125288,-0.1109948,-0.1672694,0.03492432,-0.1607142,-0.1038157,0.1560406,0.08473881,0.04576163,0.02109679,0.2374611,0.1948315,-0.06488622
-0.1702337,-0.2184218,-0.04637916,0.1684927,-0.2218792,-0.1390019,0.09984159,-0.1090287,0.135167,0.159582,-0.05157445,0.125598,-0.1110128,-0.1836899,-0.06556615,0.1551084,-0.1507479,0.09017005,0.02572012,-0.1348003,-0.15398,0.0128453,-0.1137831,-0.008882798,-0.1865381,-0.1294709,0.04672654,-0.144404,-0.1335393,0.02407604,0.07491961,0.0492988,0.0226775,-0.116766,0.116578,0.1710927,0.06093813,0.09662515,-0.1896688,0.09175682,-0.1172546,-0.03153037,-0.04932009,-0.1647339,-0.02410709,0.07598738,-0.09741531,0.1953166,0.0792102,-0.04262277,-0.1415607,-0.09138376,-0.1742012,-0.04815376,-0.02681308,-0.1450717,-0.1448081,-0.2299634,0.1177437,0.1017411,0.02941179,-0.1780385,-0.1879618,-0.01986739,-0.00718639,-0.2219465,0.08867374,0.1557237,-0.09957086,-0.05665203,-0.1495929,0.07939893,-0.07428944,0.2024964,-0.1739701,0.15223,0.03914759,0.1318475,-0.1857713,0.1444903,0.09264611,-0.003900615,-0.009490713,-0.2194389,-0.1065566,-0.0865532,0.09681888,-0.06944464,0.06501581,-0.1039958,-0.1197017,-0.08177491,0.03908608,-0.1007766,0.05920605,-0.07273452,-0.09859759,-0.2081783,0.03409051,0.001732982,0.220962,-0.07628892,0.1905866,0.1832987,0.1994881,0.03858129,0.2173218,-0.1683871,0.2232474,0.1927743,-0.03552993,0.04420445,0.0753565,-0.01322944,-0.1673464,-0.03739025,-0.08702171,-0.1771771,-0.01414482,-0.1739077
-0.1205545,0.1326726,-0.2088414,0.05342432,-0.283482,0.02890156,0.124959,-0.03107007,-0.09223983,-0.0004070077,0.1108437,0.1139105,0.08346169,0.07070372,-0.2002661,-0.2266911,0.002521461,-0.0677049,0.1754097,-0.03685274,0.2026959,-0.1334701,0.06379986,-0.1896063,-0.01738921,-0.1409063,0.001166981,0.03780771,0.1132267,0.2054664,-0.2119656,0.2138101,0.2019897,-0.1845941,-0.03940285,0.03091477,0.08959128,-0.08576734,-0.08813004,-0.1831496,-0.1105506,-0.08645473,-0.09024382,0.09742779,0.07354618,0.2427463,-0.1714208,0.1254009,0.03616534,0.189273,-0.2221449,-0.178371,0.02560801,0.02092252,0.1394023,0.1061031,-0.1366139,-0.02158511,-0.03341493,-0.1817773,-0.0263171,0.03392225,0.1954776,-0.1235187,0.07175265,0.113045,0.1129775,-0.1392087,-0.1574606,-0.1910559,0.09313843,0.1413703,-0.02024894,-0.06179818,0.062309,-0.1820975,-0.1832256,-0.1819185,0.1796658,-0.02590931,-0.103015,0.06259161,0.1836959,0.1394914,-0.09499528,-0.01044961,-0.2019294,0.09456103,0.0366404,0.0596807,-0.1178382,0.06491736,-0.1043709,0.03860479,-0.02124596,-0.05250761,0.1807366,-0.1682689,0.06424811,0.009625175,0.2012304,0.1371209,0.1175824,0.1472833,0.06614288,0.2122974,0.1730393,-0.06570183,-0.08793233,-0.1358623,0.12578,-0.03334416,0.01403182,0.05750839,-0.1886782,-0.03277765,0.1999418,0.1465856,0.2407511,-0.08556684
-0.1092418,0.09414642,-0.2207929,-0.2420427,-0.1334099,0.1729191,0.04632586,-0.07436554,-0.2593439,-0.1834727,-0.1148419,-0.1850094,-0.02131154,-0.2069494,0.1635546,-0.1657611,0.143657,0.06825521,0.1275217,0.1451123,-0.2294203,-2.616513e-06,-0.1930301,0.01239878,0.02462547,0.02336639,-0.2275831,-0.1682083,-0.1589621,0.1672629,-0.1695991,0.1712779,0.1065181,-0.1490719,0.04159708,-0.1139113,-0.2038609,-0.07969317,-0.1084581,0.00193472,-0.0165508,-0.08681331,0.1788238,-0.2149194,-0.1006888,0.1279362,-0.05962364,0.1245949,-0.1708888,0.1686539,0.2022166,-0.1435675,-0.09274994,0.1739583,0.1994528,0.1384355,-0.1746019,-0.1044541,-0.1087215,-0.0165261,0.04010293,-0.0530418,-0.163919,-0.1585131,-0.2536043,0.1719979,-0.06140282,0.07709409,-0.2006299,0.1548278,-0.0287039,-0.1501765,-0.07657938,-0.05204013,0.1486871,-0.05808061,-0.09920006,-0.07360368,-0.09674162,0.1341047,-0.01154617,-0.03529081,0.03734288,0.01502674,-0.01373637,0.1421568,-0.04133268,0.177314,0.05668854,-0.1892844,-0.1999405,0.1500892,-0.1840835,-0.2488389,-0.1094111,0.03701081,0.08228723,0.1577162,0.08953608,-0.2364719,-0.1610668,-0.06605794,-0.2055704,0.1678286,-0.09559344,0.07331276,-0.2647413,0.01104803,0.0198805,0.08720066,0.1446208,0.1991492,0.03463644,0.2013376,0.1488719,0.1253421,-0.1797041,-0.1728555,0.1543632,0.1201325
0.2173189,-0.1251772,0.08232132,-0.1787524,0.1012754,-0.1375734,0.1181061,-0.2688788,0.03682997,0.2570893,-0.1317322,0.1583881,0.02248766,-0.1280192,-0.05036086,0.1316359,-0.1672188,0.05053801,-0.1232388,0.1774023,-0.04604729,-0.02474117,-0.1691287,-0.1028373,0.04602355,0.06346551,-0.2428759,-0.1276419,0.1182848,-0.1808465,-0.08503156,0.1140873,-0.1854271,0.1706971,0.1799226,0.1297152,-0.1071679,0.09925487,-0.1165445,0.09586289,0.1635768,0.07058658,0.1319898,0.0512051,-0.1919248,-0.002830958,-0.0528928,0.08738374,0.1475062,-0.2031272,-0.118944,0.009090659,0.1277805,-0.05852444,-0.1380122,0.05658426,0.1929233,0.05108229,-0.2136377,-0.03788147,-0.06560201,-0.167141,-0.1213306,-0.0372242,-0.04741111,-0.1608724,-0.02015237,0.002296217,0.0002725589,0.09620935,0.0008794219,-0.08150307,0.1312812,-0.05431304,0.0006063315,0.1553206,0.02362179,-0.0621052,-0.1508692,-0.1415001,0.04142438,0.2227179,0.08121902,-0.1473991,0.1247735,0.007223635,-0.1388455,-0.1732919,0.1323597,0.07783116,0.04345971,-0.08777229,-0.1523077,-0.02587521,0.0427153,0.1722474,0.1333078,0.03746679,-0.04694104,0.04185519,0.2218402,0.07762434,-0.1387376,0.2123574,0.1190392,-0.1689897,-0.01028142,0.04480034,0.1800523,0.0003275565,0.1998064,-0.1574223,-0.2448549,-0.1289741,0.195828,0.1986353,0.09083359,0.2350388,0.0392197,0.1753866
-0.1011858,0.1171718,-0.1831197,-0.09553571,-0.1778841,-0.1689821,-0.05186736,-0.04737494,-0.04180617,0.1359226,-0.140755,0.1697087,0.07780839,-0.1308772,0.1427534,0.1366087,0.0921876,0.1202629,0.1162271,0.1035045,-0.129067,0.1289839,0.0484163,-0.1138064,-0.2217701,-0.0213079,0.0883373,0.04716851,0.1921858,-0.1256631,0.1813339,0.2147681,0.01352958,0.04636888,0.071248,0.1573028,-0.1711713,0.1912664,-0.222411,-0.09113985,0.1225954,-0.1581949,0.1629074,0.08725664,-0.06191603,-0.131935,0.1437945,-0.1446756,-0.05368596,0.005219367,-0.07748631,-0.208988,-0.09584578,-0.1316287,0.2020493,-0.126616,-0.1132919,-0.0848357,0.1000289,-0.1006371,0.05036346,0.1636221,0.04290255,0.01875445,-0.1439077,-0.09461239,-0.1013938,-0.07411447,-0.1687086,-0.1260829,-0.09645709,0.05589767,-0.2015694,-0.149571,0.1993122,-0.1860822,0.2091119,0.146497,0.07742655,0.1151327,-0.01282901,-0.07007916,-0.09026452,-0.1804136,0.1103954,0.116553,-0.1246909,-0.1287274,-0.145008,-0.01058338,-0.2176471,0.07726017,0.2085049,0.08142278,-0.102751,-0.1077369,-0.2142323,-0.1001001,0.1790124,0.001809109,-0.002084746,-0.08998181,-0.1924732,-0.06752291,0.1455388,-0.2274508,-0.2075659,0.1910856,-0.04203067,0.03608955,0.001020207,-0.1009882,0.2724118,0.1980956,0.1727262,-0.157951,0.05605239,-0.180263,-0.01573716,-0.1224877
-0.07288673,0.0708212,0.03280574,-0.10688,0.03300443,0.1992062,0.01758559,0.02384134,0.04951105,-0.006319391,-0.05093907,-0.004498644,0.1244515,-0.2272422,-0.08525635,0.1710795,0.04916627,0.09404457,-0.1543691,0.09421752,0.03576729,0.04061253,-0.122615,0.05202188,-0.1271304,-0.1515563,0.2517852,0.03292361,0.07192544,-0.1977525,0.01667515,0.2081975,0.2415693,0.0008745191,0.1295684,0.01194789,0.2185668,-0.02768164,0.06004259,0.247784,-0.08327501,-0.1952646,0.194758,-0.03762513,-0.01899424,0.1178051,0.02025407,-0.1778861,-0.1442644,-0.09125596,-0.1625222,-0.2192736,0.1852545,-0.04791183,-0.1076089,-0.1497245,0.1795435,-0.09286905,-0.1160652,0.2086832,-0.06440802,0.09244277,-0.1113311,0.1027998,-0.0286066,-0.1513403,0.04017701,-0.1596371,0.1490631,-0.04905007,0.05624504,-0.1544433,-0.05939439,-0.00168003,-0.2368425,-0.06945957,-0.1959743,-0.1976243,-0.0561686,-0.1752489,-0.03754947,0.05118235,0.2234439,0.1798571,-0.1122643,0.1678057,-0.1859921,0.07652731,-0.1659359,0.1023958,-0.1310284,0.1353843,-0.2165798,0.129819,0.03626571,0.1846352,0.1945901,-0.07658041,0.182671,-0.08910146,-0.1003292,-0.1764078,-0.1141258,-0.01057747,0.02411667,-0.02097568,0.07961603,0.186204,0.2007454,-0.0562459,-0.1476677,-0.181097,-0.1315917,-0.01892873,0.1010888,-0.07258423,-0.1607951,-0.03936449,-0.01825966,-0.129738
-0.1445093,-0.01779652,-0.02145696,0.2201736,0.04735292,-0.1059666,-0.1882514,0.1071215,-0.03427534,-0.2135354,-0.1055043,0.1167755,-0.2015345,0.1730355,-0.1355322,0.1186871,0.1672256,-0.1734712,-0.1127015,-0.09760662,0.1163835,-0.226146,0.1033007,-0.1412347,0.08048455,0.114523,-0.08049815,0.1742897,-0.1598418,0.02151413,-0.008787929,0.1599523,0.08276342,-0.1572863,0.07539918,0.2026139,-0.08825195,-0.1945587,-0.06712961,0.1583193,0.2192321,0.04725818,0.076662,0.07320894,0.18718,0.1308198,-0.1549423,-0.1230428,0.03325486,0.07882291,0.03543057,-0.09224563,0.1663842,-0.1723981,-0.07698305,-0.2309261,-0.01080047,-0.09565848,0.1081717,-0.03032721,-0.08526827,-0.01623993,-0.06272306,0.1174896,-0.1388823,0.01941604,-0.1881563,0.06323382,0.03655456,0.1572748,0.1017328,0.08653115,-0.0118343,-0.1013772,0.1520371,0.1063584,-0.08894794,-0.08735302,0.0404561,0.09172986,0.2214842,-0.1160571,0.18125,-0.1551469,0.1766953,-0.1356016,-0.004271199,0.1943765,-0.09839614,0.1438698,-0.09119383,-0.083861,-0.09562763,-0.06665995,0.04397489,-0.1770627,-0.159573,-0.1377532,-0.2130843,-0.136471,0.1409279,-0.2212353,0.1461295,0.1915278,-0.2150256,0.1443514,0.1944643,0.0009080691,0.1919885,-0.002403189,0.08301415,-0.02030252,0.1510864,0.02477589,-0.1532203,-0.1670788,-0.1300172,-0.1761955,-0.1390466,0.1308247
0.1161052,-0.0474433,-0.05596315,0.07764801,-0.2238425,0.004539995,-0.1388987,-0.1211155,0.1102057,-0.1040494,-0.1872797,-0.1500588,-0.2315561,-0.1349098,0.1760782,0.120504,-0.1323995,0.06208008,0.08826499,-0.2412169,0.01961253,-0.2320307,-0.1445017,-0.1753053,-0.1010953,-0.02135037,0.1113149,-0.207685,0.1708782,-0.2630146,0.02968558,-0.1333236,0.07919937,-0.07482865,-0.06493476,0.02172563,-0.113917,-0.07433396,0.1671329,0.02591715,-0.1679378,-0.1116686,-0.0802603,0.08964275,-0.01730644,0.09809827,0.0681195,0.1853214,0.2181637,-0.05255179,0.2184553,0.05081296,0.1530145,0.1491401,-0.1926528,-0.1411627,-0.01424676,-0.1605786,0.1645775,-0.04773759,-0.2738674,0.03521808,-0.03700767,-0.1798362,-0.169298,0.1239254,0.04877341,-0.163516,-0.2326309,0.0224799,0.07847051,-0.1141698,-0.1819241,0.06333478,0.04951432,0.1498269,0.04283572,-0.1054993,-0.1809341,-0.1824694,-0.01655235,0.08197634,-0.1556793,-0.006415577,-0.07368425,-0.2038001,0.147501,-0.1644587,0.002798198,-0.1729857,0.1004595,0.04010518,0.208113,-0.06382929,0.03288984,0.1984286,-0.250181,0.01576523,-0.2106584,0.07998568,-0.1009299,-0.1694077,0.04077347,0.05876221,0.0411505,-0.1678589,-0.2562459,0.005978444,-0.1276481,-0.3002904,0.04045255,0.1558224,-0.1215296,-0.1530121,-0.09227732,0.1322074,0.1045251,-0.05851926,-0.2000084,-0.2062944
-0.01246084,-0.1261926,-0.0004589408,0.1977437,-0.1420711,-0.1411884,0.166588,0.02849592,-0.1643925,-0.0326711,0.07252283,-0.09232653,-0.1697789,-0.06789144,0.02647499,0.1537421,-0.1442762,-0.0189945,0.1926675,0.01136522,-0.06774628,-0.2104994,-0.07442944,-0.1358609,0.1863855,0.1068266,-0.1669783,-0.1062311,0.2069122,-0.02881508,0.1288555,0.06203175,0.03294951,0.1505053,0.07536893,0.1792713,0.2258782,-0.2158651,-0.08631192,0.1271746,-0.09408229,-0.1073878,0.07869201,-0.1331705,0.1283633,-0.09714662,-0.07096909,0.07589758,-0.219874,0.1503451,-0.1165336,-0.1664138,0.0677999,0.1076998,0.1039966,-0.08080282,0.1383091,-0.01274223,-0.002787188,-0.1724834,0.1420356,-0.05558525,0.06521996,-0.06864288,0.07884975,0.09721433,0.03832524,0.01068063,0.02916821,0.2200796,-0.178845,-0.2065121,0.1100919,-0.1945257,-0.1663277,-0.01246809,-0.01962157,0.1349735,0.05890116,-0.173746,0.1439104,-0.2038061,0.07041467,0.008666704,0.1574667,-0.06291139,0.1535126,-0.09442548,-0.003132742,0.1482079,-0.1420142,-0.02145388,-0.1769416,0.09002776,-0.1485174,-0.1927505,-0.05230706,0.0934855,-0.02567274,-0.1347,-0.06351236,0.01805055,-0.004024687,-0.1357594,-0.2157095,-0.161245,-0.1263429,-0.1250108,0.2236075,0.1473669,-0.05078244,0.1299989,0.02248918,0.04810773,0.1720716,-0.04010909,-0.1371004,-0.01007853,-0.2174676,0.1958359
0.06110389,0.1811489,0.05683235,-0.001986007,-0.0967564,-0.03590519,-0.209932,0.1065216,-0.02638713,0.02826264,-0.1448908,0.2000611,-0.1507222,0.06695756,0.007158981,0.110506,0.1202067,0.04075154,-0.03540574,-0.2635062,-0.03871331,0.08730131,-0.1720909,-0.213945,0.001170401,-0.1304694,0.144812,0.002378576,-0.2074513,-0.05338657,-0.07008731,0.0942008,-0.02299395,0.0004165794,0.06450564,0.1132583,0.09866785,0.15423,0.2059776,0.08135867,-0.2263213,-0.1614132,-0.1633087,-0.2276563,0.2641529,-0.154969,-0.1761784,0.0003696663,-0.1412527,-0.03686844,0.04777571,-0.1543689,0.1774392,0.1357722,0.05025015,-0.0460671,-0.1582761,0.1225569,0.1845885,-0.2251299,0.1243672,-0.1182952,-0.1988213,-0.1074634,-0.02078998,0.2326357,0.05111475,0.1543654,0.173848,0.09066311,-0.02645409,-0.02971615,0.2095187,-0.01614051,0.01434332,0.0340083,0.1371525,-0.09342845,-0.02265139,-0.1228578,0.1530373,0.006477672,0.1247801,-0.1740855,-0.2094411,-0.07086324,-0.0120872,-0.1141023,-0.04160672,0.0688656,0.1527891,0.08709722,0.1465482,0.13484,0.03664031,-0.09815077,0.2056029,0.1526121,0.09742061,-0.1640382,-0.1819534,0.2322695,-0.1416554,-0.00494293,-0.229142,-0.1365902,-0.007170553,-0.1340123,-0.147305,-0.06055094,-0.0696924,0.2484581,0.1917618,-0.03511185,0.07606017,-0.08294348,0.02453745,-0.1147558,0.03593248,-0.1207779
0.08680689,0.106127,0.1682129,-0.1353147,-0.0004347303,0.01894896,0.1044955,-0.2253505,-0.1936458,-0.08222473,0.01363444,0.149337,0.1553591,-0.02402057,-0.2292004,0.1390963,-0.1343292,-0.179365,0.1650628,-0.03721381,-0.07612295,-0.1607729,-0.1634322,0.02020364,0.2133178,0.1038977,0.05578361,0.1756532,0.0963186,0.04469726,-0.02111863,0.0659247,-0.1455528,0.1928436,0.2096393,-0.0753018,-0.1207709,-0.2367775,-0.120958,0.1449834,-0.2213785,0.1184473,-0.04535032,-0.01337527,-0.2224691,0.005204369,-0.06494272,-0.1756055,-0.1014975,0.0516283,-0.07838611,0.1377533,-0.0004066043,0.1300452,0.1633031,0.06640362,0.0442835,0.1796803,-0.04037658,-0.06399401,-0.09930854,-0.145775,0.06527915,-0.2961339,0.1896607,-0.009612269,-0.1806931,-0.2235246,0.04213956,0.1892061,-0.03017167,0.05959627,0.1024471,-0.1021629,0.05055923,-0.02082138,-0.001273118,-0.08292352,-0.1586251,0.08071452,-0.01643291,0.02428143,-0.1801063,0.1648061,-0.2172509,0.1130339,-0.01467097,-0.1906431,-0.01864411,-0.09423405,-0.174289,0.03937542,0.07169852,0.03738042,-0.1882652,0.0864704,-0.1533765,0.2262337,0.1848639,-0.1948769,0.1619981,0.003934011,0.1085634,-0.1966378,-0.1313051,-0.06688175,-0.1558455,0.1376424,-0.0136445,0.02361451,0.07112711,-0.1731361,0.03376749,-0.1181402,-0.0397477,-0.2129228,0.1121996,-0.1216617,-0.1359624,-0.02119613
-0.2487403,-0.0356524,0.1710649,-0.1902518,0.1081221,-0.164926,-0.2110204,0.1602523,-0.197293,-0.1016667,0.009963778,-0.1898237,-0.08502392,-0.1500793,-0.02842178,0.01025412,0.000313939,0.1868364,0.2154813,-0.2770238,-0.09127871,-0.1273814,0.06578698,-0.0817042,-0.1260837,0.09160015,-0.01272806,0.1876827,-0.1682638,0.004178494,-0.1362743,0.2078985,0.1664986,0.1731524,-0.1657723,0.1265597,-0.0776706,-0.2160074,0.0271967,-0.1002417,0.1209548,-0.0101549,-0.1618648,0.2184151,0.1402643,-0.186454,0.2039517,-0.05623446,-0.07665575,0.2360884,-0.2115341,-0.1396388,-0.1910393,-0.1637509,0.1781452,-0.0763986,-0.0831995,0.07060474,0.007043437,-0.05000707,0.1723185,0.2191027,-0.04017032,0.1339118,0.07625569,0.08531011,0.1778859,-0.01397346,-0.1358821,0.09120435,-0.07354776,0.1429305,0.03537239,-0.02300494,0.1331361,-0.1387519,-0.1025229,-0.1503064,-0.05585086,0.1474063,-0.2033917,-0.02332403,-0.1572387,-0.02791858,-0.05505974,-0.02476742,-0.1229158,-0.1283575,0.1856506,-0.2006647,0.02159676,-0.1248976,0.1818615,-0.0479824,0.2029093,0.1609883,-0.0833059,0.02831354,0.07183218,-0.2179011,-0.08914107,0.2071189,-0.1710957,-0.1446262,0.1211772,-0.1789979,0.0009912193,0.02093678,0.1193888,-0.08086032,0.1544169,0.07423332,0.1486917,-0.2002617,-0.05527709,-0.08398796,0.05438541,0.180044,0.1724922,0.08480915
0.1802631,0.1982656,0.04859886,0.2922025,0.01924006,-0.002299987,0.1348439,-0.1695895,0.2183151,0.05907575,-0.02763379,-0.09130071,0.1571473,-0.05909593,0.1912016,0.2206447,-0.192662,-0.1601305,0.05098923,-0.08891132,0.1179505,0.2135075,-0.1627347,-0.07348257,-0.1889089,-0.04617106,-0.1961044,-0.07870246,-0.004283655,0.02174174,0.04611568,-0.02362992,0.2054853,0.2061862,-0.01823484,0.2028416,0.1174876,0.05032277,0.009880545,-0.03612519,0.1878896,-0.1011036,0.006353286,-0.1628265,0.02905269,0.04609551,-0.01361113,0.1491582,-0.1857522,0.1893314,-0.1344293,-0.2475306,-0.1286148,0.1025724,-0.08202678,0.1520437,0.1716681,0.1746443,0.1788942,-0.1079369,0.05151154,-0.08448137,-0.05209425,-0.226543,0.1599324,0.1872748,-0.1285157,0.004567519,0.003753267,-0.04469956,-0.1777984,-0.1154885,0.12214,0.08027219,0.0184397,0.1107151,-0.1917385,0.1587645,-0.1824995,-0.1992908,-0.187503,-0.1156441,0.20772,0.007205802,-0.09826753,-0.03533883,0.07578813,0.1950819,0.2425287,-0.0995127,-0.108837,0.0914174,6.047154e-05,-0.03145337,-0.2018075,0.1291311,0.2253314,-0.05163974,-0.03436371,0.04583464,-0.09918068,-0.08257999,0.05285452,-0.05490939,-0.1821364,-0.1088575,0.2544174,-0.1417238,-0.09521926,0.2467678,-0.08891151,0.0597481,-0.001493918,-0.002051811,-0.2065271,0.1197997,0.03837007,-0.1654386,-0.005310242,-0.2055101
0.04556179,0.09327575,-0.1625676,-0.1415136,-0.007038926,0.1422692,-0.006331698,0.1440232,0.04718969,-0.1242756,0.007011954,0.01154006,0.1790621,0.1401978,0.1269163,0.2006258,-0.09863879,0.1243151,0.1812546,-0.08247911,-0.151129,0.05099209,-0.09973806,0.2299245,0.04812225,0.04765255,0.01703317,-0.04357443,-0.1983079,0.08936842,-0.2467293,0.1166876,-0.1712631,-0.1245417,-0.07256163,0.1297569,0.156805,-0.0749533,-0.1940529,0.09617136,0.002622807,0.1978784,-0.08070434,-0.03292625,0.1470472,-0.1085307,0.2003495,-0.1687866,0.1143472,-0.0913898,-0.1140555,0.0990482,-0.08039434,0.1234704,0.1526572,-0.2372454,-0.09085797,0.002462091,-0.192703,0.06156923,-0.01505235,-0.09201062,-0.03198056,-0.05991904,0.1419181,0.1791812,-0.2423847,0.1511647,-0.1068974,0.1890479,-0.09659117,-0.02663336,0.03508518,-0.1209282,0.1752713,-0.2115531,0.1070952,-0.002026811,0.216118,-0.188546,0.06319892,0.09896264,-0.1673283,0.1843158,0.1943502,-0.1339823,-0.2166975,-0.1083549,0.04768987,0.0231139,-0.01909676,-0.05886716,-0.1303001,0.05059655,0.2284549,0.0907787,0.08090645,0.03198881,0.179873,-0.01308412,-0.06625032,-0.08730166,-0.2302509,-0.03173112,0.08632962,0.1492945,-0.06776905,-0.001402801,0.2174339,-0.05490239,0.09599715,0.1331517,-0.05813762,-0.186598,0.04251648,0.2275843,0.1337041,0.1088385,-0.1099949,-0.2391125
-0.06330402,-0.00610167,-0.03238242,0.2683921,-0.1081579,0.1003477,0.1531655,-0.1431853,0.1525652,0.08567552,-0.2111414,-0.04855472,0.1048221,0.0931096,0.2179565,-0.008714693,0.01744518,0.2076906,0.2943674,0.1171069,0.05090247,-0.1007745,-0.1313772,0.1506284,-0.01859058,0.2202789,0.2488907,-0.004782681,-0.198206,-0.1713659,0.2061295,0.219392,-0.09996435,-0.09116388,0.1925207,0.0577129,0.0392547,0.08858042,0.02447999,0.2148474,0.1525591,-0.009389929,-0.06663284,0.105972,-0.2377453,0.1047152,0.007041526,-0.01086351,0.01972257,-0.01402766,-0.02344764,-0.006648456,0.06742587,0.1471814,-0.2203161,-0.1953485,-0.03225248,-0.1256152,-0.05770916,0.2795409,0.07522032,-0.171982,0.0777567,0.005425681,-0.1932123,0.1938946,-0.188005,-0.01861718,0.006836125,0.2412633,0.1906657,-0.06225642,-0.1082841,0.03458827,-0.01558811,-0.1781262,-0.2149376,-0.2408461,0.005123829,0.1029738,-0.09824396,-0.163775,-0.02937125,0.08701776,-0.01722332,-0.04045822,0.1012856,0.2017402,-0.1611419,0.06718961,0.2243025,0.1158853,0.1011692,-0.08094743,0.1289551,-0.08251857,-0.1674327,0.01576872,0.04849356,-0.190708,0.08933374,-0.1391256,0.01578735,-0.1138402,0.08409839,0.05229355,-0.1182144,0.1891683,0.1117163,-0.1355167,0.1185713,0.09309959,-0.09339599,0.08129834,0.1244618,-0.1482377,0.2214834,0.2095713,-0.09729537,0.2224519
-0.07598573,-0.2453761,-0.05487553,-0.1406351,-0.3116671,0.1515996,-0.0329601,-0.1712656,-0.1659358,0.1328378,-0.01711309,0.184342,-0.04618827,0.1126059,0.1171204,-0.07569855,0.07591505,-0.120626,-0.2263048,0.1699774,-0.1288403,0.0522114,0.1118083,-0.215808,0.1118112,0.1283483,-0.0432416,-0.2135895,-0.1819552,0.1647452,0.03860351,-0.06133955,0.02361586,0.1989807,0.1935996,-0.1104968,-0.1027418,-0.07641392,0.1451612,0.1301474,0.1536263,-0.2090303,-0.0065976,0.179161,0.1129808,-0.06783719,0.1633241,-0.1383942,-0.09370219,-0.05107304,0.142279,0.1012981,0.001273194,-0.1108108,-0.140103,-0.187298,-0.1776064,-0.1575497,-0.09836107,0.1325761,-0.2484625,-0.2187253,-0.07788968,0.2081056,-0.1639795,-0.04453976,0.0786734,0.2017272,0.03051804,0.04685172,-0.02993285,0.1858667,-0.1711868,-0.1309907,-0.2082783,0.2052388,-0.0929356,0.01164939,0.2115671,0.05329525,-0.1746958,0.09239656,-0.1216073,-0.2139354,-0.02594293,-0.09822593,-0.1324365,-0.1900214,0.1284992,0.1948448,0.04059486,0.19496,0.1731707,0.1053057,-0.1482484,0.08761312,0.06155796,0.09049143,-0.1780545,-0.08787142,-0.03923679,-0.1545167,0.07893489,0.1193951,0.07030261,-0.1612315,0.03816144,0.09788088,0.1562957,-0.1330491,0.191363,-0.1415269,-0.2263658,-0.05086134,-0.007170264,-0.02417934,-0.009675972,-0.006192569,-0.06681675,0.05718236
0.140409,0.051156,-0.1409413,0.0540834,-0.07080176,-0.1648221,-0.1938356,-0.02992526,0.03733695,-0.02507119,0.1053221,0.02500783,-0.007262689,-0.08707549,-0.1252402,0.07530662,0.1342011,-0.1503317,0.0945015,-0.1339982,-0.07408212,-0.06347566,0.1113255,0.04300688,-0.1690932,-0.1763701,-0.2124913,0.02331621,0.02774867,0.005805918,0.1113115,-0.07275045,-0.1059973,0.1780956,-0.1623084,0.001562334,0.06482735,0.1202065,0.2041147,0.1555863,0.05979704,-0.04592067,0.1175679,-0.1638055,-0.07392079,-0.1457938,0.2086836,0.1182384,0.2160162,-0.172344,-0.0252052,0.1699295,0.1185316,-0.1208086,0.191184,0.05633589,0.1601707,0.02351798,0.01178103,-0.1534298,-0.08799368,-0.2235855,-0.158833,-0.1507114,0.096976,-0.01072501,0.1041199,0.1085239,-0.1347784,-0.1332359,0.1166891,0.1269435,0.1711535,-0.1264868,-0.03449971,-0.03296909,0.0281051,-0.02933297,-0.2055424,0.1770936,-0.1477253,-0.2287072,0.02864491,0.01559417,-0.05461853,-0.1567319,0.1827639,-0.2116109,-0.09653349,-0.053238,-0.1815148,-0.2200314,-0.1043907,0.007180492,0.04917062,0.1644991,0.1865548,-0.2258921,-0.01568983,0.03292184,-0.1663548,-0.0005677515,0.1506926,0.02145285,-0.09174588,-0.09919653,0.01581008,-0.1199605,-0.2200693,-0.1971993,-0.1784424,0.05248916,-0.01097538,-0.1509486,0.189691,-0.1592242,-0.1098201,-0.1885773,-0.2069409,-0.1436663
0.1836966,0.1642437,-0.02223625,0.01125683,0.09992594,0.06522497,0.2449615,-0.1284845,-0.1697929,-0.08860916,0.0004570443,-0.0665978,-0.01860508,0.1577573,0.1548922,0.004041462,-0.02464163,0.05615639,-0.0691929,0.1900898,-0.2449344,0.1589754,-0.1163923,0.01871222,-0.02898415,-0.01922819,-0.04550935,0.2071842,-0.05233691,0.03421052,0.1497113,0.1149445,0.2011599,-0.2222808,0.1923022,-0.1110571,0.1509975,-0.05112587,-0.04916384,0.06881327,-0.1888877,-0.2554842,-0.1345834,0.1283978,-0.07329814,-0.02066285,0.1429278,-0.1056796,0.09847048,0.2332106,0.1706009,0.1747103,0.09037508,-0.09369393,0.1861748,0.1202985,0.1886704,0.07211439,-0.08478511,0.1779325,0.1844312,0.1571429,-0.1148963,0.2571813,-0.1380738,-0.1412554,-0.1511859,0.170331,-0.003925632,-0.001926044,-0.1420882,0.1016033,-0.01089241,-0.1995431,0.1407367,-0.1425074,0.07546006,0.01346502,0.08111399,0.007802445,-0.05659815,0.05046478,-0.1359739,-0.1831035,-0.07302509,-0.01742031,0.08817354,-0.2246207,0.05124095,0.03727386,-0.1699929,-0.02485215,-0.1076698,0.144887,-0.1099014,0.01716206,0.1851061,0.1106289,-0.2048965,0.05166942,-0.1994855,0.1240695,-0.1899306,-0.001995749,0.05661446,-0.1664995,0.2288841,-0.1147453,-0.1426615,0.1725919,-0.1699786,0.1293642,-0.1444752,-0.06817251,-0.04851897,0.03343881,-0.1355121,-0.0578029,-0.1279195,-0.01304032
-0.1273336,0.206186,0.1210239,0.2427239,0.1036704,0.1885565,0.03770416,-0.1248509,0.09603256,-0.05829968,0.2152157,-0.06586821,0.1436069,-0.172303,0.1464203,0.05554017,-0.1888617,0.1053206,0.08414053,0.1405047,0.09789355,-0.2222861,-0.139147,0.1742227,0.1204792,0.2146034,0.1153996,0.01949555,0.1856038,-0.1074487,-0.06435429,-0.1974994,0.03745427,0.1213521,-0.1826069,0.1165163,-0.1435234,0.08544035,0.1428495,-0.1155254,0.05056036,-0.1017456,-0.1285449,0.0579655,0.04291746,-0.1791265,-0.01030995,-0.02203403,0.09459393,-0.1367852,0.02322866,-0.04320295,0.02885863,0.02026439,-0.1506077,-0.258892,-0.1131123,0.0976439,0.1293832,0.1536891,0.01497996,-0.005921686,0.07033759,-0.09937081,0.09413118,0.08733235,-0.1832725,0.2440048,-0.2089119,-0.04531922,0.2145379,-0.01070561,0.05808338,0.127136,-0.005875314,-0.04382118,0.1815422,-0.02353657,0.06535469,-0.1740256,0.1766635,0.116881,-0.02228435,-0.1774194,0.1090036,0.1618861,-0.07036654,-0.164889,0.006704726,0.1949401,-0.0603802,-0.1985032,0.03538717,0.1750263,0.02809728,-0.02135256,0.08745422,0.0129285,0.04716257,0.1977998,-0.03241162,0.08260403,0.1167428,0.1936188,0.1131981,-0.2670721,-0.1084831,0.2721034,0.1321118,-0.03724477,0.1578988,0.174006,-0.0488808,0.1946798,-0.08091312,0.02266341,-0.1915587,-0.01560519,-0.1744078,-0.08035433
